315 32
6 0.09047658 -0.60248417 -0.22002743 -0.111448616 0.17795505 -0.64189243 0.11223451 -0.0038792968 0.01436735 0.014211243 0.044340912 0.06186982 -0.05927332 0.057209715 0.04306762 -0.35711858 0.10382009 -5.458298e-05 0.005722192 0.024067672 -0.1033065 -0.07479543 0.055982146 0.1373744 0.14200985 -0.08441927 0.011674615 -0.10472769 -0.065105185 -0.28967145 -0.1913066 0.029204132
1 0.09307314 -0.67088646 -0.2133623 -0.13587205 0.20389345 -0.68301517 0.093444705 -0.009258131 0.0059739742 0.0030450458 0.040512513 0.023320977 -0.039382864 0.06273032 0.06386923 -0.23913762 0.0992078 -0.041032758 0.02885167 0.005406713 -0.06326803 -0.095129564 0.018725561 0.11109228 0.17032869 -0.08647886 0.025637398 -0.08539265 -0.047336288 -0.36311102 -0.22617695 0.0711978
5 0.0867353 -0.58842266 -0.24363971 -0.13135439 0.21711601 -0.68104815 0.12150146 -0.034892008 0.034157664 0.020876663 0.045851894 0.04810978 -0.08919305 0.099373564 0.07389949 -0.36094934 0.07008765 -0.040355604 0.043494947 0.05392649 -0.08077651 -0.04352365 0.052369215 0.13856211 0.100841306 -0.10084806 -0.006692053 -0.06237549 -0.06086546 -0.28949523 -0.16153544 0.021574622
4 0.10147595 -0.61991143 -0.25104836 -0.1183215 0.18957418 -0.7336911 0.08025613 -0.010409109 0.016331892 0.004056128 0.042572822 0.076071694 -0.052101772 0.08097371 0.035302468 -0.29260716 0.064605504 -0.048654877 0.027667722 0.04227081 -0.057414528 -0.05475259 0.03532441 0.07321238 0.14664064 -0.106636085 0.020865018 -0.1081153 -0.053907495 -0.34096727 -0.19512896 0.030762676
0 0.057094708 -0.5986601 -0.23779204 -0.16665637 0.1507826 -0.66958326 0.10048227 -0.017458418 0.0037231094 0.015158484 0.04822344 0.08176552 -0.03613657 0.056663238 0.06902198 -0.3172417 0.07652751 0.0072238822 -0.01173953 0.022444118 -0.06954765 -0.09196308 0.08219336 0.12817807 0.15371796 -0.10214362 0.0038368418 -0.12782718 -0.093536 -0.31945476 -0.13691725 0.04268951
3 0.08997574 -0.5903214 -0.19817016 -0.08128487 0.19910769 -0.63489336 0.10564755 -0.018752627 0.014878134 -0.012764484 0.04088633 0.045820706 -0.049300138 0.047263015 0.048469897 -0.32523596 0.12749128 -0.017820036 0.032043565 -0.0068933107 -0.07549638 -0.06716842 0.046006892 0.16569516 0.21497366 -0.09467281 0.008417277 -0.114151955 -0.030253805 -0.38165376 -0.24479817 0.07147812
2 0.082292475 -0.62745166 -0.20845087 -0.12179307 0.17300174 -0.6747766 0.08417018 0.024034893 -0.0075655086 0.0477523 0.049535803 0.05627478 -0.063289456 0.08256149 0.046675205 -0.29098684 0.06393968 -0.014258187 0.04489446 0.032236777 -0.09765819 -0.06680294 0.045993842 0.111793995 0.19679353 -0.11097314 0.030126672 -0.11677949 -0.053615976 -0.35516065 -0.19104522 0.06901293
136 0.021062596 -0.4551648 -0.20178828 -0.11169807 0.0972646 -0.4821208 0.051822785 -0.018320685 0.0382651 0.025774486 0.038502507 0.1404128 -0.05717356 0.073942624 0.05200351 -0.59657013 0.11817912 0.06337556 -0.00721563 -0.023725396 -0.09754141 -0.043558385 0.112654984 0.30660415 0.11914228 -0.049300883 0.026792597 -0.097586624 -0.040778674 -0.15878429 -0.105993584 0.026923336
256 0.007917826 -0.41534656 -0.21040528 -0.08580721 0.08191893 -0.44643345 0.057645507 -0.032211408 0.032087304 0.031361602 0.06027809 0.14625761 -0.066173926 0.09431686 0.03966242 -0.6378171 0.12699652 0.0697504 -0.0010430868 -0.005842751 -0.09328668 -0.061432432 0.120602734 0.29805237 0.09998803 -0.04109301 0.03599067 -0.108359724 -0.03346048 -0.15460974 -0.1120393 0.028223075
233 0.0055887992 -0.4688042 -0.18131109 -0.0762579 0.11620677 -0.49435267 0.05201338 -0.03539646 0.020730158 0.0028079345 0.04930638 0.13604662 -0.07338703 0.08204263 0.07569559 -0.56139815 0.14183626 0.070505284 0.006049132 -0.016165188 -0.07968431 -0.048484527 0.07421207 0.30396324 0.15538818 -0.040416636 0.041082587 -0.14185208 -0.015804438 -0.22905219 -0.13307664 0.04119672
203 -0.0011028618 -0.44992074 -0.20593156 -0.09405688 0.09799223 -0.5054564 0.035960793 -0.04404469 0.055064186 0.0023059784 0.035833433 0.12396395 -0.045419093 0.09024949 0.029121602 -0.58141726 0.11204871 0.08271134 -0.0050735082 -0.014145516 -0.082786016 -0.03705855 0.09752266 0.30269575 0.10456475 -0.043479994 0.035932623 -0.1309422 -0.041060742 -0.14592867 -0.08538106 0.041965112
279 0.015216671 -0.46681407 -0.1953408 -0.079222396 0.092387185 -0.49403074 0.03292645 -0.033836614 0.0375295 0.026917223 0.05458778 0.12684266 -0.058864117 0.09650873 0.03490731 -0.6042377 0.10642775 0.05954163 -0.028600248 -0.0065121516 -0.090599895 -0.058797307 0.098261446 0.29859018 0.11850864 -0.032052614 0.02449626 -0.09575217 -0.030920682 -0.16194041 -0.117013924 0.031570923
302 0.024539609 -0.42707738 -0.2169158 -0.09401391 0.09630993 -0.48180684 0.039786294 -0.0067689996 0.043186028 0.026414022 0.070866466 0.12761472 -0.063334495 0.10867973 0.044754688 -0.62647253 0.10822659 0.04824247 -0.002340781 -0.0062582768 -0.069162354 -0.07410581 0.093163624 0.30227587 0.08870423 -0.02923503 0.032350127 -0.073841214 -0.02503277 -0.16336922 -0.10930267 0.037886582
213 0.042917363 -0.4578103 -0.22411053 -0.08175577 0.097239695 -0.50550294 0.06672265 -0.027009957 0.05215021 0.013944424 0.04211589 0.1299371 -0.048431452 0.09586812 0.066625945 -0.56167066 0.10371109 0.057334565 -0.025898099 0.0026204456 -0.091594495 -0.045787293 0.09711288 0.27723628 0.1361692 -0.050632913 0.0361832 -0.11770192 -0.053233765 -0.19941127 -0.1227361 0.017472038
283 0.01116692 -0.4596953 -0.19183086 -0.114019826 0.09304808 -0.50617915 0.044130158 -0.008199564 0.018815076 0.014986937 0.060331747 0.111884885 -0.057008427 0.09258932 0.05770333 -0.58540356 0.104264215 0.06759113 -0.004975044 -0.01521276 -0.06440746 -0.06142368 0.0811333 0.26535162 0.14123775 -0.06934803 0.026375294 -0.117843986 -0.038948942 -0.21281315 -0.13647349 0.042051487
15 0.004392282 -0.44297138 -0.19666564 -0.1139159 0.093624614 -0.4711091 0.051681004 -0.044678584 0.03954041 0.0030991128 0.060898088 0.1413698 -0.057758674 0.09524431 0.06468517 -0.592361 0.095929265 0.05161621 -0.009353641 -0.022233475 -0.061135195 -0.047384735 0.08991118 0.30791816 0.09553402 -0.04286706 0.02657893 -0.114573374 -0.030089702 -0.20473206 -0.11440379 0.03062461
121 0.02828188 -0.42286512 -0.1978012 -0.07937664 0.08960681 -0.45222694 0.050070144 -0.028592765 0.039365087 0.018708427 0.06114993 0.13781159 -0.072618976 0.06842736 0.04892102 -0.64263713 0.11748386 0.079251476 -0.017123034 -0.025234716 -0.07298805 -0.047522657 0.09876516 0.32283723 0.13486637 -0.057323594 0.05050278 -0.12512505 -0.035286475 -0.2212341 -0.124890916 0.044779442
143 0.023310484 -0.45189175 -0.20473543 -0.10182708 0.09870993 -0.4889705 0.038394395 -0.03110892 0.047144394 0.032035515 0.042825457 0.13265817 -0.050054833 0.08238714 0.035759553 -0.6020107 0.10652539 0.07233013 0.013317945 -0.022572724 -0.08305534 -0.07157899 0.09899599 0.30953208 0.11800106 -0.03793312 0.0513631 -0.1079168 -0.045741133 -0.22053951 -0.11989038 0.021680634
218 2.1561427e-05 -0.4886118 -0.20301256 -0.093401566 0.09480434 -0.52394634 0.029297754 -0.0339963 0.034834694 0.021911366 0.059713446 0.13774522 -0.061492782 0.10586177 0.044142473 -0.5553971 0.095302045 0.05952939 -0.0049513495 0.0004549507 -0.08925096 -0.046768464 0.09871651 0.28336167 0.1183638 -0.035418484 0.040911857 -0.12330747 -0.04542344 -0.16954105 -0.0883354 0.029708423
128 0.021418275 -0.45378435 -0.21185064 -0.10892135 0.0834772 -0.5064419 0.07420198 -0.03019355 0.045566943 0.0004644092 0.031325515 0.1202379 -0.060277153 0.06255335 0.049661744 -0.580376 0.1316529 0.09133938 -0.007660396 -0.033160407 -0.09396795 -0.049045328 0.0846555 0.29708427 0.11001213 -0.039060365 0.04113491 -0.11633109 -0.053607684 -0.16807014 -0.1174575 0.01608858
306 0.018357892 -0.44191834 -0.19824333 -0.107195005 0.09549957 -0.49355537 0.046501197 -0.009019916 0.028176289 0.0015927074 0.054813147 0.12696476 -0.053239528 0.07921943 0.059098955 -0.5883406 0.13103038 0.07541968 -0.024978476 -0.023447435 -0.089831956 -0.067159556 0.0816581 0.3046477 0.12700987 -0.05191278 0.044238817 -0.111289605 -0.05481443 -0.20586622 -0.116943955 0.052209623
148 -0.004278987 -0.42498088 -0.1967566 -0.100425944 0.08004727 -0.4927647 0.04071492 -0.016595865 0.033121433 0.032036487 0.04858075 0.14557967 -0.08022726 0.08749478 0.05116621 -0.6101523 0.13630244 0.0727764 -0.020827768 -0.021859653 -0.083191626 -0.057247534 0.09034184 0.32627094 0.11321186 -0.03402659 0.045476876 -0.1080063 -0.041514512 -0.18270984 -0.10694381 0.03929871
185 0.017154299 -0.49350125 -0.22842203 -0.104058966 0.108374335 -0.55406624 0.052705146 -0.027869985 0.04564732 0.008277305 0.05893314 0.10193793 -0.042184245 0.06481029 0.04677735 -0.49710646 0.11665353 0.055222053 -0.002618818 0.0046104356 -0.064004704 -0.060734097 0.07054946 0.26327786 0.13757235 -0.050410207 0.034682807 -0.1117244 -0.051458582 -0.23312299 -0.13622917 0.027561879
123 0.0038951023 -0.46282068 -0.1973055 -0.109864876 0.10656585 -0.52007645 0.045516364 -0.03193862 0.034076016 0.0081014875 0.05323351 0.12979254 -0.06071819 0.07995773 0.034396034 -0.56556094 0.09408971 0.06803857 -0.0132253 -0.020415494 -0.076206334 -0.05309596 0.10227792 0.2622717 0.1203886 -0.043258075 0.051856153 -0.12100656 -0.04055577 -0.21340668 -0.12703457 0.0383457
281 0.004458823 -0.47408032 -0.22653562 -0.095582135 0.10253592 -0.5324953 0.052161075 -0.054833695 0.039854966 -0.008061769 0.0502577 0.14093551 -0.061077733 0.0826058 0.045435987 -0.53659856 0.12263808 0.06736593 -0.015364894 -0.014984799 -0.05353934 -0.041466616 0.0916101 0.26035812 0.119347975 -0.026406273 0.03945502 -0.11722121 -0.029583653 -0.21165243 -0.11467639 0.021572066
286 0.017514495 -0.43660444 -0.1850614 -0.11319742 0.07681242 -0.4640252 0.05403848 -0.033657122 0.044382345 0.029802933 0.056122523 0.119495206 -0.06785794 0.106404886 0.050121948 -0.5974258 0.12416865 0.07215903 -0.009118633 -0.004323433 -0.08876849 -0.064726226 0.1007212 0.2972873 0.13186038 -0.062448293 0.02967499 -0.13348462 -0.056436103 -0.21809751 -0.12833734 0.020099161
176 0.015127847 -0.44660127 -0.20594792 -0.11263836 0.09377267 -0.4706247 0.043873273 -0.035851233 0.046774074 0.025003742 0.039998487 0.12598804 -0.08104452 0.109846234 0.0681429 -0.5955533 0.11549524 0.063792 -0.0060106083 -0.010272956 -0.09282433 -0.046400864 0.092293896 0.2873824 0.14155382 -0.06366891 0.032695454 -0.1276458 -0.065820694 -0.20556453 -0.10182026 0.015224789
221 0.00971761 -0.4469086 -0.21170928 -0.08060944 0.104759894 -0.49300545 0.06767456 -0.021711059 0.031383567 0.0014251235 0.044789694 0.11783054 -0.041353505 0.07925573 0.06258933 -0.569051 0.12366327 0.056705043 -0.0023768714 -0.023226567 -0.0732246 -0.05246701 0.1043993 0.29114783 0.11679961 -0.055417307 0.049996316 -0.12537694 -0.017461129 -0.21088105 -0.13455763 0.041869905
155 0.018249035 -0.49986485 -0.21084818 -0.10698139 0.11422281 -0.5357442 0.053230587 -0.034651883 0.01676678 0.009386302 0.050181564 0.08387062 -0.045097418 0.06594414 0.06285502 -0.51565427 0.10126639 0.06151577 -0.0033324042 -0.0033994454 -0.08950857 -0.040806968 0.07869833 0.26264045 0.1450953 -0.06520018 0.01193953 -0.12189553 -0.044929642 -0.22873463 -0.12110461 0.048943143
313 0.017791925 -0.49652353 -0.20600162 -0.114048064 0.12260901 -0.5539929 0.04413059 -0.030302534 0.029208723 0.006273678 0.0518846 0.10475898 -0.06595644 0.085634775 0.052882724 -0.5121367 0.1264961 0.056234185 0.017007533 0.0010041251 -0.08211929 -0.05902351 0.07891916 0.24360251 0.1198125 -0.05283501 0.022597281 -0.11808499 -0.03344457 -0.2189139 -0.1377206 0.04344429
63 0.026334928 -0.4323748 -0.18803678 -0.113634504 0.11691912 -0.4811242 0.054375846 -0.029896494 0.034526512 0.026801487 0.057843518 0.12409765 -0.04995833 0.09709514 0.06284671 -0.5955536 0.11046285 0.047636103 -0.017195903 -0.01322069 -0.0828081 -0.039500255 0.08277519 0.28979775 0.1094375 -0.05835954 0.023639306 -0.11122646 -0.048515975 -0.21241891 -0.09907857 0.01135838
301 0.01500496 -0.41237664 -0.20282109 -0.11616714 0.08718839 -0.47439688 0.033490762 -0.039480813 0.025984928 0.029684462 0.03416234 0.13820808 -0.0554802 0.090600155 0.04179267 -0.61734974 0.124236144 0.072430186 0.0053177467 -0.004096927 -0.08939687 -0.0752777 0.09462738 0.28445533 0.13396987 -0.07040057 0.044437457 -0.12938592 -0.07466857 -0.23132332 -0.12952909 0.039238792
222 0.0025029297 -0.4780455 -0.20859355 -0.09028546 0.10268996 -0.50868046 0.046505097 -0.026124848 0.026799541 0.025244618 0.058416452 0.129594 -0.048540644 0.0893855 0.0559004 -0.5763256 0.12375507 0.070387825 -0.008948323 -0.013338206 -0.08895135 -0.055575877 0.11249287 0.27798197 0.110964134 -0.059885908 0.0457609 -0.10816144 -0.04023532 -0.18368153 -0.09382243 0.04335356
19 0.03756956 -0.4408859 -0.17752221 -0.10039217 0.08438586 -0.46753356 0.0523068 -0.040463254 0.03745936 0.01961418 0.04194346 0.13598561 -0.048610058 0.0888746 0.049091145 -0.5959703 0.106657885 0.051855974 0.010854677 -0.001413815 -0.077388495 -0.07104815 0.099213526 0.31088385 0.12968855 -0.037927527 0.036977313 -0.12577997 -0.033060435 -0.21536945 -0.12967828 0.057399143
292 0.01824891 -0.45611274 -0.20248832 -0.10997036 0.09389615 -0.49579135 0.0400025 -0.035887066 0.02359428 0.0008864704 0.057049677 0.11094201 -0.053398054 0.09110038 0.04483182 -0.57002395 0.115690716 0.051364794 -0.0021698417 -0.00047629653 -0.08049845 -0.06507052 0.0922251 0.2994213 0.10361968 -0.0596303 0.019219337 -0.107464336 -0.060794488 -0.18882523 -0.1295878 0.04537486
156 0.028435467 -0.42653683 -0.20290278 -0.10020983 0.09811535 -0.44992667 0.046231963 -0.024734756 0.045472503 0.013855759 0.040436 0.1427698 -0.07279446 0.0974586 0.065200195 -0.62977844 0.14449565 0.059801955 -0.02215048 0.0013320387 -0.10897444 -0.06330182 0.09968231 0.31217396 0.114406176 -0.058541022 0.012199621 -0.11492003 -0.040186938 -0.1956399 -0.11276044 0.031463068
40 -0.00810701 -0.4277373 -0.20979647 -0.11210887 0.08354492 -0.48023155 0.0327563 -0.021225875 0.034843653 0.006659682 0.0647334 0.13345568 -0.055441402 0.077914916 0.031267222 -0.62826693 0.107533805 0.071427666 -0.024981108 -0.016391667 -0.077211745 -0.06222699 0.12633382 0.30492207 0.070595615 -0.03924199 0.027836768 -0.10463575 -0.061049957 -0.15129285 -0.0896239 0.015215719
249 0.003553897 -0.46045986 -0.20606172 -0.09574731 0.08885863 -0.50247014 0.027081797 -0.013765197 0.021070894 0.023477819 0.059743397 0.09832216 -0.058518983 0.06384829 0.03621205 -0.5650252 0.10510523 0.073752575 -0.026286483 -0.012021827 -0.076799855 -0.06389739 0.10077456 0.30302823 0.12786636 -0.040611595 0.0326433 -0.11917063 -0.019276522 -0.19779256 -0.10964422 0.042111713
294 0.0012417765 -0.44174442 -0.18783073 -0.08737779 0.07838962 -0.48419735 0.048925485 -0.013904909 0.027615914 0.025082147 0.041998405 0.14673343 -0.075259574 0.07459985 0.07497823 -0.6224327 0.11363052 0.08425415 -0.011346734 -0.0015641489 -0.10294888 -0.043234114 0.0940289 0.32124013 0.123318985 -0.052749537 0.027073536 -0.12018622 -0.06331059 -0.19618276 -0.11116302 0.022909649
60 0.028385935 -0.48136538 -0.22443733 -0.095462635 0.092206545 -0.5187585 0.061644774 -0.027922586 0.03485959 0.013884386 0.030954365 0.119224474 -0.045109633 0.08122831 0.047985237 -0.5258745 0.11558985 0.0521075 -0.023275387 -0.039964303 -0.07386413 -0.060375664 0.08945555 0.28453666 0.11963742 -0.045192823 0.048037335 -0.10849166 -0.03875353 -0.18021572 -0.122824706 0.04797736
181 7.725677e-05 -0.44561455 -0.19667184 -0.11333795 0.06879549 -0.49040088 0.054789253 -0.01578021 0.025029173 0.013773838 0.07212723 0.1412511 -0.054813847 0.07202261 0.06705167 -0.58857274 0.11837526 0.07465224 -0.016892642 -0.0035910474 -0.102615535 -0.06942524 0.1072042 0.27440378 0.13739915 -0.053557787 0.039800823 -0.13598345 -0.043077834 -0.21791375 -0.110501915 0.031299025
230 -0.007962955 -0.3820977 -0.18798207 -0.09515362 0.05851708 -0.40266702 0.031187102 -0.021483514 0.043798935 0.006534986 0.052147772 0.15477546 -0.07884622 0.08828423 0.05862586 -0.65640205 0.13374501 0.054227993 -0.020899681 -0.03527934 -0.06839162 -0.046549723 0.08594084 0.35981637 0.1569284 -0.06078168 0.048599962 -0.17219043 -0.05754377 -0.23426305 -0.15541196 0.04703468
291 0.018300947 -0.49084082 -0.19167386 -0.102703266 0.092809565 -0.5378134 0.064106084 -0.040407155 0.03013946 0.014574312 0.048219092 0.125717 -0.06486531 0.084591344 0.04873458 -0.5208761 0.0994642 0.06487397 -0.012598835 -0.0040415972 -0.09005157 -0.042712294 0.08597201 0.24221161 0.124396 -0.06579721 0.044694148 -0.119084015 -0.04330067 -0.21369156 -0.12910004 0.045023154
168 0.014188125 -0.407165 -0.19276327 -0.0821641 0.0808814 -0.4471508 0.026836133 -0.02778313 0.03741195 0.030056234 0.041775446 0.14412367 -0.05522022 0.089358546 0.04532281 -0.65189457 0.13951133 0.09342678 0.0049664117 -0.011703261 -0.094843164 -0.05120959 0.08266753 0.32033712 0.13748358 -0.040708564 0.053839613 -0.11611045 -0.0493112 -0.19107278 -0.11459757 0.027254788
237 0.022632154 -0.44156414 -0.20436119 -0.090507954 0.08589982 -0.485979 0.05041238 -0.022333458 0.034697935 0.033513594 0.047507994 0.1515878 -0.065898195 0.07977736 0.037498176 -0.5970652 0.12096839 0.0841396 -0.020948105 -0.00095523114 -0.08786022 -0.067785725 0.08717532 0.2955651 0.12017686 -0.043399923 0.04928746 -0.10957521 -0.06252173 -0.16207698 -0.09104585 0.037638936
201 0.03860723 -0.4803828 -0.1970786 -0.10335525 0.094910115 -0.5253114 0.044224348 -0.018191235 0.037593976 0.016175801 0.052991692 0.11297509 -0.06504554 0.0725842 0.06280002 -0.55600685 0.112447046 0.07043073 0.0039609214 -0.0059524593 -0.08084912 -0.057388857 0.07720374 0.2716235 0.14079918 -0.063662075 0.029623209 -0.121435165 -0.026516773 -0.21060395 -0.1333873 0.019042056
241 0.018696642 -0.44731513 -0.20849869 -0.09441363 0.088054165 -0.4997908 0.054143462 -0.04374425 0.046190016 -0.0011708689 0.041262724 0.113118336 -0.05002332 0.07358746 0.04775276 -0.59831524 0.1401058 0.06473654 -0.011123702 -0.032744743 -0.07516291 -0.050133042 0.093146145 0.304477 0.11895048 -0.03193372 0.019243244 -0.08658703 -0.0290044 -0.18444784 -0.107806094 0.023139562
107 0.0054212934 -0.40733382 -0.2065503 -0.10292439 0.07114468 -0.45769048 0.036783785 -0.025050312 0.0479817 0.009833737 0.045085534 0.12964967 -0.07484059 0.082824 0.048397724 -0.6433161 0.121182345 0.09441311 0.0060136844 -0.008218539 -0.09576086 -0.044049885 0.09885393 0.31674987 0.108823925 -0.028534662 0.04116298 -0.12748188 -0.052897952 -0.17899889 -0.09385058 0.03352603
48 0.0021054004 -0.4514698 -0.20669642 -0.09010916 0.082808025 -0.4855844 0.044990413 -0.054305144 0.030338768 0.0067242524 0.050829414 0.1493437 -0.047888532 0.10029762 0.06052096 -0.6168137 0.11268766 0.065511696 -0.01075752 -0.008190092 -0.076039225 -0.062181387 0.08476069 0.2938165 0.112206325 -0.028369363 0.028284425 -0.13521011 -0.05037948 -0.19149628 -0.10003357 0.02713827
193 0.016718742 -0.43732238 -0.20169795 -0.07375692 0.089601606 -0.49129578 0.054968663 -0.024243733 0.04569455 0.004394975 0.050038166 0.14770642 -0.049787138 0.076721616 0.046907928 -0.6105107 0.12035832 0.05291507 -0.021614498 -0.027483147 -0.06927476 -0.063138925 0.10194793 0.30682054 0.12944983 -0.03880296 0.041334223 -0.11594233 -0.034166146 -0.19484253 -0.12303781 0.03647454
228 0.005313888 -0.3947053 -0.17969956 -0.08744599 0.0612523 -0.453941 0.028021656 -0.022955619 0.04934817 0.003810253 0.042332448 0.14066252 -0.066401154 0.08323494 0.052566066 -0.642471 0.13023356 0.08931375 -0.013750361 -0.011391028 -0.09902755 -0.07595965 0.105676524 0.3371591 0.14151698 -0.06089834 0.029592277 -0.13819711 -0.0659136 -0.21758929 -0.10819237 0.037605364
227 0.014656097 -0.4455939 -0.2030125 -0.082621016 0.09445235 -0.4914839 0.02379622 -0.031979017 0.05076288 0.020244531 0.05668748 0.14019562 -0.059989974 0.08179885 0.041351814 -0.5901487 0.108676374 0.06482335 -0.021614995 -0.005759069 -0.08889552 -0.0582916 0.1028772 0.28444126 0.11978366 -0.051919002 0.04339311 -0.14580567 -0.02527433 -0.18875311 -0.12621787 0.026224192
238 0.006159872 -0.4469504 -0.2220324 -0.101060644 0.102715656 -0.48551303 0.057226885 -0.053362995 0.05097729 0.014254534 0.0414787 0.13777399 -0.038975332 0.0794051 0.045631368 -0.5719246 0.10818098 0.07716208 -0.00030864042 -0.018621065 -0.07017092 -0.03746336 0.08393365 0.28797996 0.09466529 -0.02901838 0.03309572 -0.10898504 -0.022035543 -0.18803269 -0.103500865 0.045262013
91 0.009096324 -0.44926777 -0.18555456 -0.09415495 0.09819371 -0.47988635 0.0506354 -0.035303358 0.039587557 0.024303647 0.06418717 0.119589254 -0.053367678 0.092215165 0.04498038 -0.60709435 0.122052655 0.06499168 -0.016572723 -0.008070525 -0.0790209 -0.048878137 0.09526714 0.3078403 0.11498315 -0.04940709 0.03511891 -0.125409 -0.045694344 -0.201184 -0.11394771 0.022408646
56 0.0054016006 -0.41225532 -0.19704792 -0.10406849 0.08913111 -0.4631278 0.053227898 -0.02044404 0.024161434 0.017889407 0.052259468 0.15025553 -0.07792707 0.096943766 0.048240058 -0.6267862 0.124455355 0.07128723 -0.012862638 -0.016404735 -0.09323039 -0.061712388 0.099277526 0.3217162 0.14708446 -0.053287685 0.019773785 -0.12794825 -0.068085775 -0.20919195 -0.1275589 0.0437767
226 0.008648657 -0.46821436 -0.22150901 -0.091373354 0.110107005 -0.5440099 0.04903993 -0.0124436235 0.024876872 0.01951411 0.043318436 0.10094514 -0.057934288 0.06804823 0.057761755 -0.54847044 0.116033055 0.06245232 -0.000105596526 -0.00043819548 -0.07361573 -0.055652056 0.106588125 0.27623624 0.10975857 -0.029501935 0.016862014 -0.0936205 -0.033380657 -0.18709354 -0.12412052 0.041029956
189 0.007262877 -0.44083717 -0.22600311 -0.08958297 0.114484265 -0.49856058 0.046550497 -0.035895806 0.037213344 0.015703483 0.04997885 0.12678419 -0.06661025 0.0669762 0.05558303 -0.56864554 0.1300292 0.053831793 -0.0024345035 -0.034046903 -0.08080114 -0.035710577 0.09649053 0.2965241 0.14042115 -0.039716624 0.030239534 -0.11215689 -0.044307932 -0.20797576 -0.11604119 0.046645768
223 0.031524032 -0.45049503 -0.20061341 -0.07695223 0.09404636 -0.48046675 0.068009205 -0.046719108 0.028113132 -0.0012854445 0.056315996 0.12126785 -0.041706596 0.066851854 0.05340702 -0.5937614 0.13513158 0.056680873 -0.02744752 -0.029336583 -0.07098621 -0.0781343 0.087020665 0.3180658 0.14934634 -0.049646668 0.057323556 -0.13094711 -0.029763876 -0.19879337 -0.14680281 0.040478658
225 0.014636309 -0.47349006 -0.20737332 -0.088757224 0.087212145 -0.52358955 0.060518924 -0.04830964 0.038982175 0.0038356371 0.054679263 0.12307466 -0.04363522 0.0838937 0.022827765 -0.5299386 0.114715494 0.054322544 -0.028721554 -0.02983318 -0.054276247 -0.03627478 0.08442337 0.27902254 0.13086517 -0.056626953 0.04508493 -0.12127051 -0.027389938 -0.18602277 -0.12181967 0.037172854
106 0.03776547 -0.4550094 -0.18494666 -0.073221855 0.093142405 -0.46835777 0.043978028 -0.03233938 0.019281706 0.00661068 0.06870686 0.13055265 -0.07667226 0.07154796 0.052163202 -0.55706656 0.13253285 0.05155853 -0.0066466234 -0.0023942343 -0.092745356 -0.06591469 0.06328284 0.26694772 0.13847016 -0.031520884 0.04600173 -0.14079122 -0.039196976 -0.23802727 -0.16001393 0.06547569
184 0.019873967 -0.43989447 -0.23832364 -0.10601202 0.08412728 -0.5221122 0.03804919 -0.027458735 0.043636728 0.027774345 0.057621498 0.14387316 -0.06957077 0.06982483 0.022676509 -0.6002181 0.10345636 0.05878111 -0.02323916 0.00039173765 -0.083056584 -0.033470005 0.11654111 0.30501765 0.096362345 -0.03445503 0.03412819 -0.09768829 -0.031409457 -0.1710292 -0.12581797 0.027910065
11 -0.0012918472 -0.42588156 -0.19504891 -0.10066998 0.10119565 -0.48685813 0.047484722 -0.022269068 0.05829818 0.007372932 0.054451913 0.13532916 -0.06378527 0.09911622 0.067000285 -0.62720203 0.100504465 0.06236257 -0.0039921138 -0.017764404 -0.07592627 -0.055610836 0.119433895 0.3045204 0.07780901 -0.05559224 0.025724819 -0.089250565 -0.05257154 -0.17375292 -0.094983295 0.0168675
152 0.037100386 -0.4911172 -0.20987742 -0.09512556 0.103608556 -0.49407843 0.049583025 -0.027983073 0.043748893 -0.0032565566 0.039863955 0.14264856 -0.050037388 0.08578843 0.04765735 -0.5651126 0.1352628 0.061368648 -0.015284887 -0.0077790036 -0.07508058 -0.040327366 0.07530626 0.2821743 0.139262 -0.056207117 0.04060475 -0.11622187 -0.03168263 -0.22515813 -0.12782161 0.025593406
206 0.03807904 -0.46623352 -0.20242229 -0.09020986 0.084427774 -0.4972208 0.041931972 -0.041990723 0.041784775 0.0073251487 0.05008158 0.12681119 -0.063252136 0.068258435 0.045223117 -0.54484266 0.11197333 0.059041694 -0.023367899 -0.024021441 -0.077448756 -0.04198391 0.0989477 0.288596 0.14763333 -0.036063313 0.022130549 -0.110619135 -0.051110853 -0.18112163 -0.12503557 0.025262672
284 0.01914981 -0.4356672 -0.20551819 -0.10615731 0.08956148 -0.47387975 0.055973515 -0.052475158 0.051654324 0.017811466 0.045611486 0.12567188 -0.07156474 0.09787429 0.057616346 -0.63385683 0.10388063 0.062668614 -0.0019396119 -0.0040421723 -0.08428315 -0.042838547 0.08218625 0.3077012 0.08256276 -0.056906298 0.049142193 -0.10162235 -0.028943794 -0.16770917 -0.0846378 0.034758452
90 0.0071710856 -0.44621667 -0.21651022 -0.11074942 0.10667681 -0.4867757 0.06024516 -0.03977588 0.052989755 -0.0022639155 0.04246986 0.12119625 -0.05465073 0.09090415 0.028481496 -0.5843688 0.122981355 0.06629032 -0.017439885 -0.014432743 -0.0649932 -0.06147776 0.10028302 0.29678568 0.11136881 -0.03983281 0.018930366 -0.09038919 -0.05826557 -0.17014304 -0.10241907 0.022318415
264 0.026143473 -0.45352596 -0.19805568 -0.09031844 0.11993368 -0.5150022 0.044153553 -0.025923809 0.0465257 0.027873732 0.06572772 0.13425355 -0.057878543 0.07787589 0.058962073 -0.5846498 0.104779266 0.042059783 -0.02027913 -0.025019264 -0.0694187 -0.040378146 0.105705656 0.28810355 0.11421771 -0.061958265 0.03395428 -0.109313965 -0.046125144 -0.20977886 -0.13086961 0.032391742
130 0.008178616 -0.46212864 -0.19762734 -0.09365144 0.11169393 -0.48578063 0.05784558 -0.03844505 0.037363596 0.021581216 0.06300157 0.13005275 -0.059456136 0.09846645 0.05185024 -0.5729575 0.112787455 0.06417614 0.0034872296 -0.012123483 -0.08638835 -0.056436356 0.08385853 0.29170626 0.11368046 -0.04281995 0.023980472 -0.089727014 -0.04083637 -0.18807858 -0.11876069 0.013885432
23 0.01091623 -0.47434002 -0.23100765 -0.09587134 0.106389605 -0.53378135 0.04890074 -0.022754364 0.040824827 0.0050794603 0.04480767 0.111854166 -0.04429284 0.06237377 0.031138262 -0.5224528 0.09736606 0.07329706 -0.0017683462 0.02020905 -0.083534375 -0.059363272 0.0786099 0.27377117 0.12374013 -0.046224453 0.0148042 -0.12566513 -0.06266854 -0.16864933 -0.1045777 0.034844056
312 0.016969541 -0.4237172 -0.19034837 -0.095894 0.09779142 -0.4781432 0.029811654 -0.026985634 0.030590124 0.010769143 0.06654968 0.147131 -0.08151051 0.08336081 0.05215063 -0.6241628 0.12399852 0.075040296 -0.017943094 0.006455887 -0.07613389 -0.05229632 0.07946901 0.31464854 0.12579265 -0.05157904 0.026333058 -0.12729074 -0.036370765 -0.2084231 -0.13497292 0.013195131
13 0.030422002 -0.46331722 -0.20706527 -0.10895433 0.102577776 -0.5094858 0.06548366 -0.040078204 0.037682965 0.0303775 0.047914945 0.11683375 -0.054882336 0.07016079 0.054838926 -0.5740112 0.11144004 0.057991724 -0.016062595 -0.0076918723 -0.0799138 -0.07268936 0.0806267 0.28454003 0.1058889 -0.055818345 0.051757213 -0.0960817 -0.04757871 -0.2055354 -0.13490228 0.035495352
51 0.026654916 -0.47920424 -0.22422603 -0.092856586 0.09831716 -0.52351 0.04958222 -0.048057977 0.03981891 0.022309778 0.055612594 0.12064396 -0.06412031 0.06702784 0.046026874 -0.5574663 0.11255593 0.07273746 -0.023384284 -0.024329353 -0.08698226 -0.05755784 0.094803706 0.27828497 0.15090005 -0.0533582 0.045914292 -0.13415317 -0.02716548 -0.19795515 -0.13379852 0.040585253
246 0.016622452 -0.43135825 -0.19508964 -0.09068089 0.07971368 -0.48963767 0.03881616 -0.03758266 0.029635008 0.024687419 0.06175853 0.1411302 -0.061796844 0.06925732 0.05220559 -0.60699093 0.12453361 0.08674958 0.004224203 -0.030336663 -0.0995539 -0.06333583 0.08438269 0.2960256 0.11999311 -0.028266244 0.050192043 -0.12999105 -0.047332983 -0.16411571 -0.10807384 0.017890964
83 0.007541928 -0.484044 -0.20475577 -0.10060567 0.116772786 -0.507005 0.0472497 -0.05395429 0.045776967 0.01901328 0.063654795 0.12856807 -0.0604237 0.06606005 0.046662584 -0.5522477 0.093636736 0.057896808 -0.0037753813 -0.027631767 -0.07650187 -0.045917124 0.082184345 0.27036852 0.122699484 -0.05676151 0.038241647 -0.11280254 -0.057401534 -0.19085783 -0.12061703 0.04233773
211 0.015947005 -0.4365816 -0.20806707 -0.08509169 0.09198877 -0.5029422 0.047739264 -0.03898169 0.048347224 0.02161498 0.04870656 0.1260497 -0.06725633 0.07170158 0.045003265 -0.58657014 0.13025211 0.06524203 -0.025361754 -0.0055040834 -0.08454266 -0.079527564 0.10135166 0.30023086 0.13676988 -0.047839787 0.03498807 -0.11796129 -0.06206668 -0.21377975 -0.12144364 0.028074931
25 -0.005758676 -0.4449279 -0.21574137 -0.10096067 0.078509696 -0.4871972 0.04339847 -0.05066902 0.052617338 0.018008973 0.047790322 0.12184551 -0.050287165 0.10197889 0.041681048 -0.6169755 0.12928207 0.06707891 -0.003345515 0.016967265 -0.07275101 -0.06280339 0.10723141 0.33019286 0.12452989 -0.06679686 0.038963255 -0.11193571 -0.06169132 -0.16535556 -0.08369187 0.021266462
282 0.011720686 -0.44296223 -0.21408921 -0.086931966 0.09196774 -0.48916072 0.043313414 -0.040196467 0.04804821 0.018059269 0.059805594 0.13646472 -0.054104745 0.10255288 0.053688794 -0.60803384 0.11788386 0.06629502 -0.00084421656 0.008724124 -0.08725795 -0.05363382 0.10779546 0.30658522 0.115021154 -0.04388785 0.04927076 -0.11883539 -0.05665517 -0.19674112 -0.1104343 0.0063044736
194 0.01557071 -0.42824626 -0.20993611 -0.096747436 0.07195992 -0.45466685 0.042591624 -0.022538234 0.04673423 -0.0049430463 0.049002353 0.15124793 -0.0572387 0.0675582 0.065444045 -0.6288141 0.1408932 0.08829094 -0.00050108286 -0.024916703 -0.06812085 -0.07244591 0.10394405 0.31284043 0.13945635 -0.042358004 0.031009538 -0.14181736 -0.03062841 -0.196287 -0.1261462 0.029014222
44 0.026492098 -0.45420036 -0.22873569 -0.11168159 0.095234506 -0.49651635 0.047185887 -0.032587472 0.038024582 0.028099803 0.053825527 0.13214163 -0.0739198 0.090455964 0.057599165 -0.55671144 0.09894278 0.039350413 -0.013235264 -0.0046603926 -0.08304916 -0.033532668 0.074939676 0.29315698 0.1352647 -0.05205924 0.045279004 -0.105608314 -0.026543317 -0.19818181 -0.11401156 0.021979023
50 0.0030271537 -0.42423055 -0.20916684 -0.09031902 0.06233228 -0.47980174 0.06750426 -0.023665125 0.038398985 0.029956717 0.051014017 0.14328454 -0.044684637 0.07742251 0.052536033 -0.61628485 0.13007455 0.08110063 -0.017025089 -0.006584119 -0.095731586 -0.055831026 0.10379492 0.30491188 0.11671673 -0.041122995 0.03804798 -0.1118846 -0.06159915 -0.1907533 -0.119503 0.021458399
310 0.031238504 -0.4670117 -0.21074264 -0.110353954 0.124809064 -0.5157467 0.04743818 -0.041482132 0.0363208 0.03151169 0.06441509 0.12348562 -0.057777572 0.1054698 0.04727955 -0.5587618 0.13037014 0.065184295 -0.00795151 -0.010485739 -0.09894195 -0.04240746 0.07848878 0.28447485 0.11727816 -0.045734037 0.03171457 -0.103661455 -0.052563485 -0.18555865 -0.10826152 0.03405565
177 0.009474298 -0.43944445 -0.19420812 -0.08929009 0.10529077 -0.48581925 0.057959527 -0.0360852 0.04749665 0.023666143 0.050163306 0.14157309 -0.066918634 0.09327472 0.052611776 -0.61416423 0.12923416 0.052294757 -0.02018135 0.009298221 -0.102308616 -0.053027846 0.10367943 0.29001892 0.13636932 -0.053887784 0.03608872 -0.13337736 -0.07797806 -0.2283093 -0.14676943 0.035897672
88 0.024779428 -0.44997013 -0.20182429 -0.08485734 0.087257765 -0.48289067 0.034727946 -0.02815733 0.028787132 0.021559143 0.0735741 0.13595487 -0.0781719 0.099114165 0.06691274 -0.5900923 0.12204798 0.042645182 0.009830703 -0.021520903 -0.08151452 -0.039220434 0.084361404 0.30287445 0.11730499 -0.047388874 0.039943524 -0.12594198 -0.021406882 -0.19793046 -0.13193332 0.06147493
49 0.015261123 -0.4426075 -0.17819329 -0.0843715 0.095934466 -0.47639343 0.035451315 -0.036487438 0.054465562 0.004708631 0.065965734 0.14856736 -0.06660167 0.088546984 0.05440258 -0.61935866 0.09528542 0.073359266 -0.0018397062 0.012674772 -0.08214096 -0.060901098 0.09836708 0.2910857 0.12971139 -0.04171991 0.027307471 -0.13089211 -0.052928288 -0.20457365 -0.12582263 0.022858614
72 0.011546873 -0.45287058 -0.2067271 -0.09063459 0.09873625 -0.47495097 0.043442786 -0.039978243 0.03840187 0.0026046908 0.056590486 0.14118117 -0.065181285 0.06900162 0.049180675 -0.58326745 0.1460974 0.08787349 -0.022582415 -0.04220874 -0.08171395 -0.052861605 0.08027577 0.29390588 0.12026011 -0.035051126 0.05215152 -0.10792459 -0.029553728 -0.1941352 -0.12913002 0.02939656
190 -0.0010096332 -0.438802 -0.21933062 -0.11526789 0.100594796 -0.47613648 0.055232413 -0.025222503 0.045375824 0.011767171 0.054106727 0.1350353 -0.050211884 0.09540919 0.03818171 -0.593963 0.10841397 0.08408386 -0.035237435 -0.013904043 -0.084831215 -0.0702174 0.102552585 0.30180767 0.13631497 -0.042430263 0.019962344 -0.12067319 -0.055820994 -0.2199735 -0.114148654 0.04215563
145 0.007197498 -0.4406695 -0.20627093 -0.11068893 0.08802483 -0.47056594 0.025010135 -0.02541699 0.04548385 0.0073207323 0.047207087 0.116754524 -0.064282715 0.07569343 0.039723445 -0.6139256 0.10515301 0.06702081 -0.009438408 -0.033063117 -0.081920564 -0.04266392 0.11493566 0.3046688 0.118257836 -0.0420112 0.053119335 -0.12057956 -0.04016355 -0.19779776 -0.11301983 0.050633274
135 0.014084618 -0.4572588 -0.20726316 -0.08462981 0.092019215 -0.48146397 0.05021752 -0.015507472 0.05391844 0.015246034 0.0643195 0.13266744 -0.05715513 0.09872694 0.05633764 -0.5700299 0.11224641 0.061138235 -0.025529915 -0.018397931 -0.08962474 -0.061088294 0.10470501 0.2861396 0.1503418 -0.0635205 0.02504434 -0.13097535 -0.05519079 -0.2028889 -0.10721741 0.027299492
116 -0.006249117 -0.48073426 -0.21723689 -0.10038613 0.11178862 -0.5178294 0.0504748 -0.05030712 0.034724556 -0.0027927144 0.035690885 0.12717329 -0.04240788 0.09628675 0.035442103 -0.53815633 0.112043574 0.07006067 -0.00756387 -0.014307382 -0.06295677 -0.04202068 0.08409958 0.26417866 0.12765521 -0.0707387 0.03217044 -0.11626076 -0.05132714 -0.19809347 -0.11126435 0.026111465
276 0.0018988235 -0.4121796 -0.20973884 -0.0941337 0.08199105 -0.48896632 0.039210785 -0.015674774 0.047774427 -0.003343968 0.043465447 0.13000843 -0.07209316 0.10500192 0.039948862 -0.61811715 0.11084459 0.06163664 -0.000101309546 -0.01117935 -0.09000851 -0.042448133 0.08746015 0.303449 0.10474839 -0.053335052 0.041185852 -0.10671199 -0.04603239 -0.16661465 -0.108266026 0.033393472
172 0.008620203 -0.42330763 -0.22362153 -0.119017944 0.09840714 -0.5067736 0.042512935 -0.03146067 0.04326707 0.024133323 0.057776704 0.15196021 -0.056348376 0.091611244 0.03402775 -0.61494786 0.098714486 0.07463783 -0.020993674 -0.003489615 -0.079681255 -0.051968787 0.100497685 0.27497774 0.089969225 -0.058921333 0.038340386 -0.100347474 -0.03999515 -0.15780082 -0.09728733 0.019017015
100 0.009049937 -0.4224404 -0.17905581 -0.109183766 0.09938213 -0.47246036 0.040770102 -0.0051331585 0.045792047 0.014470638 0.053476043 0.14575098 -0.06099742 0.06580073 0.0439533 -0.600394 0.13525116 0.07545558 -0.029995408 -0.0024961422 -0.09339402 -0.07790693 0.106376074 0.3192506 0.11504699 -0.06920857 0.021050122 -0.121270046 -0.059337474 -0.22733869 -0.12463 0.032654926
104 0.04551356 -0.5075447 -0.21137252 -0.112787 0.10400032 -0.54786694 0.0640001 -0.029553773 0.039551284 -0.0044496586 0.050474767 0.09864624 -0.048466414 0.087724924 0.05522676 -0.4949127 0.08491002 0.032751482 -0.0072208866 -0.005257121 -0.067556515 -0.042555038 0.08360188 0.2594965 0.1358861 -0.06678841 0.019309565 -0.110541426 -0.034452125 -0.18831743 -0.101179846 0.03964527
66 0.023660501 -0.5021716 -0.21467905 -0.11368005 0.10285875 -0.5613511 0.05867096 -0.025531897 0.047878176 0.017220752 0.03235902 0.11559588 -0.039681915 0.08748285 0.053451713 -0.52239114 0.105386615 0.06893422 0.0049519404 0.005985477 -0.06724562 -0.042452715 0.087686926 0.27610278 0.109984934 -0.05107821 0.02190224 -0.07907541 -0.036851794 -0.15485993 -0.072886 0.010776782
191 -0.0016990368 -0.44900095 -0.20682006 -0.12452087 0.109430194 -0.5367154 0.06849844 -0.01785369 0.025820814 0.010284041 0.05410972 0.104948446 -0.044416178 0.070454285 0.052422263 -0.55564076 0.11499378 0.067375734 -0.021336228 -0.01582253 -0.09893702 -0.065759465 0.11143569 0.27978975 0.11704191 -0.03862113 0.054626584 -0.10134253 -0.028192036 -0.17506436 -0.11024753 0.011774442
314 -0.0009452434 -0.44572085 -0.22331834 -0.10005973 0.09765303 -0.49526963 0.042906098 -0.025006471 0.035069954 0.00020117931 0.046292797 0.13955107 -0.037161045 0.074978136 0.04659742 -0.56312865 0.102902815 0.07585878 -0.023277646 -0.003493191 -0.088578425 -0.06988607 0.08608275 0.27469227 0.13259529 -0.053622227 0.04524409 -0.11998856 -0.06883654 -0.1963964 -0.11137551 0.0238294
97 0.01670549 -0.40479624 -0.19474553 -0.09604188 0.10150329 -0.48034197 0.04171029 -0.01190536 0.045436632 0.036788777 0.074210756 0.13790485 -0.06263748 0.094483025 0.047479317 -0.6220918 0.13613905 0.057700526 -0.02606689 -0.008878596 -0.08349752 -0.07565562 0.09096691 0.30742267 0.1321401 -0.06648817 0.045615684 -0.1266874 -0.04756913 -0.21613277 -0.13481995 0.043089624
234 0.04273666 -0.4671269 -0.19208944 -0.09829103 0.1136183 -0.52554536 0.059573516 -0.016129782 0.0346115 0.019381344 0.060275435 0.12333174 -0.050726883 0.056691613 0.063369706 -0.5324276 0.10619272 0.037015367 0.012084035 -0.016179377 -0.069928624 -0.06812972 0.09725347 0.26093847 0.1322749 -0.04904731 0.022721203 -0.111809604 -0.056658875 -0.2320454 -0.13361657 0.032479264
45 0.011691602 -0.44077942 -0.21678051 -0.09838346 0.08935665 -0.48018017 0.064976044 -0.018517587 0.055309597 0.012727187 0.01993811 0.12880547 -0.03781849 0.07368794 0.03992702 -0.57491595 0.12912816 0.08869209 -0.021865746 -0.015323505 -0.09552846 -0.057904992 0.10745822 0.2975782 0.12888138 -0.04332462 0.03525056 -0.123273335 -0.047420368 -0.1727057 -0.11048584 0.038801122
43 -0.005752978 -0.4518695 -0.20141391 -0.09353404 0.109128825 -0.5179025 0.049126633 -0.021219144 0.03926716 0.011778785 0.06833199 0.13452625 -0.07727281 0.08774636 0.055258367 -0.5631915 0.10347191 0.06755587 -0.020557875 -0.012659884 -0.07199697 -0.06138674 0.09350341 0.27751237 0.12525167 -0.021749947 0.038891744 -0.11130681 -0.039182015 -0.18444446 -0.109411135 0.050978184
260 -0.0015540129 -0.42637762 -0.20143528 -0.06601985 0.09032787 -0.5034529 0.029871369 -0.019694658 0.04651058 0.012397693 0.053827375 0.13706066 -0.058131278 0.08564319 0.05740524 -0.58967584 0.12799014 0.060934912 -0.014178906 -0.02212812 -0.050497893 -0.035660557 0.10233341 0.29714075 0.121242285 -0.03460497 0.04559806 -0.13831729 -0.034406573 -0.20894518 -0.14406586 0.04835773
10 0.03485942 -0.43682292 -0.19670494 -0.08937023 0.118995935 -0.46534482 0.069397904 -0.032144822 0.050208982 0.0009846425 0.06327118 0.15023164 -0.07119727 0.0908318 0.06041141 -0.6017155 0.1472263 0.07802848 -0.009454792 -0.0039678924 -0.08489202 -0.07208483 0.08495139 0.3108762 0.118042156 -0.0655014 0.037638284 -0.11746859 -0.049149957 -0.21761498 -0.13027492 0.012559196
274 0.022461288 -0.42561603 -0.19380312 -0.0966814 0.10081657 -0.48913786 0.043752972 -0.021545716 0.026753504 0.014979141 0.034584623 0.13395986 -0.063245155 0.07051835 0.064929545 -0.57394797 0.13773677 0.064731136 -0.029898979 -0.018947659 -0.077984296 -0.063284546 0.08310887 0.3008259 0.129582 -0.038941585 0.024577657 -0.13177523 -0.041723263 -0.24316585 -0.12940899 0.025208183
113 0.023525046 -0.4440636 -0.19385618 -0.09195968 0.08387884 -0.47802705 0.05779909 -0.011167392 0.023956679 0.016209643 0.05645103 0.12803918 -0.0693306 0.090659335 0.04436459 -0.60451525 0.11586646 0.049151856 -0.011338332 -0.006816356 -0.083370894 -0.06665724 0.08718171 0.3079257 0.12400226 -0.060008477 0.024653468 -0.12136582 -0.06107202 -0.20668611 -0.12752543 0.02710083
89 0.005920083 -0.4009202 -0.19520544 -0.10541275 0.09568937 -0.45343202 0.045747325 -0.034454778 0.032658644 0.025484761 0.06257957 0.15513057 -0.070211716 0.08257292 0.06366152 -0.6285386 0.099876046 0.054674484 -0.012504961 -0.009492296 -0.07032194 -0.06351122 0.11264587 0.30698955 0.10334665 -0.04078222 0.045710947 -0.12801482 -0.062854275 -0.19276054 -0.12286452 0.024351206
303 0.008258292 -0.42899692 -0.20716962 -0.10292703 0.08574077 -0.47903335 0.046458088 -0.045351434 0.051873207 0.038246866 0.07195972 0.14371635 -0.06508389 0.09564307 0.046033017 -0.62584007 0.111203395 0.0874592 0.00089265214 -0.008555052 -0.07143892 -0.0389014 0.11934484 0.3152504 0.082131326 -0.014189231 0.05997361 -0.10865633 -0.05687419 -0.16725759 -0.10859609 0.03146937
34 0.0020379073 -0.45805869 -0.20719951 -0.085219525 0.11444941 -0.52778536 0.04750275 -0.038184907 0.027743744 0.019730767 0.048762552 0.141213 -0.056729797 0.08975984 0.037494585 -0.6154598 0.12025396 0.07405286 0.0070794467 -0.011203965 -0.072748 -0.04830797 0.11278749 0.2784431 0.094465904 -0.052366532 0.051599424 -0.10132646 -0.029567879 -0.15641075 -0.083991356 0.032946583
229 0.021818472 -0.44299755 -0.19305038 -0.069277704 0.078037485 -0.47821516 0.023717517 -0.036677554 0.022349473 0.016995883 0.061377767 0.12240107 -0.07018871 0.08754869 0.046418153 -0.5728795 0.12539698 0.07141489 -0.020706879 -0.0018480715 -0.060440257 -0.05369245 0.07249264 0.31101656 0.14059672 -0.027806172 0.052199725 -0.13362688 -0.031159721 -0.19006382 -0.12052644 0.037273485
224 -0.00392975 -0.45254022 -0.20275162 -0.077950336 0.110716574 -0.49557146 0.038268242 -0.008201137 0.020574937 0.0065778154 0.058239147 0.13615818 -0.07716478 0.068725705 0.05104315 -0.56611997 0.14476986 0.05935907 -0.007338736 -0.0070152455 -0.0655211 -0.06474943 0.091218986 0.30403826 0.123877995 -0.047851767 0.056419607 -0.11833774 -0.043072093 -0.22533427 -0.14744703 0.05200717
131 0.017882532 -0.4636793 -0.2082467 -0.10611156 0.0983792 -0.49542633 0.050524704 -0.038252868 0.021701785 0.02354724 0.04179084 0.14220838 -0.07366532 0.08489533 0.046556197 -0.5859535 0.110428475 0.062721625 -0.00067709625 -0.0047395974 -0.06461051 -0.03812447 0.08568817 0.28461984 0.1326315 -0.035990857 0.039294183 -0.11355445 -0.033708654 -0.19838834 -0.10200646 0.03475496
280 0.011556599 -0.48480046 -0.20484337 -0.11101358 0.08626994 -0.5137727 0.04759267 -0.028010933 0.025524635 0.010168422 0.054516267 0.12437402 -0.05085847 0.08518035 0.043016918 -0.54920554 0.11212415 0.061247423 -0.012283346 -0.007870285 -0.07264406 -0.059613105 0.09115956 0.28272012 0.14080267 -0.07029521 0.033623308 -0.1305811 -0.060940966 -0.21450834 -0.13329522 0.027892692
141 0.008186688 -0.43059257 -0.19236596 -0.10576239 0.1116822 -0.47618786 0.06552751 -0.016852386 0.03940574 -0.002619585 0.068216056 0.12242761 -0.057748288 0.068793654 0.05570589 -0.6018208 0.12782966 0.08599386 -0.011065999 0.0011601655 -0.09920984 -0.05614917 0.07957939 0.31224367 0.110503055 -0.055024855 0.03713666 -0.11732959 -0.04439966 -0.182703 -0.10935715 0.030765813
75 0.047549553 -0.50578386 -0.22971274 -0.10810395 0.116822645 -0.5437939 0.07720202 -0.034125093 0.019878194 0.018782722 0.052409407 0.098090105 -0.05382996 0.0728708 0.04435663 -0.5193361 0.11532943 0.05048078 0.003088133 0.0075650085 -0.08015865 -0.06831238 0.0877916 0.24280153 0.12238254 -0.07368162 0.03137682 -0.09862716 -0.04226473 -0.2211438 -0.13573784 0.048590805
120 0.014269138 -0.47215 -0.21811901 -0.07640363 0.08815387 -0.50672257 0.062654726 -0.013106976 0.052262176 0.021780571 0.052902356 0.113097504 -0.045957513 0.06999664 0.057287764 -0.5629305 0.12821767 0.05304965 -0.0011615962 -0.0019422808 -0.080686286 -0.060183063 0.07383494 0.2773349 0.12589738 -0.045767136 0.046221122 -0.12199206 -0.040132593 -0.22470596 -0.1345921 0.030799126
262 0.016830925 -0.47746336 -0.21017006 -0.10762597 0.10875114 -0.51441395 0.062598236 -0.029538888 0.037717212 0.025654199 0.057787146 0.11521535 -0.048520904 0.078270815 0.04522666 -0.56192935 0.121721186 0.061786827 -0.002190672 -0.0021458133 -0.07681913 -0.060723763 0.08291878 0.2693265 0.12796913 -0.05004202 0.04041192 -0.10477597 -0.055392638 -0.20226371 -0.13283385 0.024166757
26 0.026086936 -0.44230196 -0.20007518 -0.10470741 0.10315608 -0.48095396 0.050898485 -0.038265042 0.031214453 0.01493946 0.051554777 0.12542272 -0.044609036 0.08669027 0.050751116 -0.61156684 0.12565522 0.08048145 -0.019957103 -0.0061430843 -0.06952147 -0.04925799 0.115222886 0.31913882 0.09714601 -0.054917235 0.019388715 -0.11733881 -0.06696596 -0.16424549 -0.08899566 0.030494165
132 0.007672053 -0.43537137 -0.19563128 -0.1040249 0.092819795 -0.4736812 0.042673178 -0.045481946 0.036319956 0.0034038445 0.03776181 0.1473708 -0.0533038 0.10384978 0.07063201 -0.61884767 0.10881824 0.0700551 -0.02059992 -0.028648613 -0.07583843 -0.042664774 0.08612966 0.31782532 0.1340769 -0.042816494 0.055969615 -0.13780591 -0.049274597 -0.21957748 -0.13158168 0.022300124
53 0.02809532 -0.44740826 -0.20043278 -0.09969535 0.11246235 -0.47098863 0.040858544 -0.020491362 0.021336101 0.0035534746 0.038250837 0.1363344 -0.075177915 0.07175913 0.0528753 -0.58354056 0.14030378 0.083313175 -0.008206971 -0.012833187 -0.07726589 -0.058558952 0.07264933 0.2884329 0.1301058 -0.06977773 0.054974176 -0.12409918 -0.049953166 -0.226177 -0.12426077 0.034302063
81 0.0021223377 -0.47226432 -0.19754052 -0.114081405 0.103748806 -0.5046337 0.0393884 -0.025098076 0.034625035 0.0058916598 0.053490452 0.11320844 -0.046676066 0.08745525 0.054008678 -0.5762035 0.10671799 0.07653795 -0.0012438758 -0.019255707 -0.07288665 -0.061330877 0.08228979 0.28386274 0.12998354 -0.04296337 0.031335082 -0.11460853 -0.057946254 -0.1767618 -0.100932345 0.0197147
119 0.029253991 -0.4289562 -0.19802983 -0.088076465 0.10681345 -0.47323206 0.058680385 -0.032176375 0.031035092 -0.0002972839 0.03782241 0.11681353 -0.06808545 0.0766555 0.056650355 -0.604183 0.13140574 0.07737886 -0.014505937 0.003957391 -0.09024792 -0.04984899 0.087740816 0.30176672 0.118566 -0.06113091 0.030375805 -0.0991145 -0.050094187 -0.19171338 -0.121467605 0.01866696
21 0.008845216 -0.46132088 -0.21782613 -0.11301038 0.09070164 -0.5329744 0.05101361 -0.0435975 0.038020305 0.026583008 0.04699526 0.119340315 -0.048689757 0.06932695 0.052189767 -0.53887856 0.10360087 0.052087713 0.005166211 -0.0034606573 -0.071584016 -0.049844522 0.08547617 0.28172 0.12167814 -0.06618457 0.043330837 -0.116047196 -0.045156006 -0.20100231 -0.11000434 0.03166249
22 0.029208697 -0.46175113 -0.20140615 -0.09580582 0.11146011 -0.5059361 0.047260027 -0.042190168 0.022935236 0.009302718 0.04535514 0.11931072 -0.057406794 0.089521125 0.06559536 -0.5771466 0.09976297 0.062191147 0.018238649 0.006825643 -0.07721773 -0.06157299 0.10392647 0.2925623 0.09877915 -0.04039918 0.016594864 -0.11503662 -0.03271986 -0.17589827 -0.09780851 0.020262938
28 -0.010130064 -0.42398453 -0.17237137 -0.08358199 0.089674175 -0.4269083 0.029771628 -0.036205474 0.032975726 0.008629721 0.06568462 0.15724443 -0.061764326 0.10139465 0.06265062 -0.6496104 0.122258976 0.071707085 -0.009543853 -0.01694776 -0.0911674 -0.04272305 0.09351316 0.32574698 0.13029987 -0.03255146 0.01648517 -0.13147195 -0.039665624 -0.20114061 -0.1103181 0.04926456
178 0.04334273 -0.44942906 -0.21211259 -0.09446721 0.116092056 -0.5199577 0.05611206 -0.022841789 0.05519775 0.01845453 0.067443624 0.14224543 -0.0573561 0.08284007 0.0509885 -0.58593243 0.123765185 0.06673675 -0.00032034752 0.0005812474 -0.08438659 -0.047993686 0.082565635 0.2795906 0.1250422 -0.049591366 0.033269804 -0.09839783 -0.06053028 -0.19156076 -0.110650316 0.022763055
114 0.026059026 -0.46646863 -0.2035628 -0.09610525 0.09250572 -0.50599504 0.047745787 -0.021784976 0.04545698 0.013080392 0.055437926 0.11119985 -0.0659923 0.0992431 0.054476053 -0.5476439 0.12863623 0.06771752 -0.00056913577 -0.022205519 -0.090244755 -0.041860852 0.07819086 0.28307316 0.14334363 -0.048945054 0.04214992 -0.11082878 -0.044660453 -0.22733915 -0.14094882 0.030947039
101 0.0011221104 -0.4321901 -0.21101011 -0.09862962 0.08952896 -0.4872394 0.032619055 -0.03671326 0.040109947 -0.00549399 0.05229058 0.13794073 -0.04701217 0.0927643 0.039002318 -0.5943801 0.13131298 0.08199274 -0.018707732 -0.011294712 -0.0642755 -0.052102704 0.09208289 0.30537763 0.123825856 -0.035307877 0.045215808 -0.15111472 -0.065174 -0.20843326 -0.14400396 0.04887735
76 0.00032333776 -0.4449338 -0.21562715 -0.09267333 0.09757288 -0.5060694 0.052210007 -0.011523417 0.03919923 0.0025479805 0.045239676 0.14417545 -0.06133587 0.06886508 0.05966108 -0.5635047 0.12327806 0.06157684 0.0048464173 0.0044065076 -0.09274014 -0.07035684 0.08527375 0.26635802 0.1251822 -0.06055521 0.024241399 -0.13376784 -0.052180827 -0.21869437 -0.1140136 0.03986059
216 0.028634243 -0.426015 -0.19162543 -0.091232315 0.077230595 -0.4721874 0.053705234 -0.009512662 0.02605584 0.025897628 0.047958203 0.120821856 -0.06865956 0.08452056 0.072156526 -0.6096516 0.11861906 0.071210146 -0.012512766 -0.005576175 -0.087316155 -0.06034249 0.10592908 0.31167677 0.1172373 -0.058513314 0.042300876 -0.11461882 -0.054650124 -0.20112835 -0.111611426 0.02983963
287 0.033591274 -0.49243698 -0.2264798 -0.09039524 0.09173661 -0.5532635 0.048795104 -0.031108737 0.059173867 0.0047667725 0.045465585 0.12124143 -0.071573734 0.0900507 0.054202795 -0.5639944 0.088519536 0.071380645 0.0031099953 -0.02004074 -0.082236625 -0.040629663 0.085707836 0.280461 0.08378645 -0.044188615 0.030943777 -0.103963204 -0.034833048 -0.15770568 -0.087373585 0.009531173
308 0.018630933 -0.48108923 -0.19950153 -0.086765446 0.121646985 -0.51147896 0.04745999 -0.031306844 0.053205866 0.002146866 0.06602392 0.11422981 -0.057913586 0.09086585 0.046517674 -0.52661437 0.1060519 0.058176234 -0.007864911 0.005497654 -0.06864687 -0.05249804 0.074415855 0.25812933 0.13315892 -0.054925937 0.034682527 -0.12478895 -0.052907217 -0.23629749 -0.13546656 0.03486372
30 0.03769481 -0.4816949 -0.21693224 -0.07986371 0.0832011 -0.4988268 0.0667362 -0.039601363 0.03840536 0.018896854 0.033794437 0.12685849 -0.057193972 0.07428755 0.047447592 -0.5654607 0.12358293 0.06899159 -0.026193207 0.0010317088 -0.08375545 -0.06429372 0.102245495 0.26036143 0.12622114 -0.065427355 0.051409017 -0.11332331 -0.06057138 -0.1981005 -0.1291884 0.0185893
14 0.02409418 -0.51023793 -0.20141235 -0.104879364 0.117966756 -0.54444003 0.046180986 -0.042837825 0.026682124 0.025338937 0.043422572 0.11295381 -0.055165045 0.07211001 0.052546732 -0.5214436 0.12647694 0.046598535 0.0010274932 -0.030269722 -0.059261758 -0.03439367 0.08643056 0.2888306 0.12462075 -0.026818503 0.04343085 -0.093296126 -0.029978171 -0.16905494 -0.10703453 0.04050552
311 0.018905653 -0.42807433 -0.19558363 -0.07621403 0.09504892 -0.4871682 0.030020567 -0.041278653 0.033481184 0.0056973617 0.051676515 0.14762707 -0.07295156 0.091501765 0.06257011 -0.62101734 0.1231753 0.06655274 0.0011770793 0.0011558864 -0.06414265 -0.049075022 0.11019363 0.30407947 0.13065211 -0.0323414 0.03652 -0.1345209 -0.05148776 -0.19936353 -0.10425872 0.042737067
111 0.016361974 -0.42695788 -0.21381392 -0.11355474 0.10109089 -0.48270422 0.040549852 -0.030877909 0.03454018 0.006239803 0.050797544 0.11772597 -0.07328213 0.0766016 0.036157515 -0.63309884 0.12626053 0.066747665 -0.009182942 -0.020840952 -0.097396865 -0.051473934 0.08507773 0.3239715 0.13348004 -0.06508932 0.04836707 -0.12424018 -0.038784076 -0.17413552 -0.108581126 0.023298632
85 0.0285328 -0.49651805 -0.2002492 -0.10266257 0.10760291 -0.52310747 0.05931254 -0.02968847 0.015780633 0.014340193 0.030067261 0.1032643 -0.06950069 0.079206035 0.0763294 -0.5327281 0.110688895 0.072102875 -0.014672954 -0.024156328 -0.07781963 -0.051262446 0.07394203 0.259058 0.131724 -0.07002904 0.023325227 -0.111626886 -0.05026423 -0.21628158 -0.11977957 0.029330067
68 -0.005129437 -0.43571877 -0.22088093 -0.079604745 0.1021727 -0.49264812 0.049510513 -0.048064485 0.045490358 0.007986907 0.046344124 0.1433619 -0.046600834 0.068785734 0.046402186 -0.6075769 0.102516025 0.08305863 -0.010219223 -0.010417039 -0.08842997 -0.04094673 0.10198785 0.32032728 0.10752091 -0.03575583 0.03273671 -0.117380895 -0.036655657 -0.15517612 -0.08790789 0.032661196
180 0.027212223 -0.46558806 -0.20362991 -0.090446144 0.116278835 -0.52403027 0.056445032 -0.028288824 0.044390753 0.028164253 0.05850147 0.10319972 -0.06411218 0.09650251 0.03393794 -0.55639255 0.105675854 0.05498697 0.0020516033 -0.0021983574 -0.09215874 -0.056390647 0.088859275 0.26821464 0.11110129 -0.035990525 0.04143894 -0.08585415 -0.03867013 -0.213683 -0.1356727 0.040450763
151 0.023085203 -0.4732548 -0.19794686 -0.109727465 0.11799041 -0.496618 0.040462624 -0.03169867 0.03919352 0.039440192 0.07468976 0.11751695 -0.06681535 0.09656871 0.044862073 -0.5713745 0.103900425 0.05918656 0.007118717 -0.0005738043 -0.08925287 -0.04581039 0.09852155 0.30059153 0.10705842 -0.04541642 0.04711527 -0.10728554 -0.032662332 -0.19780593 -0.1215905 0.015139056
266 0.01123504 -0.4925704 -0.22635496 -0.098250546 0.08833337 -0.558912 0.044514503 -0.032177087 0.04129949 0.01703862 0.033260684 0.10774584 -0.031149447 0.05987433 0.06316351 -0.5233828 0.09899666 0.061281744 -0.00311743 -0.034519453 -0.0683417 -0.05154544 0.10573861 0.2643929 0.118762605 -0.055316478 0.035595775 -0.12724264 -0.047281172 -0.17710577 -0.119501166 0.040807158
95 0.0042230356 -0.4607057 -0.20279773 -0.09465315 0.107815295 -0.51811355 0.064710274 -0.02163122 0.044838972 0.018179739 0.05893715 0.11312526 -0.06470699 0.08395535 0.029727086 -0.5650414 0.12080538 0.07546014 -0.0010062702 -0.02957879 -0.08586925 -0.042075522 0.09609655 0.30887604 0.100892074 -0.051586047 0.025637528 -0.103432074 -0.041003503 -0.16808742 -0.10655816 0.033824768
146 -0.013232293 -0.44601676 -0.19618572 -0.10764019 0.07668423 -0.49581987 0.028116547 -0.017992513 0.032874487 0.02657053 0.04458101 0.14843722 -0.07480076 0.09655695 0.060358033 -0.58556086 0.11851862 0.06593561 -0.012282172 -0.024597881 -0.09727959 -0.059586328 0.094135866 0.32512364 0.12332364 -0.05211274 0.046718895 -0.120589696 -0.036603816 -0.19624443 -0.110800385 0.03693584
12 -0.016481806 -0.40300673 -0.17591968 -0.102043726 0.08661934 -0.44593826 0.020952774 -0.044547476 0.026398744 0.030141449 0.07805456 0.15708804 -0.06297769 0.09882127 0.06292575 -0.64119786 0.09599203 0.08509482 -0.004808816 -0.023272978 -0.0726127 -0.047850557 0.10554095 0.30263275 0.11126329 -0.057828918 0.04741436 -0.13745567 -0.05440183 -0.23899059 -0.12614231 0.04058473
9 0.012451467 -0.4882971 -0.22764143 -0.097444445 0.10143894 -0.52531475 0.04911612 -0.032856695 0.04748574 0.00040600591 0.055179674 0.13035531 -0.052086964 0.07485042 0.035948932 -0.5272589 0.11555087 0.06684529 -0.015238649 -0.016484255 -0.076743715 -0.040128205 0.08650511 0.27128285 0.13954984 -0.03524271 0.022871653 -0.14702009 -0.05185134 -0.20620614 -0.12726268 0.048487764
270 -0.008026247 -0.41838205 -0.21619713 -0.104906924 0.0937724 -0.47098187 0.03490546 -0.063361436 0.063072525 0.007059051 0.04584706 0.15601014 -0.061559375 0.08613085 0.04846236 -0.6162315 0.10046313 0.07675186 -0.015143319 -0.016020589 -0.07664736 -0.042081382 0.09386755 0.3030124 0.09960489 -0.034226265 0.037123438 -0.12029625 -0.029367622 -0.14691739 -0.09495447 0.012388615
59 0.03183764 -0.47799316 -0.20107277 -0.09405354 0.113229245 -0.5045611 0.06810411 -0.03199133 0.031844463 0.00661679 0.04586692 0.120267555 -0.042494036 0.064579815 0.03723196 -0.5179239 0.13702665 0.055020988 -0.0117351115 -0.0038460223 -0.07371997 -0.068146855 0.067864485 0.26303285 0.16766767 -0.068939984 0.025459725 -0.12563606 -0.03448802 -0.24804601 -0.16012973 0.046902753
272 0.01921839 -0.43155795 -0.20773387 -0.101131335 0.1056033 -0.48258445 0.06374538 -0.038906522 0.033388443 0.015233436 0.06919888 0.12620568 -0.068608694 0.0889408 0.05257482 -0.6115987 0.1390704 0.06045691 -0.007959076 -0.017086744 -0.08595813 -0.075161174 0.08465085 0.29551876 0.10313393 -0.049152017 0.03395277 -0.09783449 -0.054705165 -0.19353455 -0.115559906 0.016080163
244 0.00072077615 -0.42187613 -0.20881476 -0.10456728 0.08280042 -0.479223 0.044053517 -0.040552806 0.04866882 0.02621412 0.046071827 0.13772224 -0.06778254 0.07273316 0.041638423 -0.6243842 0.13256463 0.074691355 0.0046227346 0.0036865368 -0.083187975 -0.054112494 0.098965205 0.31280056 0.12799232 -0.06291368 0.05110011 -0.114504546 -0.03487283 -0.22742234 -0.12707339 0.024975479
253 0.018498074 -0.42839992 -0.21175814 -0.08237747 0.091023356 -0.48111185 0.06727496 -0.02587652 0.028848214 0.029854205 0.0386424 0.12678385 -0.059167895 0.076423876 0.03677605 -0.5772211 0.107063465 0.05995002 -0.01410351 -0.02399321 -0.07322736 -0.048233807 0.11114565 0.28710806 0.12788966 -0.047128458 0.06211668 -0.12361809 -0.04413654 -0.21507123 -0.11834344 0.04264658
98 0.035127595 -0.41574237 -0.19730636 -0.09035737 0.10302735 -0.44937852 0.06612829 -0.012048832 0.032492127 0.011814169 0.05299596 0.12139969 -0.047286022 0.09164769 0.082144655 -0.62703663 0.14728089 0.06429264 -0.013091571 -0.0011071989 -0.099932455 -0.067191966 0.09855922 0.3100631 0.10730138 -0.052197892 0.042131033 -0.110542886 -0.04650374 -0.22349562 -0.12324707 0.034683336
27 0.03129624 -0.44298726 -0.2068262 -0.10203555 0.09997261 -0.46612796 0.058127206 -0.02201856 0.018144079 0.012230823 0.045769453 0.12133191 -0.074391946 0.09151785 0.047938637 -0.60726386 0.1378003 0.067740984 -0.008175244 -0.02438301 -0.066421 -0.050162915 0.09655789 0.32486513 0.12769799 -0.06134164 0.024349384 -0.09424107 -0.04956187 -0.191207 -0.11970505 0.020360457
289 0.012620411 -0.4723168 -0.21865918 -0.09252162 0.108661145 -0.5127879 0.02343516 -0.032639373 0.045309518 0.005117707 0.066222966 0.139685 -0.041533034 0.09008256 0.040716227 -0.589157 0.10794516 0.068817474 -0.0031440225 -0.021054614 -0.066716306 -0.03345191 0.0895428 0.27965012 0.10545821 -0.026759125 0.038384385 -0.10787546 -0.013654358 -0.1517681 -0.0906995 0.010066288
108 0.014587734 -0.46904525 -0.23010789 -0.117337115 0.11985519 -0.5307157 0.05751428 -0.040428195 0.038563553 0.02840085 0.056088623 0.10930169 -0.058389556 0.0727082 0.051105995 -0.5675974 0.10507752 0.07007173 -0.0031590909 0.008205705 -0.06908728 -0.045366395 0.092573814 0.28853184 0.10336813 -0.027100146 0.007675415 -0.101765946 -0.044046506 -0.17937852 -0.07946049 0.039469328
173 0.033116747 -0.46218666 -0.19965911 -0.08130627 0.09231189 -0.5266521 0.0491102 -0.02459295 0.038279176 0.02074054 0.03991951 0.09424356 -0.056591544 0.08033443 0.05780374 -0.53612465 0.11560829 0.07370431 -0.008583493 -0.025167018 -0.06511751 -0.04608164 0.09329983 0.27665564 0.17424443 -0.04637776 0.03116708 -0.13276197 -0.027853267 -0.22314434 -0.1269338 0.065804355
186 0.021033347 -0.45201743 -0.21646991 -0.07119539 0.08557582 -0.4955116 0.04107023 -0.04401578 0.023616705 0.0009994155 0.06894227 0.11710957 -0.05750205 0.07396948 0.06568988 -0.56996584 0.1399924 0.07503896 -0.0046978416 -0.015885597 -0.06694852 -0.060080826 0.072132595 0.28855783 0.14073512 -0.031618413 0.039641835 -0.12477286 -0.052967444 -0.21036366 -0.12201322 0.053805415
157 0.0065536564 -0.427421 -0.21619488 -0.0836932 0.083148204 -0.4638457 0.033555582 -0.016631022 0.02806419 0.011916574 0.07240999 0.1558289 -0.072288334 0.08051491 0.04494472 -0.6102498 0.10636168 0.084108844 -0.03147107 0.006170267 -0.09661276 -0.07388176 0.09598112 0.29106545 0.13580541 -0.047286984 0.065549746 -0.14475264 -0.057298876 -0.22245638 -0.13051791 0.036741473
115 0.014571802 -0.44646236 -0.19141178 -0.09605929 0.08103001 -0.4804245 0.034173246 -0.036888897 0.025850868 0.016575987 0.04195177 0.13690023 -0.048548426 0.07399158 0.048754815 -0.62132746 0.10555947 0.06960241 0.0031887123 -0.039118145 -0.08905131 -0.045069918 0.118027255 0.30763167 0.12216693 -0.05487726 0.034524314 -0.118033364 -0.038884614 -0.19217572 -0.14202337 0.052382678
254 0.01967211 -0.48272634 -0.20272616 -0.1132914 0.080666326 -0.5341142 0.055823963 -0.018838609 0.03105217 0.04331947 0.06599187 0.1212601 -0.04877881 0.07748754 0.038747355 -0.5339984 0.09326341 0.06853673 0.0050014597 -0.011421749 -0.09407547 -0.055294815 0.11452709 0.268217 0.10213688 -0.04611805 0.0375746 -0.10916015 -0.014908344 -0.1877292 -0.10709511 0.032066636
7 0.033639133 -0.427532 -0.20563795 -0.08865536 0.08314153 -0.45149392 0.06540417 -0.025507284 0.060807593 0.0025813428 0.044789787 0.14627574 -0.055368733 0.07559849 0.07177749 -0.6145162 0.12994306 0.06420374 -0.035492282 -0.016474552 -0.07519579 -0.06739656 0.106582664 0.31484506 0.13575007 -0.058550306 0.015300232 -0.12495226 -0.06523804 -0.20253365 -0.106053956 0.03671783
188 0.025373816 -0.46856114 -0.19803663 -0.11906092 0.10483422 -0.5132475 0.051695466 -0.019892963 0.03859 0.028962743 0.061804343 0.11172589 -0.04617223 0.079294726 0.05489491 -0.54019475 0.11003399 0.05008849 0.009761949 -0.0073022754 -0.07820148 -0.04969653 0.10166569 0.26852244 0.10964142 -0.03930681 0.039473962 -0.13808258 -0.04651365 -0.22832178 -0.1150053 0.036366675
62 0.030106235 -0.43380743 -0.2013401 -0.09763488 0.088978745 -0.4810706 0.034156974 -0.011626695 0.049815025 0.02233559 0.06845943 0.14053416 -0.06763079 0.11124882 0.045198113 -0.6072629 0.11401288 0.0721933 0.0046076835 0.0012192538 -0.09858467 -0.058377247 0.100738056 0.3078331 0.099870205 -0.039539374 0.027066484 -0.10304058 -0.045611065 -0.17262548 -0.10082236 0.0049560214
77 0.02391097 -0.45670173 -0.19797441 -0.098389424 0.08107335 -0.4864842 0.049318094 -0.012795665 0.026394248 0.024597595 0.05121822 0.1286054 -0.0721793 0.089829996 0.06465203 -0.5654696 0.1322237 0.06650969 0.007543971 0.0069940137 -0.08645008 -0.0565223 0.09391014 0.2905618 0.1132697 -0.03801675 0.028678216 -0.10096106 -0.047589745 -0.19194143 -0.114543065 0.03284194
24 0.030718459 -0.4845515 -0.22654895 -0.07991891 0.11317199 -0.5476255 0.053274747 -0.037939705 0.04392719 0.014069742 0.055973206 0.10873016 -0.032013185 0.07107695 0.035644755 -0.5180326 0.09349428 0.043388076 -0.0014530616 -0.0327269 -0.059502322 -0.02664665 0.08694211 0.28199708 0.123763055 -0.03326595 0.03123727 -0.11491032 -0.029951483 -0.15678342 -0.1280649 0.03512622
29 0.014478238 -0.433333 -0.20555463 -0.097073264 0.0910565 -0.4958215 0.050207283 -0.034101047 0.03590337 0.026216028 0.062393337 0.15370663 -0.059323154 0.08603539 0.057623025 -0.61285603 0.10034041 0.047795005 0.010194737 -0.014537483 -0.073169716 -0.0637056 0.084745176 0.28037137 0.100152284 -0.05437117 0.04382223 -0.11179658 -0.016668253 -0.17146681 -0.106842324 0.023926344
54 0.008618003 -0.5012456 -0.20893766 -0.084005564 0.08864065 -0.5350424 0.046112336 -0.048268996 0.049485404 0.0059223017 0.021187734 0.10979693 -0.04356748 0.089434996 0.032223903 -0.5309334 0.09890914 0.056594044 0.0067559117 -0.031632103 -0.0815258 -0.03324242 0.10566941 0.2990678 0.11692864 -0.056189947 0.032256316 -0.10429326 -0.048559107 -0.17936672 -0.12050321 0.04614958
140 0.020262698 -0.4385072 -0.20373616 -0.09613621 0.10722039 -0.4971112 0.03984126 -0.032046266 0.056868352 9.8334305e-05 0.06452943 0.13253808 -0.056041595 0.08123478 0.056626208 -0.57618505 0.11463704 0.074251436 0.009338418 -0.0017697912 -0.090715334 -0.05718082 0.078797325 0.30254054 0.10592282 -0.028451363 0.044505976 -0.107091114 -0.02760644 -0.1936016 -0.13170853 0.015122652
231 0.004375374 -0.479361 -0.22065206 -0.12510493 0.106307894 -0.5381351 0.054562982 -0.038371626 0.05430276 0.000814272 0.048591975 0.12053417 -0.06381379 0.07996568 0.036450528 -0.5473779 0.10570342 0.057001993 -0.0093322825 -0.02451856 -0.058013473 -0.028827807 0.0854985 0.28418857 0.11012775 -0.034024637 0.03417933 -0.0904477 -0.044725437 -0.15491468 -0.08623817 0.01837824
192 0.012271803 -0.46882743 -0.2128743 -0.083825685 0.095813505 -0.5098082 0.04179696 -0.029737499 0.034559734 0.015008848 0.046688374 0.11009859 -0.071114086 0.074189745 0.03413003 -0.57962936 0.123048745 0.07377816 -0.005662443 -0.026865792 -0.07875567 -0.07335721 0.088961534 0.2985688 0.11484117 -0.0360541 0.03820116 -0.123592675 -0.0567727 -0.18923165 -0.107511565 0.031658817
92 0.0020122617 -0.44674784 -0.21771568 -0.106807925 0.091507405 -0.47323227 0.047070067 -0.061345432 0.04479107 0.020684268 0.05290572 0.14145212 -0.045513894 0.09309648 0.05565566 -0.6001094 0.11401248 0.07398555 -0.021720618 -0.028576443 -0.083600074 -0.06278662 0.10036028 0.28870103 0.13263364 -0.034754574 0.030926917 -0.123629615 -0.053946435 -0.17035115 -0.10255133 0.028149046
142 0.015780265 -0.4758547 -0.21396506 -0.12261276 0.10595608 -0.5135118 0.049176756 -0.028592639 0.024475632 0.024600362 0.039753743 0.111893974 -0.05243007 0.092717946 0.052652642 -0.5623478 0.12534268 0.06267903 -0.0011673257 0.007650542 -0.087026164 -0.05622857 0.07255405 0.26277542 0.1457842 -0.058142263 0.042583253 -0.11517238 -0.05306818 -0.22386658 -0.1354295 0.042128194
204 -0.0016310661 -0.44940954 -0.20004253 -0.08158749 0.07815496 -0.5004566 0.04338227 -0.03232998 0.049415812 0.025277339 0.048608936 0.13915783 -0.065490596 0.07049807 0.04017083 -0.5692491 0.1090935 0.07640082 0.0070701134 0.00048684693 -0.07897787 -0.032684006 0.102072775 0.27614406 0.12182308 -0.040587362 0.05064206 -0.12609735 -0.020900587 -0.2003913 -0.11071318 0.04329258
212 -0.0016770221 -0.45676932 -0.22393528 -0.12098646 0.0999457 -0.5069857 0.06667063 -0.05040548 0.034764543 0.027251845 0.050250962 0.12385811 -0.06878809 0.089925155 0.040366236 -0.561118 0.12910557 0.073555715 -0.00989855 -0.024574101 -0.07765067 -0.045179356 0.1000465 0.26270112 0.12616198 -0.06480317 0.042875648 -0.11504507 -0.06207157 -0.20167641 -0.12075602 0.04990735
129 -0.005278336 -0.45297167 -0.18911514 -0.0981445 0.12729923 -0.49970892 0.038033824 -0.032091994 0.0439604 0.006751825 0.05797507 0.12865406 -0.059048343 0.077321805 0.0809443 -0.58542573 0.113560386 0.05188316 0.0015029635 -0.021535981 -0.065968886 -0.044257972 0.07988855 0.27710202 0.1129148 -0.054469023 0.02665895 -0.10643168 -0.058642346 -0.21568702 -0.09710442 0.026290076
290 0.0147921685 -0.43723246 -0.20502144 -0.0976056 0.09534829 -0.49834254 0.03111829 -0.0045887334 0.047159426 0.012886743 0.06816576 0.1291246 -0.06372631 0.09954835 0.048400037 -0.57070327 0.09624159 0.04813446 -0.0004401432 -0.013136656 -0.09855077 -0.055958617 0.10137621 0.27065673 0.1437024 -0.07268401 0.025468254 -0.1151175 -0.037912413 -0.24533017 -0.13138677 0.029703965
198 0.014167696 -0.42206946 -0.19557308 -0.101968646 0.070952944 -0.4678145 0.03358649 -0.021873698 0.055690087 0.023724968 0.043291952 0.13440534 -0.04277702 0.10389939 0.049063798 -0.62355125 0.11040221 0.06479661 0.0050395727 -0.00595845 -0.09484141 -0.05844816 0.09092447 0.3003943 0.096893646 -0.03328729 0.051767163 -0.12277105 -0.038187727 -0.17796767 -0.10776556 0.027251566
69 0.016873315 -0.40387058 -0.18765515 -0.07828487 0.085853845 -0.4375205 0.052362 -0.033956096 0.037270974 0.016336989 0.068406634 0.16156131 -0.07693764 0.10690767 0.068543345 -0.6651554 0.11990739 0.07426608 -0.0021224276 -0.017940925 -0.08559161 -0.06296487 0.12441182 0.31812978 0.102882646 -0.037813768 0.036033474 -0.117153585 -0.05707844 -0.21502122 -0.14074327 0.030617328
197 0.013342818 -0.45874447 -0.20686056 -0.089217894 0.08510498 -0.5126499 0.037312925 -0.027826838 0.04419681 0.026768168 0.06155788 0.1116576 -0.06060675 0.067096785 0.04362862 -0.5483192 0.1394391 0.05627915 -0.007874596 -0.0224403 -0.06798578 -0.055605717 0.07054766 0.29976344 0.13734078 -0.03729824 0.0397637 -0.12765607 -0.034662846 -0.20951973 -0.13891853 0.045216545
169 0.021183442 -0.4283686 -0.21568996 -0.09412223 0.10399768 -0.49302527 0.059613153 -0.021643974 0.049640227 -1.3422243e-05 0.049005587 0.14755842 -0.065556556 0.073196344 0.05036635 -0.5746558 0.1138403 0.071457826 -0.013275257 -0.008346138 -0.06637556 -0.067632645 0.108804666 0.28510514 0.13236976 -0.07073145 0.042113204 -0.12770233 -0.05474548 -0.22619209 -0.12594843 0.04987537
273 0.0013732861 -0.43958265 -0.22533998 -0.09625487 0.08531163 -0.5076028 0.049645975 -0.027040511 0.022797368 0.011794276 0.039228406 0.13510819 -0.04701528 0.07761013 0.034053788 -0.5745916 0.104797 0.070113055 -0.027086865 -0.034224138 -0.08813711 -0.0685874 0.11316607 0.28631234 0.10712137 -0.047538098 0.038069647 -0.12004588 -0.035541806 -0.17938973 -0.12034184 0.04752936
275 0.02696057 -0.4790681 -0.22830522 -0.10239166 0.11743274 -0.5330825 0.053437125 -0.034795206 0.02564337 0.017749121 0.052463528 0.10448725 -0.07215357 0.094255 0.045421213 -0.550714 0.12305863 0.062043995 -0.0074273567 -0.0049497033 -0.077904426 -0.05959087 0.074966736 0.26858738 0.11142562 -0.050350104 0.016219158 -0.11147405 -0.05407668 -0.20746407 -0.11439835 0.04867872
137 -0.007652184 -0.43621182 -0.20618436 -0.11419143 0.10591617 -0.47885734 0.027501248 -0.040728413 0.056880888 0.025386736 0.04144905 0.1343134 -0.04486625 0.09504674 0.054578487 -0.62585354 0.12574187 0.07924262 0.010233568 -0.030914564 -0.05883863 -0.046177257 0.109603174 0.3091578 0.08537269 -0.036100365 0.030438751 -0.12498038 -0.055439018 -0.15781565 -0.094705656 0.046928417
200 0.013426628 -0.47301778 -0.20183991 -0.09979665 0.09145706 -0.51146775 0.043637887 -0.021498188 0.019473335 0.013896173 0.057630215 0.11061058 -0.04020467 0.05714566 0.061935786 -0.5410737 0.11184033 0.06896043 -0.00078313606 -0.019115899 -0.07601074 -0.06776854 0.09382139 0.28202075 0.14432769 -0.06698034 0.035901457 -0.14910083 -0.05314576 -0.21667087 -0.13934502 0.04418055
8 0.034296196 -0.47161034 -0.20769498 -0.09034775 0.08800213 -0.51218486 0.069681056 -0.034226015 0.0401085 0.018411338 0.032293774 0.12865737 -0.057688396 0.07719916 0.056938775 -0.5846004 0.12566578 0.06867694 0.010891121 0.0068285437 -0.09221109 -0.052554455 0.08901688 0.2672718 0.12768419 -0.049517058 0.033640113 -0.11480776 -0.052266918 -0.20477502 -0.13149948 0.024748426
175 -0.0092291515 -0.42275164 -0.19774638 -0.10505513 0.09106131 -0.47787365 0.041940365 -0.036506854 0.059749287 0.007386429 0.057181954 0.1594744 -0.06105687 0.095177755 0.049996953 -0.60809267 0.0956226 0.072240874 -0.00950526 0.0023245662 -0.09146608 -0.05094723 0.094029345 0.30084524 0.13383612 -0.060093816 0.052764736 -0.13276713 -0.053772494 -0.22697729 -0.11507133 0.020548524
159 0.030790778 -0.46172887 -0.21872666 -0.101295434 0.085896544 -0.529293 0.050923306 -0.037719604 0.035601426 0.018946804 0.04575802 0.118326835 -0.042991325 0.093913935 0.028940566 -0.558864 0.094424546 0.06658515 0.0029445526 0.00097617664 -0.10830274 -0.0536022 0.1093852 0.2627448 0.12201577 -0.03885439 0.042938482 -0.113212295 -0.05291066 -0.17458647 -0.10234284 0.028139016
239 0.023371495 -0.4324605 -0.19575919 -0.0975065 0.09205152 -0.48262098 0.056426056 -0.046680562 0.03499685 0.0017911871 0.045566678 0.12791742 -0.049155593 0.092333496 0.058676977 -0.6048243 0.12646766 0.07902767 -0.0059259925 -0.02814165 -0.07531796 -0.053733256 0.08823782 0.31458786 0.10416034 -0.05210644 0.01945011 -0.117063686 -0.04646292 -0.18424211 -0.12141041 0.03261085
139 0.027667694 -0.47117534 -0.20044914 -0.0970912 0.095877506 -0.48910138 0.03422199 -0.03060363 0.041959804 0.009604747 0.058463622 0.123164825 -0.07888227 0.10284196 0.056199834 -0.5942089 0.12065125 0.045527246 -0.008243687 0.0057495125 -0.07637911 -0.04970085 0.06771628 0.29193017 0.1280921 -0.05344175 0.028243931 -0.11456686 -0.051071756 -0.21017772 -0.13856776 0.05400155
87 0.002135185 -0.49930617 -0.21608897 -0.088412166 0.11133188 -0.53532463 0.03828647 -0.04918462 0.04991349 0.0126949875 0.05307742 0.11588847 -0.050670087 0.073884815 0.04876841 -0.525916 0.097242914 0.06382657 -0.008064461 -0.029489521 -0.06578719 -0.055723287 0.074079715 0.26513746 0.1069527 -0.035847683 0.021273185 -0.10498726 -0.034716714 -0.18821414 -0.09238189 0.023841482
31 0.026057841 -0.4527044 -0.20636506 -0.0810595 0.094600864 -0.51558036 0.06000365 -0.049494676 0.025656497 0.015471178 0.054791506 0.13559419 -0.030057814 0.05945578 0.0544721 -0.5965724 0.09911262 0.076780826 -0.015481076 -0.019808413 -0.07650119 -0.06190812 0.09299295 0.2933824 0.09377605 -0.026654372 0.042318378 -0.082440466 -0.03443245 -0.14670269 -0.095099464 0.035941854
117 0.044390112 -0.51487637 -0.2294344 -0.112251714 0.11995962 -0.55986744 0.04575346 -0.04093327 0.03803204 0.007269882 0.038138926 0.10880238 -0.061281856 0.06397525 0.054395024 -0.5116148 0.092255875 0.06502869 -0.00091917533 -0.024460623 -0.065738425 -0.035977855 0.07182129 0.26750174 0.11782254 -0.04505099 0.032357838 -0.09930915 -0.05736962 -0.18833102 -0.11851885 0.050569598
242 0.023387061 -0.4694491 -0.20275049 -0.08933436 0.096671484 -0.48738116 0.051773977 -0.02644253 0.054664694 0.016800711 0.050381463 0.12631121 -0.055945616 0.085095465 0.057500083 -0.5807076 0.112414196 0.07506857 -0.015355635 -0.0037724439 -0.072822906 -0.038819283 0.09916497 0.30606475 0.11743007 -0.050874963 0.05619584 -0.10486044 -0.0539759 -0.19299608 -0.11036009 0.02772319
163 0.014109755 -0.44385728 -0.19911367 -0.10010182 0.08595753 -0.49087188 0.038423806 -0.031345434 0.028070057 0.000107283195 0.043959714 0.15100627 -0.06532456 0.087319486 0.038481712 -0.62579924 0.1154937 0.08369033 -0.022143675 -0.015863338 -0.06045855 -0.048213888 0.101164155 0.313244 0.124017715 -0.034306664 0.025075005 -0.11199436 -0.05345557 -0.17656194 -0.09551755 0.029911833
35 -0.012920598 -0.40895724 -0.20282076 -0.08717026 0.06590413 -0.4588346 0.044578508 -0.035522252 0.029346103 0.02444918 0.054087076 0.149325 -0.07410229 0.09212978 0.043200243 -0.617809 0.13974448 0.091391936 -0.010987224 0.0089109475 -0.08373288 -0.06484013 0.09774854 0.32869676 0.13631499 -0.0361068 0.048172396 -0.11656912 -0.05687685 -0.21173225 -0.12341147 0.038517263
147 0.025576903 -0.4257755 -0.19488034 -0.09515905 0.077421606 -0.48668998 0.052512914 -0.013087871 0.045735206 0.018536493 0.038248356 0.11454171 -0.0638923 0.073434904 0.06269204 -0.60115737 0.10880029 0.06283754 -0.011185322 -0.009309271 -0.094971776 -0.067844234 0.097857185 0.29330778 0.13096116 -0.05620755 0.023577796 -0.11367447 -0.06049648 -0.22348145 -0.13477953 0.04408773
96 0.022413475 -0.46728346 -0.1917392 -0.11735679 0.10128011 -0.5175598 0.035015635 -0.043859143 0.036292516 0.01461286 0.04699148 0.127243 -0.04822608 0.07724951 0.05000514 -0.5664006 0.12445677 0.08366987 -0.021808622 -0.014857159 -0.07169733 -0.04527077 0.095654584 0.27444962 0.10679386 -0.024859507 0.024756072 -0.12947078 -0.06156011 -0.18919787 -0.10546909 0.037029967
103 0.027486773 -0.53677756 -0.22046119 -0.09697052 0.112013295 -0.5740329 0.05707591 -0.038067237 0.034864414 0.011854557 0.031822395 0.097337395 -0.057869617 0.07191301 0.03217791 -0.49105102 0.11798596 0.06731277 -0.012275638 -0.017342208 -0.05362723 -0.03779655 0.067935325 0.25725874 0.11527571 -0.046735223 0.04397248 -0.10572954 -0.05027575 -0.20378008 -0.117143705 0.03207819
65 0.014020225 -0.4823895 -0.2196893 -0.09514213 0.12478984 -0.52459425 0.06528215 -0.022286436 0.041207947 0.0063117943 0.06430141 0.115516 -0.044629376 0.085780464 0.038532548 -0.54852474 0.12321311 0.064545624 0.0021708917 -0.010670941 -0.078425325 -0.06463728 0.09549537 0.28704715 0.13939065 -0.04354768 0.027963206 -0.086393274 -0.037249543 -0.18359466 -0.11006126 0.036460023
79 0.015924865 -0.45344442 -0.19012904 -0.11160136 0.110314816 -0.5121538 0.047757246 -0.016208047 0.016660303 0.043149203 0.060348794 0.109334104 -0.058579054 0.07038925 0.03520318 -0.5697091 0.12880895 0.048879977 0.008229215 -0.0008474674 -0.08123054 -0.077314995 0.09759529 0.27377248 0.14266494 -0.06286844 0.059045903 -0.13221136 -0.046781812 -0.24436262 -0.15978129 0.051806767
125 0.02444455 -0.48480043 -0.22626701 -0.08463102 0.1142696 -0.5456522 0.05309799 -0.03660097 0.019849647 0.0034261805 0.052314103 0.09894206 -0.06375631 0.08706036 0.02435922 -0.50705004 0.11789686 0.057551365 7.5800253e-06 -0.027253484 -0.054864295 -0.06161795 0.09584438 0.26461184 0.12567297 -0.042573888 0.022274032 -0.1125917 -0.041846972 -0.19240677 -0.113628015 0.04373867
277 0.0016656616 -0.40979996 -0.2104834 -0.096303806 0.08790493 -0.47733688 0.039049268 -0.044374894 0.036378987 0.026471043 0.05180099 0.12270241 -0.0736978 0.09186957 0.034771387 -0.614359 0.14030124 0.08800894 0.008708399 -0.02587556 -0.07464983 -0.058791157 0.11212305 0.34267882 0.111760825 -0.03260425 0.038644865 -0.08733288 -0.014168966 -0.16825347 -0.108345516 0.038295645
183 -0.007841556 -0.42800727 -0.2071571 -0.106450014 0.08932867 -0.48999453 0.053801112 -0.036701288 0.042251494 0.008834695 0.0424764 0.12667328 -0.06732158 0.08516713 0.064511046 -0.5948259 0.117057815 0.07690799 -0.012513014 -0.02281394 -0.0925658 -0.052355114 0.08798467 0.3107767 0.109426126 -0.049776636 0.03697331 -0.11780057 -0.041501537 -0.18961556 -0.10894503 0.027821502
99 0.029847464 -0.443851 -0.19158849 -0.09058943 0.10375699 -0.4723846 0.039691195 -0.03594614 0.038280863 0.017953819 0.056022443 0.12677881 -0.044932466 0.09097549 0.06790042 -0.57563794 0.13478798 0.059732027 -0.027868532 -0.025822353 -0.07741353 -0.065828845 0.069728464 0.310779 0.1391791 -0.043390155 0.041643016 -0.13403095 -0.04401897 -0.24246205 -0.1255247 0.034503814
70 0.02339544 -0.4295522 -0.19202323 -0.10265936 0.09502105 -0.47103187 0.032764357 -0.009043753 0.050489802 0.03550113 0.05017613 0.14866103 -0.069990955 0.10458269 0.04680174 -0.63942295 0.12711845 0.055306338 0.009947483 -0.01217896 -0.07438402 -0.055764247 0.09424967 0.30776516 0.10574492 -0.0375615 0.03217869 -0.102411516 -0.023164367 -0.16162975 -0.10742379 0.036290787
47 -0.0054741018 -0.4317656 -0.20967656 -0.110196374 0.07875944 -0.47958553 0.03625635 -0.025220612 0.032254424 0.020519556 0.053350482 0.1530411 -0.05726628 0.07688018 0.048164915 -0.5966093 0.12361754 0.065058775 -0.008341502 0.010364972 -0.08686775 -0.057267286 0.099810556 0.31831455 0.12862942 -0.04969446 0.05108658 -0.10833148 -0.07009596 -0.17861328 -0.111568846 0.027162442
195 0.026404323 -0.48890957 -0.20994644 -0.11177797 0.10292568 -0.5258005 0.03921705 -0.026541192 0.029816022 0.017952515 0.037312165 0.12399071 -0.0574813 0.07368312 0.057610672 -0.5574724 0.121572144 0.07402083 0.012585228 -0.014650423 -0.07209296 -0.048802536 0.081199005 0.30520222 0.1134676 -0.04517737 0.032161366 -0.11460861 -0.056850474 -0.2002451 -0.12044465 0.030765908
209 -0.014992297 -0.4837896 -0.24311502 -0.1102816 0.09523456 -0.5381263 0.048663035 -0.016744168 0.056134295 0.031622842 0.04272281 0.13255677 -0.0703095 0.095788755 0.049989827 -0.56301236 0.11737062 0.07315247 -0.017464148 0.00045951497 -0.0802601 -0.046734523 0.114142895 0.28233585 0.100041 -0.028718125 0.044690646 -0.1062964 -0.04414051 -0.16252108 -0.09659 0.04734267
300 0.010380467 -0.43248773 -0.21988015 -0.101918906 0.091639616 -0.50528675 0.023600927 -0.02867183 0.05305007 0.023130057 0.061164215 0.12307345 -0.071526594 0.07835858 0.03135656 -0.58997464 0.105875626 0.055951204 -0.02394591 -0.006986068 -0.06758804 -0.03808504 0.08897698 0.28903252 0.109797716 -0.043113273 0.039621953 -0.1187486 -0.036590416 -0.19520251 -0.13317204 0.029346483
39 0.008596931 -0.49098924 -0.23012392 -0.10779566 0.12703085 -0.552501 0.055629887 -0.022465868 0.039803058 -0.0034157222 0.040255826 0.108828425 -0.04074708 0.06964125 0.04563597 -0.53286856 0.093572944 0.06724254 -0.022911858 -0.004587983 -0.06284135 -0.04651574 0.104042165 0.26346838 0.09971008 -0.047775965 0.017972749 -0.10080865 -0.049858604 -0.19597279 -0.10298894 0.027815297
174 -0.007658229 -0.3805494 -0.17552084 -0.067149185 0.06331728 -0.42219672 0.03803486 -0.054977644 0.06062066 0.008073105 0.061406597 0.15893605 -0.064557254 0.09131574 0.055661608 -0.6858093 0.124400966 0.08169195 -0.016157595 -0.03164561 -0.07748544 -0.05786816 0.10998467 0.34761903 0.10904581 -0.020582099 0.05377676 -0.09539776 -0.0547177 -0.14454879 -0.11071074 0.02006697
112 0.01270523 -0.46933424 -0.20009261 -0.11987433 0.077026375 -0.51747406 0.045086503 -0.018997712 0.0317397 -0.00516077 0.04615025 0.11861516 -0.0630268 0.07407351 0.050312776 -0.5473273 0.097871654 0.0796099 -0.00038809713 -0.00017357824 -0.07137838 -0.05866205 0.11043819 0.25560924 0.11099624 -0.05042458 0.037612308 -0.1252957 -0.04629476 -0.18556547 -0.094914846 0.033847548
219 0.03642034 -0.4888157 -0.23499043 -0.11030407 0.094569266 -0.519459 0.05545623 -0.032904316 0.048055038 0.0047538304 0.05474069 0.118437305 -0.060193185 0.09040701 0.033796504 -0.5643751 0.09465334 0.07610508 -0.0134235 -0.0012342155 -0.077886164 -0.053127896 0.09124463 0.28272727 0.112097725 -0.032913547 0.046592902 -0.10538279 -0.02932543 -0.17422429 -0.098538205 0.023896122
263 0.03925851 -0.500744 -0.22151166 -0.12604615 0.11956009 -0.53329456 0.057658605 -0.0042257477 0.009536217 0.025574028 0.06350808 0.112307526 -0.06925981 0.076793104 0.054566905 -0.47574452 0.077778906 0.040013924 -0.0020059056 0.01065948 -0.093542494 -0.07362134 0.07224118 0.22136405 0.13186106 -0.08135077 0.033561558 -0.12786445 -0.042728845 -0.24142878 -0.12796895 0.026433054
57 0.030746007 -0.47197282 -0.23413016 -0.118019395 0.10126035 -0.52299917 0.042660847 -0.028462397 0.04439315 0.019641314 0.04788507 0.1216283 -0.054126818 0.08538363 0.025916882 -0.54948616 0.10316731 0.050122313 -0.01551707 -0.004945981 -0.089519106 -0.0467195 0.097979546 0.26584613 0.12322872 -0.0520695 0.038377754 -0.10804393 -0.036530014 -0.21196975 -0.14028178 0.038113836
205 0.024928063 -0.43846244 -0.19942075 -0.088181704 0.07767934 -0.4986139 0.043253075 -0.026678829 0.03756915 0.023006845 0.058619063 0.15078703 -0.07283518 0.09628411 0.048566166 -0.6004523 0.11960102 0.07098223 -0.012070448 -0.003147292 -0.08453 -0.047748197 0.09129164 0.28068903 0.113193005 -0.04423047 0.037723098 -0.12451539 -0.041462407 -0.18610282 -0.12513916 0.019626101
41 0.0018559633 -0.45667443 -0.2040916 -0.08791003 0.10035004 -0.4967542 0.07117486 -0.027046897 0.04373546 0.0020193858 0.051514883 0.13301037 -0.06762363 0.09106207 0.061541654 -0.57369155 0.11694228 0.071574084 -0.011551214 -0.00839326 -0.080649026 -0.07448699 0.08510075 0.28932482 0.13064052 -0.04783197 0.027212577 -0.11592939 -0.049169596 -0.19977912 -0.11964643 0.044077076
154 0.027875273 -0.4092107 -0.19636904 -0.110061854 0.09019224 -0.4796332 0.065609284 -0.027735623 0.059883572 0.020086003 0.050684538 0.12798016 -0.054812152 0.10180247 0.055060282 -0.5873463 0.11261997 0.05701858 -0.030895455 -0.02366562 -0.1004683 -0.055292513 0.09289806 0.31314722 0.0910274 -0.053266246 0.02770204 -0.11602104 -0.069951355 -0.17474023 -0.1189561 0.004063307
293 0.014011853 -0.46856412 -0.23433709 -0.103568226 0.08019454 -0.53801507 0.060381863 -0.030532705 0.023809206 0.01937961 0.046399772 0.13316861 -0.036206722 0.08638017 0.03357683 -0.5524528 0.084157154 0.066498995 -0.009840111 -0.015354308 -0.07838136 -0.047771703 0.11108573 0.26429817 0.11088121 -0.045128696 0.03286885 -0.13098425 -0.045236602 -0.17962123 -0.1310926 0.031094464
240 0.025594518 -0.472403 -0.22559881 -0.0850554 0.12222972 -0.5059663 0.045486677 -0.023103615 0.034175124 0.016384806 0.03411701 0.12180633 -0.065815695 0.080829166 0.055352036 -0.5680948 0.1208176 0.042551078 -0.007942586 -0.0072867023 -0.069165744 -0.064114 0.088867694 0.2821825 0.10449948 -0.032648556 0.04755966 -0.096722774 -0.02204652 -0.19191234 -0.11110213 0.01680345
150 0.026863728 -0.45412466 -0.17828138 -0.11970573 0.08805419 -0.48847792 0.03210812 -0.026061254 0.025362147 0.0031041445 0.05756169 0.124694854 -0.07167149 0.0650047 0.0419183 -0.5861565 0.13028798 0.07512604 -0.0038093682 -0.0042267903 -0.09419869 -0.067031704 0.1036941 0.29146367 0.11060427 -0.033529382 0.041543905 -0.12847082 -0.032133576 -0.20066293 -0.13424288 0.05805999
232 0.0082015665 -0.43814874 -0.1898409 -0.09843201 0.09105805 -0.49021262 0.061368734 -0.028106708 0.0231815 0.015944857 0.065248355 0.13689905 -0.058531176 0.083701186 0.06223141 -0.5797988 0.1316617 0.06641972 0.00016834443 -0.008462667 -0.082374245 -0.06903981 0.08903897 0.29791543 0.13098869 -0.061060563 0.027810799 -0.13078836 -0.047707718 -0.20920351 -0.108906105 0.040626246
160 0.01807615 -0.4713941 -0.21845508 -0.091182254 0.11546891 -0.53094083 0.048759703 -0.03558864 0.04175593 0.01793535 0.0627254 0.11212401 -0.04825929 0.09620681 0.049620125 -0.56890345 0.12599799 0.04851294 -0.013037781 -0.0076158564 -0.06761283 -0.037539795 0.09947668 0.28037143 0.090763114 -0.017660435 0.049310382 -0.09599707 -0.037391912 -0.15485016 -0.114709936 0.03244451
207 0.0038382567 -0.45759144 -0.2040665 -0.08998677 0.093920514 -0.49702647 0.06229912 -0.03674419 0.04826012 0.027850484 0.0557864 0.13994896 -0.06756236 0.10320523 0.04814826 -0.58492947 0.11906351 0.06897172 -0.013805924 -0.016867809 -0.07315249 -0.05027604 0.09772979 0.3160017 0.114853136 -0.054536495 0.025709799 -0.115857154 -0.030420853 -0.15806049 -0.10939454 0.0276269
285 0.016469698 -0.43936798 -0.21040392 -0.10685813 0.0775424 -0.49003315 0.036152843 -0.016710931 0.025010731 0.028489586 0.060310166 0.12824708 -0.070812985 0.08554289 0.04367726 -0.58658403 0.11802868 0.07194502 0.012380537 -0.012904156 -0.08942396 -0.064978495 0.095018975 0.31447178 0.12856314 -0.060554016 0.045981266 -0.1098335 -0.027340567 -0.20593527 -0.12339936 0.028281886
268 0.0029134522 -0.43777856 -0.22749385 -0.09170697 0.07871807 -0.51918393 0.025948523 -0.047793314 0.027506547 0.006742987 0.056140162 0.14619914 -0.06321786 0.10151338 0.050884508 -0.58447 0.08402972 0.048490543 -0.02462129 -0.0015444695 -0.058391422 -0.059992637 0.08803614 0.27060395 0.117805675 -0.045646526 0.04864542 -0.1401987 -0.035777517 -0.20455799 -0.116021916 0.03318153
58 0.031445526 -0.47251883 -0.22541763 -0.10103468 0.09687854 -0.5169836 0.060668267 -0.026956033 0.03164913 0.013723686 0.0632666 0.11104803 -0.05160658 0.093896315 0.052258354 -0.5594439 0.11343365 0.048884355 0.0071166283 -0.021671377 -0.081946544 -0.07666848 0.08065429 0.25715092 0.14034903 -0.0648216 0.026284482 -0.13159683 -0.03057537 -0.21414109 -0.13834119 0.03694481
199 0.015243743 -0.4504694 -0.2166128 -0.08234672 0.10394939 -0.5115658 0.05619912 -0.019242335 0.031488348 0.0044595604 0.058390725 0.122022584 -0.07330517 0.09070437 0.039299708 -0.5631513 0.13059206 0.049760316 -0.0055966256 -0.0030334757 -0.09031153 -0.061908353 0.086420946 0.2751983 0.12829024 -0.06965742 0.04190924 -0.13596874 -0.05804968 -0.25797334 -0.13682021 0.040355474
248 -0.001665226 -0.41953337 -0.1896738 -0.10191828 0.09398932 -0.46747136 0.062988915 -0.046030086 0.052483585 0.007093815 0.049774803 0.16477057 -0.050930995 0.07932962 0.0758825 -0.6433653 0.13347377 0.077850215 -0.03206486 -0.0033871226 -0.09322508 -0.06507518 0.097858846 0.31166264 0.11048728 -0.03606118 0.03670874 -0.12677307 -0.050336704 -0.19197015 -0.098191574 0.010956688
165 0.0038097934 -0.4392098 -0.19090375 -0.09409041 0.09195573 -0.46647897 0.029168816 -0.016066145 0.03495884 0.017601972 0.072137676 0.13869226 -0.061588857 0.0935627 0.053801708 -0.6091746 0.1234593 0.06591151 -0.015533099 -0.014703256 -0.064702466 -0.060906637 0.09842493 0.30581528 0.12561676 -0.0230021 0.025261441 -0.13468754 -0.05105371 -0.20561004 -0.122541875 0.04481028
299 0.011000767 -0.463616 -0.21320349 -0.088881955 0.106261075 -0.5050667 0.04339408 -0.024505999 0.03556252 -0.0050991834 0.038781453 0.12358937 -0.054629877 0.07570893 0.03559377 -0.56101465 0.12378285 0.05494396 -0.014046392 -0.029812953 -0.08122242 -0.035681944 0.09227306 0.27900305 0.112872764 -0.031457756 0.029382959 -0.12849863 -0.031318203 -0.17614669 -0.101056404 0.02581822
196 -0.0016649569 -0.4443477 -0.19909212 -0.101172 0.096933395 -0.4954134 0.050519906 -0.029782575 0.026576748 0.024081014 0.064420946 0.13054587 -0.057747502 0.09688386 0.049729783 -0.57421607 0.12130123 0.0544757 -0.024448387 -0.01923677 -0.0818093 -0.058342166 0.08621042 0.2875062 0.12808844 -0.04411675 0.05401955 -0.13369377 -0.06370175 -0.2137297 -0.1291265 0.034606133
217 0.004576422 -0.4176983 -0.22619537 -0.09922734 0.07484782 -0.48973075 0.031669915 -0.047419567 0.0376921 0.028461704 0.038613934 0.13081071 -0.0442098 0.07961053 0.038332034 -0.621531 0.11968065 0.08379058 -0.021936346 -0.02760559 -0.09086824 -0.06504172 0.096144654 0.32199362 0.114484936 -0.051533084 0.03377561 -0.13000011 -0.048507974 -0.19135982 -0.12628876 0.039881136
134 0.019802514 -0.41454387 -0.19911161 -0.08504593 0.08402712 -0.46025062 0.059538886 -0.04055422 0.060370937 0.024999298 0.051990703 0.15048109 -0.06985695 0.090309486 0.046092983 -0.64239705 0.1232051 0.087475725 -0.007898511 -0.024604546 -0.07460809 -0.04631505 0.094339356 0.30653685 0.09957636 -0.045407962 0.031166416 -0.10738489 -0.04252494 -0.20814036 -0.10472096 0.01599206
309 0.00082154054 -0.40644324 -0.20758067 -0.081500165 0.10296863 -0.47421613 0.033178486 -0.05007228 0.03390147 0.010210406 0.053169187 0.13180597 -0.07069538 0.10620336 0.051915124 -0.6356908 0.10119596 0.08064206 0.006981157 -0.030333824 -0.078215905 -0.06009877 0.099333085 0.31373778 0.11397664 -0.038513586 0.045906886 -0.12670569 -0.02406058 -0.18625534 -0.10222629 0.026801577
307 0.028509758 -0.5064004 -0.2152799 -0.085059404 0.12384298 -0.53809047 0.07532044 -0.054079827 0.025713656 0.007532915 0.032028645 0.11959909 -0.039806902 0.07251352 0.060860567 -0.5116816 0.08628496 0.066118605 -0.0060650334 -0.043021854 -0.09294857 -0.060822595 0.10854292 0.26261613 0.119057514 -0.062415253 0.042925745 -0.11534396 -0.03599718 -0.18746997 -0.106174104 0.03753716
33 0.006175111 -0.42573294 -0.21049589 -0.07809651 0.08956685 -0.4793321 0.043592703 -0.02360912 0.06379421 0.008027148 0.05590238 0.15460263 -0.050141096 0.07467903 0.06072908 -0.60416406 0.11208559 0.08732187 -0.042278834 -0.020997573 -0.06797494 -0.041160576 0.10751014 0.2896261 0.1199909 -0.03785237 0.039890423 -0.12302714 -0.041623633 -0.18927945 -0.12729512 0.040487617
250 0.021861302 -0.4853154 -0.20366432 -0.10113261 0.10907621 -0.52525115 0.05383531 -0.027741954 0.035115268 0.014147417 0.043599576 0.10145945 -0.069027044 0.09637753 0.054973725 -0.54505026 0.123257495 0.06996776 0.014644737 0.0012477472 -0.07202022 -0.055707548 0.07164449 0.26229125 0.10262241 -0.057674006 0.015443952 -0.11108965 -0.065518275 -0.20855431 -0.12086294 0.03741376
126 -0.0020876175 -0.47785285 -0.22862363 -0.09210289 0.10312285 -0.51536745 0.0388352 -0.025421577 0.027121209 0.011844675 0.040446237 0.12542333 -0.05138924 0.085577115 0.056378417 -0.55915016 0.1169807 0.06433179 0.009810634 -0.016397003 -0.077288374 -0.043002166 0.106378585 0.26497427 0.1025848 -0.059551995 0.05345098 -0.10878675 -0.042261966 -0.17575622 -0.104559705 0.029930547
32 0.023238292 -0.46622008 -0.2255346 -0.07941611 0.10307736 -0.4967851 0.0630803 -0.036532648 0.03781185 0.019856447 0.0418205 0.13964675 -0.062440984 0.09317762 0.054294128 -0.5851182 0.13289215 0.050147474 -0.020838551 -0.016245557 -0.08218221 -0.038289584 0.086478725 0.29464975 0.11567351 -0.05132769 0.038610954 -0.10555999 -0.036125783 -0.21611114 -0.13752131 0.032286987
64 0.020063043 -0.45511 -0.21148902 -0.090032026 0.102552645 -0.50473076 0.055979464 -0.037627343 0.04497471 -0.0047458736 0.050679047 0.1333979 -0.061965328 0.07647658 0.06426281 -0.59594315 0.113924526 0.069974445 -0.011930232 -0.010770414 -0.060731806 -0.052805156 0.08943975 0.29637724 0.098594345 -0.03498708 0.047763944 -0.104832955 -0.04136338 -0.15558347 -0.098041445 0.01683556
257 0.03033697 -0.4683106 -0.21077546 -0.09897427 0.11258588 -0.5127226 0.062334113 -0.011276915 0.026694896 -0.0010664861 0.05162464 0.13451628 -0.06656693 0.08165663 0.038626496 -0.5454835 0.124018066 0.060890306 -0.010687076 -0.010777038 -0.07331579 -0.06248659 0.08730951 0.26327834 0.13663374 -0.053872727 0.023305569 -0.12705915 -0.051622294 -0.2049588 -0.11893711 0.03261225
171 0.009173384 -0.43886632 -0.21698005 -0.07737869 0.07816593 -0.48676684 0.055021726 -0.020187665 0.04301772 0.010274251 0.07475047 0.14108028 -0.07056095 0.08753209 0.039080247 -0.5687519 0.14076853 0.07246376 0.0012607304 -0.010682724 -0.07343506 -0.052008282 0.09758409 0.30054247 0.12675261 -0.03482321 0.032566786 -0.13152167 -0.036925483 -0.18933243 -0.11116964 0.04730648
170 0.031906832 -0.4400272 -0.21330597 -0.07917366 0.093813516 -0.47534013 0.052143205 -0.038708724 0.038191453 -0.008499512 0.060820565 0.12333616 -0.04737722 0.0602091 0.068892494 -0.6075824 0.14435136 0.0843842 0.0009674018 -0.01304179 -0.07954006 -0.04750644 0.08643277 0.3038321 0.12853906 -0.05351193 0.043747786 -0.11591942 -0.046154074 -0.19232053 -0.102855414 0.031240152
161 0.029765682 -0.43589014 -0.19014989 -0.08248295 0.09294561 -0.47063315 0.03549859 -0.022368936 0.036965623 0.01542524 0.05227709 0.13171771 -0.066811696 0.08927683 0.058826998 -0.61778575 0.11196741 0.06968152 -0.018014105 -0.018883614 -0.072249375 -0.050681673 0.10727527 0.318304 0.113653734 -0.0520042 0.032688282 -0.14391208 -0.048090864 -0.2211939 -0.12676121 0.04367847
17 0.022382708 -0.46632415 -0.21989459 -0.080417514 0.08204575 -0.5326888 0.059763692 -0.022030124 0.056802828 0.019959869 0.05422854 0.13991736 -0.045348056 0.082869925 0.028932014 -0.554832 0.121075235 0.049304396 -0.018664109 -5.5007575e-05 -0.0745058 -0.06503851 0.089237235 0.2763603 0.13867104 -0.033148788 0.032204293 -0.109760165 -0.027723474 -0.18082574 -0.12240518 0.03412558
271 0.012399438 -0.4243855 -0.20601065 -0.10800791 0.069798805 -0.4724236 0.02014382 -0.039719746 0.040745802 0.016709328 0.05488095 0.13565053 -0.052636813 0.0788649 0.043003794 -0.6054229 0.13313484 0.073671184 -0.0031750894 -0.03138565 -0.07165348 -0.03291065 0.081673205 0.30001122 0.11944759 -0.046510912 0.044294674 -0.12446084 -0.0441034 -0.19179302 -0.112963274 0.04976331
202 0.018492758 -0.40716738 -0.21385166 -0.08722886 0.08583785 -0.44686812 0.04597159 -0.00994384 0.049761128 0.022618853 0.069652684 0.13894875 -0.046140995 0.07427484 0.045065135 -0.6575693 0.13117889 0.094086476 -0.0025557103 -0.003948374 -0.08812633 -0.052106164 0.110587895 0.32726815 0.10943248 -0.027296277 0.043923087 -0.10728022 -0.03134012 -0.18741612 -0.10392016 0.045019522
74 -0.0063469126 -0.46509862 -0.22164299 -0.117399104 0.090717375 -0.48593128 0.04049718 -0.028198276 0.03898041 -0.0034979987 0.060361452 0.13489388 -0.07347381 0.097063296 0.05110653 -0.5756674 0.12286429 0.069751196 0.008241125 -0.024657534 -0.093656346 -0.04172359 0.09380973 0.30300072 0.10214421 -0.03262534 0.03554281 -0.11656076 -0.036345683 -0.17700781 -0.10132137 0.04981219
167 0.014927064 -0.4859315 -0.22261123 -0.11369578 0.10694637 -0.5506288 0.04504518 -0.04927212 0.04985828 0.0051720687 0.037355103 0.11719689 -0.05170741 0.08768196 0.045987114 -0.5296618 0.113646746 0.08188639 -0.024958383 -0.027539412 -0.076045014 -0.040374 0.11448917 0.25893968 0.10366382 -0.02507162 0.034235675 -0.10650911 -0.024854409 -0.1533159 -0.086759016 0.03904737
296 0.012048433 -0.48920122 -0.22819676 -0.09762738 0.09828862 -0.54204094 0.05397344 -0.047817986 0.03209514 0.010543411 0.043607425 0.09703527 -0.056250896 0.09086197 0.03465091 -0.5149352 0.12129746 0.043695085 0.016164618 -0.015512817 -0.08856915 -0.07216097 0.1000745 0.27941608 0.11123952 -0.04084409 0.045455392 -0.11330963 -0.02979017 -0.2015835 -0.10178231 0.031713396
255 0.031108713 -0.4636696 -0.1954173 -0.07956673 0.0950876 -0.51010376 0.05622747 -0.019470101 0.022271104 0.02207401 0.03730408 0.120027006 -0.0456093 0.061687585 0.046047233 -0.5755309 0.11141095 0.0592615 0.0017693974 -0.006966946 -0.096375145 -0.055797435 0.09992264 0.30131724 0.1182991 -0.044031817 0.01984648 -0.11114951 -0.038579278 -0.18082666 -0.10940102 0.020915745
304 -0.011620101 -0.46705198 -0.22533579 -0.10029522 0.094783515 -0.534515 0.06585366 -0.056809667 0.024547713 0.03177511 0.05459537 0.13348024 -0.058652747 0.10142944 0.042068176 -0.56038725 0.124745145 0.070819296 -0.00895554 -0.03409858 -0.069945484 -0.053183325 0.108311705 0.28513256 0.09359196 -0.050216835 0.03112113 -0.09679783 -0.042745017 -0.15615523 -0.09556337 0.029664248
18 0.008858652 -0.3941896 -0.19744244 -0.08999234 0.09069691 -0.43391764 0.025314836 -0.019229533 0.0496961 0.035856195 0.060475104 0.16422397 -0.051917415 0.08594002 0.061250925 -0.6797737 0.12657385 0.08357882 -0.030331826 0.0017984017 -0.06799199 -0.066800095 0.118337266 0.3370146 0.11532221 -0.027355013 0.043724738 -0.12081755 -0.033875972 -0.17497072 -0.10192237 0.035856843
149 0.01190015 -0.45916834 -0.20661387 -0.08632708 0.11173418 -0.48167536 0.04694209 -0.026614707 0.03449729 0.0014816409 0.035970796 0.1362205 -0.05649668 0.08603587 0.066110075 -0.5809335 0.12749687 0.06267041 -0.014916885 0.0022513585 -0.06698357 -0.07729118 0.10157947 0.28868935 0.14928934 -0.052557282 0.04532005 -0.112900466 -0.06547329 -0.21612056 -0.119985685 0.034602247
67 0.010778552 -0.42984155 -0.19419907 -0.09067095 0.10499012 -0.48952603 0.05129074 -0.043246824 0.053580374 0.015484009 0.07151095 0.12081711 -0.068386525 0.07278075 0.05457582 -0.5917533 0.1288663 0.06323663 -0.012661417 -0.022962254 -0.08450311 -0.07482265 0.09310924 0.28628817 0.122111164 -0.035998568 0.04307643 -0.124845564 -0.032263223 -0.20624977 -0.13472092 0.025563527
261 0.022007613 -0.45932057 -0.21512266 -0.10128372 0.10781031 -0.4985482 0.053356785 -0.036607765 0.034368668 0.020024959 0.060720377 0.10224589 -0.05250252 0.085611545 0.069606155 -0.5530411 0.109737314 0.06884509 -0.010808166 -0.030152604 -0.08681539 -0.06350228 0.077580296 0.2779419 0.109009385 -0.0547189 0.038194623 -0.098971196 -0.033972267 -0.18788311 -0.106675416 0.015166222
122 0.022072991 -0.4219205 -0.1956421 -0.10359114 0.094125345 -0.4774589 0.040829096 -0.012704973 0.03615759 0.0018870727 0.06284394 0.12217727 -0.061015654 0.07845127 0.05810061 -0.6044276 0.114998445 0.06675715 -0.027804153 0.002091856 -0.09224401 -0.07744028 0.07197194 0.29008925 0.1180396 -0.058148418 0.044004537 -0.13370824 -0.059268825 -0.23705316 -0.13648328 0.020119961
127 0.0076389876 -0.4929202 -0.20036925 -0.09090212 0.11197817 -0.5211888 0.052287314 -0.035454083 0.019992953 0.022591928 0.068178095 0.11495488 -0.06339549 0.06578078 0.06038777 -0.53183544 0.11474793 0.056033026 0.00877189 -0.018151687 -0.08057977 -0.061729137 0.09261202 0.2600253 0.13230337 -0.061261065 0.04156989 -0.106827065 -0.04430043 -0.18584754 -0.12217585 0.03489911
298 0.048180666 -0.47432247 -0.23016296 -0.08730835 0.112315655 -0.5371246 0.07348385 -0.033384997 0.019733433 0.030806461 0.03420297 0.10975297 -0.048707664 0.0876071 0.05132447 -0.5505521 0.116768025 0.07405939 0.00564731 -0.014104878 -0.09866199 -0.07337544 0.09386511 0.2702453 0.11952541 -0.07006452 0.0464372 -0.12158926 -0.04521397 -0.21052371 -0.11600827 0.028287504
118 0.03504212 -0.47124383 -0.18706642 -0.08360996 0.092491135 -0.4774881 0.05930183 -0.020013642 0.035464287 0.008894087 0.04366346 0.14082493 -0.05048826 0.07390925 0.05372391 -0.5846792 0.13345702 0.071595006 -0.013060258 -0.017632233 -0.06342193 -0.051237244 0.06936319 0.30160198 0.15278232 -0.041048836 0.03321203 -0.12738508 -0.022964831 -0.20457049 -0.12280671 0.027308526
235 0.032824412 -0.47472772 -0.2145508 -0.09812194 0.108034514 -0.52485514 0.062382404 -0.026524324 0.020463655 0.01841848 0.03302128 0.109364495 -0.03392937 0.08817952 0.06003118 -0.5343096 0.09048952 0.054579694 0.017916339 -0.016193535 -0.07858564 -0.043712564 0.08238189 0.26173514 0.12219675 -0.03601283 0.04658489 -0.10973998 -0.022487022 -0.21585944 -0.13692318 0.05151421
73 -0.0006952738 -0.41136009 -0.18664205 -0.09508025 0.095256776 -0.46108106 0.049214005 -0.014476831 0.018462608 0.006537339 0.05447863 0.14693753 -0.06631787 0.09291801 0.05130594 -0.6392114 0.12002154 0.06715919 -0.027829945 -0.017418364 -0.0736301 -0.0630191 0.0954131 0.29633763 0.1420159 -0.046978436 0.061851274 -0.11977563 -0.039534114 -0.24970733 -0.15623982 0.038993664
215 0.03342973 -0.4396152 -0.19772643 -0.111599706 0.091236666 -0.49608868 0.05714137 -0.044866357 0.052243758 0.022280753 0.064155556 0.12398761 -0.07332962 0.08443683 0.06433221 -0.58844835 0.10450941 0.0571666 -0.0047478084 -0.026802132 -0.095434844 -0.06341632 0.08930669 0.2914234 0.12208021 -0.053834833 0.049955554 -0.12853396 -0.065431915 -0.19283795 -0.10212884 0.03581988
