184 32
2 -0.13839157 -0.36996305 0.0273506 0.0021198266 0.133203 0.030157804 -0.04018805 -0.020213231 0.34205624 -0.32279363 -0.012483615 0.14426775 0.14982182 -0.17077568 0.2750232 -0.63390607 -0.14570077 0.063376494 -0.008677645 0.19567655 0.12576762 -0.011184163 -0.11053805 0.14535967 0.010338708 -0.21661009 0.0587161 -0.16957463 -0.10648695 -0.23880182 0.167791 -0.13351429
0 -0.16774963 -0.42479774 0.008517269 -0.022874279 0.1646486 0.050092064 -0.07229095 -0.02081519 0.375704 -0.29332748 0.033823103 0.13877003 0.111655675 -0.14760572 0.2564657 -0.58395785 -0.1419944 0.04479434 -0.03186395 0.17191538 0.08609144 -0.027628427 -0.15258121 0.14187613 0.03069193 -0.18192425 0.047510166 -0.15112549 -0.10572461 -0.24074684 0.14617294 -0.09569569
3 -0.17180869 -0.40003535 0.018082058 -0.020364484 0.15604098 0.052000925 -0.056893174 -0.01207545 0.32170412 -0.28968555 -0.0005078001 0.10373393 0.12418479 -0.14327362 0.24593416 -0.6057444 -0.14066285 0.04914636 -0.046633814 0.17719607 0.095444806 -0.013781921 -0.14256266 0.1565847 0.0144052915 -0.21727371 0.038261916 -0.15660778 -0.0912132 -0.2235948 0.16030183 -0.13370185
1 -0.19555238 -0.4829579 0.0326027 -0.009808371 0.18166468 0.035256393 -0.062224742 -0.008759046 0.3900509 -0.33075234 -0.015557345 0.15550172 0.1331506 -0.1431562 0.2295443 -0.533801 -0.12097566 0.02516749 0.013358899 0.16742872 0.123260275 -0.029339954 -0.10974048 0.11416673 0.025579691 -0.19069572 0.060329948 -0.13644937 -0.073926225 -0.19570494 0.11552565 -0.092029765
4 -0.15843606 -0.3789895 0.029447591 0.029401999 0.14495237 0.015708541 -0.072082974 -0.007911026 0.37449324 -0.3270254 -0.00046220864 0.15847127 0.15608586 -0.16032708 0.26626357 -0.61918527 -0.13656598 0.039087597 0.022137424 0.20160142 0.11615616 -0.017182603 -0.12421233 0.11458242 0.03859701 -0.21901444 0.057119474 -0.13570184 -0.069548905 -0.20614882 0.1283608 -0.124952786
5 -0.1633953 -0.44265297 -0.013187471 -0.0040443954 0.16219427 0.011248229 -0.045598615 -0.026109703 0.391238 -0.30074716 0.004651702 0.148299 0.11980055 -0.124102354 0.24269615 -0.58257824 -0.1332501 0.033264533 -0.010569941 0.19059439 0.12055171 -0.017447967 -0.15304485 0.1263439 0.03058028 -0.20500916 0.039227694 -0.15408115 -0.09957608 -0.22059283 0.10475965 -0.113137655
7 -0.15114692 -0.42261317 0.0034851283 -0.0024756743 0.14088702 0.042628564 -0.054508347 -0.016410654 0.384813 -0.31491905 -0.025243111 0.14861047 0.13125283 -0.1394536 0.23358282 -0.55691946 -0.14200358 0.051119123 -0.014105326 0.1917785 0.114634834 -0.028034553 -0.12852587 0.14478621 0.035068214 -0.22648399 0.026488569 -0.14301227 -0.12242738 -0.25533536 0.17278871 -0.12892734
6 -0.17045696 -0.44559225 0.005201904 0.013579147 0.17373943 0.027483808 -0.04466892 -0.004920602 0.35010356 -0.27453262 -0.010890937 0.1357677 0.13629785 -0.1783497 0.25486016 -0.55883175 -0.15968968 0.05619262 -0.015117636 0.19095306 0.113012776 -0.035944697 -0.13179128 0.11010868 0.01390169 -0.201639 0.061630506 -0.1732955 -0.09529705 -0.21827012 0.15928188 -0.13330652
105 -0.17932473 -0.48544517 0.004715289 -0.030512696 0.19632077 0.04422568 -0.06232084 -0.00069136225 0.3094118 -0.24148753 0.0018112749 0.101631545 0.12663415 -0.13658185 0.21245645 -0.5052494 -0.13036579 0.06763783 -0.035748478 0.1903557 0.11144528 -0.027470773 -0.13408507 0.14031598 -0.0029126639 -0.14776841 0.07939654 -0.13629502 -0.11298367 -0.26774585 0.19235751 -0.14718032
165 -0.18382129 -0.48968908 0.0031453895 -0.044612974 0.18917103 0.05918187 -0.07775837 0.0025916419 0.28713015 -0.23342521 -0.004889569 0.086832166 0.11966443 -0.14642254 0.21723665 -0.51101303 -0.1488352 0.06337142 -0.053979322 0.17650153 0.1147043 -0.02966565 -0.12629345 0.1343555 0.016639376 -0.15038726 0.06528459 -0.16886497 -0.11369852 -0.26763964 0.17952973 -0.12217212
137 -0.19235994 -0.46865854 -0.015663024 -0.055038344 0.2101836 0.072906956 -0.07744779 -0.0067084986 0.29822814 -0.22205167 -0.021989139 0.087421216 0.12118181 -0.13454928 0.2287746 -0.5261879 -0.13864385 0.089604124 -0.040413465 0.15775432 0.127201 -0.012662702 -0.1252077 0.154989 -0.009645284 -0.17573209 0.0665692 -0.17463967 -0.11209357 -0.23514822 0.17686449 -0.10167261
121 -0.18307298 -0.4963323 -0.013761516 -0.023146966 0.20612209 0.07289215 -0.06490186 -0.012690131 0.32327563 -0.25000218 -0.009089478 0.099341825 0.1000355 -0.14228018 0.19825189 -0.505071 -0.14950326 0.08072969 -0.05127379 0.15881951 0.0929762 -0.017349208 -0.12520875 0.1263195 0.009042699 -0.16728255 0.087593205 -0.15367177 -0.094734736 -0.27190378 0.18770018 -0.121327296
85 -0.19071311 -0.47581652 0.010232171 -0.04125471 0.18591855 0.042791337 -0.06322421 -0.023180546 0.2772931 -0.23180033 -0.027068254 0.073104456 0.08996608 -0.1243871 0.22367956 -0.5059774 -0.1542257 0.08984463 -0.0670895 0.15747908 0.10920987 -0.010426445 -0.14971599 0.1144987 -0.021404168 -0.16669217 0.06819186 -0.15523545 -0.11412971 -0.24406742 0.17832576 -0.14232397
149 -0.20449926 -0.47982398 -0.019225555 -0.032014985 0.19737698 0.055474937 -0.076119 0.00080284843 0.29299054 -0.24892262 -0.015752748 0.0980576 0.12091201 -0.1440883 0.2462516 -0.5492752 -0.16237518 0.063912295 -0.055078644 0.19750725 0.12732711 -0.040457528 -0.11970741 0.13493153 -0.003040251 -0.15782669 0.089008376 -0.15499586 -0.09993383 -0.2260483 0.17492583 -0.120756656
114 -0.21338281 -0.5547853 -0.014121012 -0.049427066 0.20935741 0.06759799 -0.092432894 0.006062312 0.31660873 -0.2571436 -0.017124154 0.09471668 0.10427409 -0.1253222 0.2294656 -0.49713835 -0.13519281 0.09732026 -0.044875 0.16263792 0.087221056 -0.017932806 -0.13045493 0.1377 0.0047243056 -0.14215106 0.07460192 -0.1480226 -0.09533258 -0.23200579 0.16211677 -0.120184205
11 -0.1907026 -0.5011172 8.8111374e-05 -0.030401953 0.20231274 0.056820605 -0.083363384 0.015751215 0.30690515 -0.2419198 -0.007966466 0.10571145 0.09562317 -0.123830825 0.22237515 -0.49700156 -0.15105106 0.07348426 -0.038432468 0.16678336 0.105601765 -0.03271529 -0.12934223 0.12085152 -0.002693764 -0.16357306 0.052851375 -0.16015576 -0.11223999 -0.26849046 0.2005054 -0.13164206
103 -0.19979955 -0.514919 0.013666932 -0.024418857 0.19639686 0.08484705 -0.07123915 -0.02330011 0.3081301 -0.25775057 -0.028782276 0.0925053 0.09664053 -0.13328026 0.19895649 -0.46921784 -0.14061068 0.08127216 -0.059411157 0.1540396 0.104155384 -0.023573896 -0.14253671 0.12337112 -0.0278242 -0.15649897 0.08142018 -0.15664653 -0.11139268 -0.2747474 0.19797376 -0.14469942
118 -0.17879023 -0.48154685 0.000917614 -0.04607715 0.18219723 0.07178782 -0.068788745 -0.011410942 0.2935415 -0.24285647 -0.014973414 0.11122596 0.12449658 -0.13686115 0.2151627 -0.52475685 -0.14676093 0.07667883 -0.06543929 0.18245105 0.121444136 -0.032111045 -0.14829542 0.13924435 0.0010047681 -0.1568359 0.067860134 -0.17071827 -0.09892727 -0.23519152 0.17271975 -0.13388585
26 -0.17535318 -0.4821989 -0.010976819 -0.043221395 0.20278926 0.044944353 -0.049681615 -0.021293316 0.28774446 -0.25677043 -0.01744304 0.08575357 0.12054298 -0.1543768 0.2326496 -0.531805 -0.13142426 0.07110796 -0.052793477 0.19355918 0.113415025 -0.017383708 -0.12643094 0.14709608 -0.0057090195 -0.17490248 0.06259678 -0.17138018 -0.10021905 -0.22860329 0.16941695 -0.098487385
58 -0.18352748 -0.52590805 -0.023777029 -0.045886885 0.2017835 0.078862205 -0.0728241 0.0030762295 0.3080596 -0.23295426 -0.0027379089 0.10541126 0.123649225 -0.11286193 0.21767181 -0.49957097 -0.15184301 0.082680695 -0.047056854 0.17078398 0.094915144 -0.040443067 -0.13627115 0.11699534 0.0005368084 -0.17981382 0.05171738 -0.16971728 -0.10346725 -0.22703056 0.18723106 -0.13370591
73 -0.20191787 -0.52390367 -0.012704631 -0.044775605 0.22885 0.061221883 -0.063901395 0.016616262 0.29954696 -0.25113294 -0.025079621 0.091514975 0.11033976 -0.11666481 0.20747335 -0.4843602 -0.141064 0.05723089 -0.051866207 0.16688801 0.112131044 -0.03775021 -0.12612991 0.119097285 0.00031803342 -0.15766901 0.06592991 -0.13386853 -0.09948793 -0.25888082 0.1639284 -0.13024123
80 -0.17796054 -0.48655322 -0.014198774 -0.026099179 0.20040083 0.070642605 -0.054190893 0.00019931406 0.28526095 -0.2338679 -0.024052348 0.08368487 0.12387654 -0.123268455 0.21284483 -0.5108947 -0.14514966 0.091091655 -0.04853599 0.1781035 0.09369164 -0.031122021 -0.13208213 0.14891644 0.0006990633 -0.1613002 0.06862481 -0.16693708 -0.0959202 -0.24097265 0.18388368 -0.09698981
92 -0.22246568 -0.55762166 -0.022262324 -0.05158533 0.23820116 0.08025148 -0.073437095 -0.014349989 0.3308639 -0.24917556 -0.010984396 0.114803255 0.11394334 -0.12256722 0.21487577 -0.50251955 -0.14392383 0.06166356 -0.05301213 0.16433753 0.0974096 -0.030175272 -0.12664863 0.119650505 0.0077891983 -0.14772728 0.064601615 -0.13332082 -0.07957576 -0.21214491 0.16070174 -0.10819825
51 -0.20161983 -0.51212 -0.00790245 -0.030203287 0.20544662 0.062304676 -0.074481554 -0.011393342 0.31521216 -0.2578526 -0.0072143334 0.10144906 0.10548757 -0.13802925 0.2182172 -0.51355267 -0.14663751 0.08269203 -0.058218252 0.15839566 0.09497658 -0.02693384 -0.121733114 0.12903427 0.0030880156 -0.15440431 0.07360707 -0.15582792 -0.084060885 -0.22624013 0.16671559 -0.12648165
56 -0.22328497 -0.5758329 -0.022607826 -0.05127986 0.23531446 0.060105156 -0.07854337 0.007186014 0.30852705 -0.2569338 -0.018679958 0.11178599 0.10035536 -0.11836311 0.19315828 -0.4662192 -0.14415158 0.074620605 -0.040272422 0.16735458 0.09670975 -0.02371842 -0.11618064 0.13774192 0.008162236 -0.15094143 0.04808417 -0.14750534 -0.10057682 -0.23452872 0.17252958 -0.107666165
160 -0.20859763 -0.5236418 -0.0030541285 -0.03763042 0.22599152 0.05859702 -0.07170478 0.009687899 0.28545678 -0.22904696 -0.012374582 0.07716456 0.120351136 -0.12581097 0.2208243 -0.50059557 -0.14103127 0.08391151 -0.06742355 0.19040072 0.09543464 -0.017889677 -0.124019906 0.12723649 -0.014441818 -0.1414101 0.08357368 -0.15871263 -0.11833769 -0.24406683 0.18518159 -0.11552248
172 -0.19268864 -0.49643168 -0.02428141 -0.0447133 0.2157485 0.05215694 -0.05736318 -0.008402283 0.3273522 -0.24412382 -0.010725153 0.11636296 0.1201002 -0.13672484 0.20834994 -0.5321665 -0.13797574 0.091657296 -0.05609163 0.20608076 0.09756028 -0.03383406 -0.1389422 0.117763385 -0.011295309 -0.16981669 0.06834099 -0.15322949 -0.10240161 -0.23648933 0.16080882 -0.10485827
76 -0.19827364 -0.46962786 -0.015802948 -0.02092853 0.19845866 0.04300906 -0.054183014 -0.010387193 0.2927905 -0.23986952 -0.021998655 0.097819954 0.11648372 -0.14895053 0.24114908 -0.5334308 -0.12842901 0.068063416 -0.040161 0.19144352 0.09217309 -0.039514124 -0.1516337 0.12225432 0.0008323094 -0.17411815 0.054884646 -0.1649038 -0.10839176 -0.26170906 0.20465106 -0.12917963
55 -0.21042918 -0.5587297 -0.0050907796 -0.041926045 0.22111088 0.06013727 -0.06534611 -0.002606115 0.31978324 -0.24269935 -0.012670049 0.108581305 0.09735178 -0.13315213 0.20333329 -0.49417076 -0.14654905 0.0959908 -0.05481695 0.18024667 0.110942096 -0.0212 -0.13045211 0.12547308 0.0008419631 -0.15269001 0.06021742 -0.15852712 -0.088875525 -0.2134742 0.16002871 -0.11542915
66 -0.18072183 -0.5558032 -0.010767331 -0.056738533 0.20062177 0.05319255 -0.07689908 0.011232074 0.3145144 -0.2376845 -0.023454541 0.09747058 0.12727687 -0.11361796 0.21678112 -0.46856594 -0.13605836 0.092449374 -0.030266073 0.19351743 0.09959125 -0.010714084 -0.13028993 0.14585568 -0.0044987574 -0.15982684 0.062073313 -0.14481987 -0.093489185 -0.245858 0.18430495 -0.11398987
111 -0.19607583 -0.52084184 -0.016730538 -0.052457448 0.2269567 0.067703605 -0.08561693 -0.0018086259 0.3049811 -0.2579984 -0.01016117 0.09291249 0.101700954 -0.1480642 0.18956077 -0.50937736 -0.14441015 0.06442256 -0.05358516 0.16494212 0.07947528 -0.026860492 -0.14147292 0.1281141 -0.015388116 -0.16026555 0.07965086 -0.1625025 -0.09049255 -0.2456759 0.18264125 -0.13643053
63 -0.17280412 -0.48869485 -0.0016053983 -0.06286749 0.22115783 0.075826935 -0.06781744 -0.001888259 0.3030479 -0.22465363 -0.017654248 0.08575615 0.12771004 -0.12171399 0.22323363 -0.5076142 -0.13735995 0.06693337 -0.0725557 0.17382139 0.099175386 -0.013914423 -0.14017773 0.15786307 -0.022818245 -0.15377848 0.06834377 -0.1618157 -0.111986555 -0.28752354 0.22742124 -0.14879428
110 -0.17342049 -0.4850171 -0.0013209163 -0.036796656 0.18667574 0.05211709 -0.055333577 -0.015420456 0.2999523 -0.2570205 -0.033762585 0.09388137 0.12880988 -0.12544529 0.2285192 -0.52944434 -0.13990201 0.07422209 -0.05522723 0.18514097 0.10872233 -0.021215806 -0.14409633 0.14608382 -0.0151354335 -0.19012462 0.06604684 -0.16247308 -0.11104635 -0.25047916 0.19437645 -0.13324685
70 -0.17354931 -0.505705 -0.02056001 -0.060694456 0.21627644 0.06423737 -0.078767985 0.007283696 0.30668765 -0.22597149 -0.03226922 0.09254521 0.10330633 -0.11788718 0.19926292 -0.49482402 -0.12758887 0.07608512 -0.062246792 0.18060444 0.09995813 -0.017194467 -0.1384746 0.1290234 -0.013950708 -0.14723147 0.06661952 -0.16961017 -0.10544541 -0.25301805 0.20467964 -0.12508895
33 -0.19362664 -0.5266522 -0.012134349 -0.03529755 0.22007987 0.0491789 -0.08149148 0.0066524106 0.30461913 -0.22954884 -0.009830336 0.08074317 0.10817343 -0.14715922 0.22950627 -0.49367416 -0.15196279 0.09290549 -0.05782928 0.16978616 0.11108837 -0.019102065 -0.1162417 0.1302766 -0.022116391 -0.15411742 0.065989956 -0.15510191 -0.08879191 -0.22236857 0.16901259 -0.10497981
163 -0.19103509 -0.5148424 -0.00061133364 -0.030710025 0.20763825 0.046372473 -0.07271766 0.008102882 0.31151873 -0.26911235 -0.020257011 0.11817173 0.09844915 -0.1277004 0.18794432 -0.48908508 -0.1371563 0.07609425 -0.048435982 0.19033119 0.12001951 -0.023885231 -0.11820822 0.12780459 0.018593632 -0.16344705 0.04083723 -0.13234419 -0.101066746 -0.22156045 0.14828458 -0.10530187
98 -0.16481365 -0.4918037 -0.007841569 -0.05027078 0.19527166 0.050550688 -0.06372939 0.0003317429 0.2903373 -0.2533978 -0.012725112 0.07366634 0.12541434 -0.13242148 0.24001153 -0.5343983 -0.130064 0.094769485 -0.06358596 0.18476677 0.0915802 -0.023669532 -0.13641068 0.15557538 -0.013982975 -0.1628294 0.07469436 -0.16849904 -0.11243332 -0.2798736 0.19372538 -0.13320945
79 -0.20016518 -0.5267131 -0.012848299 -0.053671755 0.23221667 0.05177887 -0.06511107 0.018795852 0.3125035 -0.23790395 -0.0064320946 0.07732878 0.121037535 -0.15371719 0.19493751 -0.498564 -0.12914523 0.07153771 -0.03262439 0.1802685 0.10516339 -0.03959022 -0.13841763 0.12074707 -0.003925046 -0.14471047 0.07629139 -0.14494795 -0.09934198 -0.24996045 0.17266236 -0.11161859
28 -0.21692021 -0.53335774 0.013932522 -0.045803133 0.21424386 0.08229848 -0.0663783 -0.022778401 0.30073547 -0.2546771 -0.0064820778 0.11590372 0.102685824 -0.120449156 0.21433951 -0.50435543 -0.13802363 0.063493386 -0.044028044 0.17762472 0.08966398 -0.018346753 -0.13140509 0.13865636 -0.013155713 -0.14367178 0.048806697 -0.14730215 -0.08176308 -0.22779055 0.16336682 -0.09704482
169 -0.18407996 -0.5316587 -0.025372053 -0.027955286 0.23228541 0.05118194 -0.071178086 0.004916351 0.32773685 -0.24805908 -0.0022115149 0.10709608 0.097933054 -0.13495667 0.20612109 -0.49691325 -0.15442367 0.07676865 -0.04018642 0.18766871 0.10758356 -0.033173192 -0.11296756 0.14363167 -0.002866612 -0.16243508 0.07333545 -0.14729488 -0.09034653 -0.23603252 0.17038366 -0.097979344
53 -0.18940689 -0.51850873 -0.020093273 -0.044226747 0.21803823 0.07376816 -0.08371834 -0.004217829 0.28514615 -0.24213946 -0.03158547 0.11376393 0.09746077 -0.13613202 0.20203926 -0.47638464 -0.12949003 0.09230349 -0.0490392 0.18025081 0.100530215 -0.011560662 -0.13359852 0.12601767 -0.008935638 -0.17509106 0.082077004 -0.15788214 -0.1028232 -0.25061482 0.17929678 -0.13377902
120 -0.21707657 -0.5705171 -0.036520217 -0.034153514 0.20453884 0.043129385 -0.0677181 0.022592915 0.31799126 -0.23680569 -0.012598301 0.083206885 0.113020934 -0.13729039 0.20697463 -0.48135912 -0.121226944 0.06926832 -0.046135556 0.18491964 0.09536161 -0.036524273 -0.13228253 0.13704556 -0.007988212 -0.14698665 0.061823566 -0.14991201 -0.114822306 -0.2523356 0.18722804 -0.1293817
170 -0.1660726 -0.43924698 -0.010122509 -0.035283078 0.1719214 0.060681403 -0.063876785 -0.017368568 0.29438424 -0.25098655 0.0036785302 0.08060868 0.13033505 -0.14844394 0.2312963 -0.5379702 -0.13894778 0.08204592 -0.041154277 0.17958157 0.10188679 -0.023694819 -0.13095023 0.14631326 0.0038710588 -0.17255872 0.084108606 -0.17746735 -0.115356 -0.27413243 0.19258423 -0.13087544
178 -0.1670879 -0.44924733 -0.02399936 -0.032905083 0.20435429 0.06144499 -0.07455222 -0.006786373 0.3064523 -0.22929326 0.0027837877 0.103745624 0.12864983 -0.13054699 0.22194006 -0.533307 -0.14705056 0.08386864 -0.05439455 0.18860555 0.100497484 -0.017083522 -0.14063425 0.1481256 0.015702825 -0.15899266 0.08112107 -0.15947108 -0.1116497 -0.22139406 0.18722922 -0.12616992
71 -0.19333991 -0.5216444 -0.017352728 -0.04411962 0.21082722 0.06777287 -0.0913415 -0.012657399 0.31235635 -0.23495314 -0.021273432 0.10425284 0.11613648 -0.13166453 0.20942436 -0.4970469 -0.1355097 0.0825144 -0.044863347 0.17896834 0.079734154 -0.019259838 -0.13678688 0.11992913 -0.019064087 -0.16290942 0.08118838 -0.14258055 -0.096042946 -0.24075049 0.1711752 -0.12194438
36 -0.18261808 -0.53034765 -0.0014513821 -0.054650508 0.22345838 0.04469447 -0.058004923 0.00246069 0.31554228 -0.23689876 -0.020427024 0.08165843 0.09178207 -0.12753277 0.20808448 -0.45756856 -0.14288917 0.06436623 -0.05434444 0.14474562 0.08937436 -0.011406528 -0.11962911 0.15017438 -0.0034544899 -0.15335965 0.0714 -0.16470148 -0.10242544 -0.24884251 0.184914 -0.12703194
34 -0.19886622 -0.4882948 -0.0006335726 -0.027233446 0.21610296 0.055481892 -0.05184558 -0.011382573 0.27649587 -0.23727189 -0.028593736 0.08656235 0.11672667 -0.14494762 0.22953716 -0.55933654 -0.13618807 0.09135665 -0.05365536 0.20249335 0.10293074 -0.030615719 -0.11888633 0.14862797 -0.010613627 -0.1840797 0.08257223 -0.18008976 -0.09791129 -0.23745082 0.19234103 -0.110349305
166 -0.20704608 -0.52017736 -0.017055156 -0.05329211 0.1974256 0.052416917 -0.06737477 -0.023467515 0.3011123 -0.26890138 -0.0118293725 0.08599451 0.11936136 -0.1554663 0.2386991 -0.506241 -0.14356518 0.082653105 -0.071781345 0.1720314 0.12084378 -0.031824525 -0.12277898 0.15050365 -0.01154021 -0.15961896 0.07396415 -0.15533918 -0.10724891 -0.24650076 0.16413833 -0.08431048
23 -0.19281735 -0.4897391 -0.008277293 -0.024509862 0.19344787 0.07604207 -0.082005225 0.0057284753 0.32725126 -0.2661083 -0.01875586 0.10072108 0.11064582 -0.1412054 0.21090357 -0.5016391 -0.1363494 0.08141589 -0.04114904 0.19161823 0.098524295 -0.033030152 -0.14951873 0.14066474 -0.00306949 -0.16132094 0.055554945 -0.1619746 -0.11501153 -0.23460823 0.18058395 -0.12735787
83 -0.20546524 -0.5289839 -0.014402944 -0.028841173 0.2142169 0.078188635 -0.08389594 -0.0143386 0.32600346 -0.2394536 -0.0042210445 0.11372063 0.103639506 -0.14357488 0.20998938 -0.47980177 -0.15600325 0.059400544 -0.03309095 0.1641489 0.10575791 -0.02226188 -0.14029622 0.12110859 0.024844246 -0.16604786 0.0687377 -0.15038148 -0.12247116 -0.25656006 0.16592342 -0.11912406
107 -0.18979228 -0.5233588 -0.030018996 -0.049946643 0.21905653 0.055168014 -0.06573987 0.02068426 0.3162766 -0.24911942 -0.027421664 0.088757694 0.10192929 -0.15685825 0.22034746 -0.5250906 -0.15592907 0.09286868 -0.036657467 0.19978352 0.10504794 -0.02229668 -0.12728953 0.12223623 0.0002998761 -0.14633954 0.061635498 -0.16574456 -0.09400877 -0.23860465 0.16269921 -0.09637507
61 -0.21088874 -0.5342152 -0.005237334 -0.04233097 0.21087441 0.054164656 -0.0642105 -0.015135106 0.31515512 -0.2518166 -0.024113055 0.09754145 0.10216437 -0.13567162 0.20732163 -0.49558917 -0.13182518 0.08236352 -0.060565375 0.16479658 0.07915054 -0.035417795 -0.1318647 0.10833338 -0.0032438918 -0.15675649 0.067458756 -0.14922535 -0.09143689 -0.24133919 0.15705223 -0.12411
152 -0.1856214 -0.48155013 -0.018127197 -0.05867813 0.17716685 0.0783875 -0.076959334 0.0036966878 0.28270397 -0.24753845 -0.029863708 0.09956509 0.11699209 -0.13387169 0.22699866 -0.5228651 -0.13285834 0.090565175 -0.0631757 0.19301009 0.108225904 -0.020438654 -0.13917026 0.13540293 -0.0072594266 -0.17199732 0.07601 -0.15682991 -0.091066405 -0.22878946 0.17434925 -0.123587415
59 -0.20382449 -0.51976883 -1.485017e-05 -0.06026021 0.201316 0.07663246 -0.067117445 -0.021251371 0.2987826 -0.2464756 -0.028900752 0.114088 0.114712976 -0.12745005 0.19828533 -0.502349 -0.13204153 0.07506524 -0.05125458 0.18839405 0.10940812 -0.025297843 -0.14120798 0.13139111 0.0027900976 -0.16396156 0.05700407 -0.16144691 -0.09063189 -0.24154568 0.15355752 -0.11007863
10 -0.18786475 -0.48457634 -0.0048465654 -0.03339357 0.20774105 0.08321285 -0.058960766 -0.006298553 0.31488183 -0.25829723 -0.004718272 0.10263977 0.103835866 -0.11976871 0.21557942 -0.5107202 -0.13487506 0.07731273 -0.061286073 0.17553473 0.103760384 -0.028554866 -0.14490245 0.15647653 -0.00985575 -0.17031431 0.06635379 -0.17182453 -0.11954481 -0.28820023 0.19490913 -0.1616485
150 -0.1902652 -0.535091 0.009818611 -0.046856195 0.22299014 0.06968257 -0.08254473 -0.0028097273 0.30969557 -0.26053315 -0.015611589 0.0788283 0.09856451 -0.15009645 0.21171407 -0.5193605 -0.1282391 0.09340004 -0.038571287 0.18688911 0.08353912 -0.032107513 -0.11178288 0.13360946 -0.015379643 -0.14832379 0.06574367 -0.14950287 -0.092700236 -0.21518913 0.14520073 -0.09121175
42 -0.20359816 -0.49522564 -0.021355215 -0.06447663 0.22116493 0.061615326 -0.07639709 -0.009829935 0.31463146 -0.23965281 -0.0007554966 0.09184804 0.09584762 -0.11987703 0.23422001 -0.51783293 -0.15875268 0.069026165 -0.039569147 0.18006319 0.10962686 -0.028330825 -0.1406242 0.15615061 0.00920236 -0.16554016 0.07063003 -0.15114333 -0.1076639 -0.23507464 0.18089369 -0.110683285
161 -0.19391252 -0.5244117 0.006552236 -0.020837922 0.22747429 0.070651226 -0.08565963 0.003089003 0.31870148 -0.25425628 -0.029805858 0.102601886 0.10612442 -0.12744683 0.19571361 -0.48189306 -0.15588439 0.087414086 -0.046680093 0.16809434 0.091008514 -0.021362312 -0.10921386 0.12652923 -0.018513223 -0.15688442 0.068061285 -0.15609315 -0.09724394 -0.2250931 0.16095807 -0.123147085
50 -0.20390888 -0.529049 -0.03064902 -0.038800213 0.19975308 0.058767393 -0.066111125 0.0017415757 0.30186495 -0.2280982 -0.018611241 0.09222156 0.116201796 -0.13951723 0.20730819 -0.48728943 -0.12541756 0.08535848 -0.04704351 0.1765863 0.093382105 -0.020254752 -0.12865473 0.14325267 0.00101253 -0.14251646 0.066129245 -0.14387992 -0.1031377 -0.24268772 0.17461684 -0.123046115
60 -0.16837625 -0.49633637 -0.016672904 -0.038002335 0.20035705 0.077755764 -0.06954752 0.015344272 0.30822 -0.23534016 -0.027387243 0.07939741 0.12081295 -0.12743708 0.21511441 -0.48794264 -0.14693609 0.079029776 -0.06532725 0.1656893 0.1016923 -0.045849193 -0.13831913 0.13044682 -0.016806861 -0.154293 0.08682619 -0.14636424 -0.10556812 -0.26770678 0.19652468 -0.13700469
12 -0.20071587 -0.5159514 -0.009464437 -0.04833244 0.196129 0.056764904 -0.0862682 -0.01239629 0.28712916 -0.23142388 0.0027052928 0.10611824 0.113653384 -0.13716868 0.22370899 -0.5073094 -0.16577947 0.08181009 -0.04103482 0.17473279 0.110274225 -0.019880397 -0.12779312 0.1217525 -0.021748053 -0.16937204 0.080223896 -0.16708101 -0.10256266 -0.26936296 0.19970548 -0.12825401
78 -0.20937544 -0.5308874 -0.022010254 -0.042711634 0.2230807 0.043838743 -0.06304613 -0.0052813613 0.30362418 -0.2401245 -0.02906015 0.082356624 0.11222769 -0.1525548 0.22289465 -0.5160265 -0.13677889 0.07336184 -0.041789528 0.17677243 0.09365486 -0.019584328 -0.11603036 0.15418363 -0.004339282 -0.15269074 0.06750464 -0.15156405 -0.07574247 -0.2308258 0.16194506 -0.08076023
39 -0.19719647 -0.5046532 -0.004647216 -0.03861376 0.2227792 0.07217897 -0.06132072 0.002310577 0.32295144 -0.26619285 -0.02148617 0.08404064 0.106139466 -0.14595939 0.21893133 -0.5123769 -0.15275154 0.08849043 -0.05425613 0.1854809 0.10517249 -0.017599637 -0.108619645 0.14728338 -0.022163907 -0.1514499 0.052454993 -0.1395093 -0.1019611 -0.23678833 0.17295565 -0.12113455
48 -0.20052262 -0.51950604 -0.0046209376 -0.044905234 0.17375776 0.061837953 -0.07244256 -0.022906024 0.30216008 -0.26005325 -0.031892404 0.102512196 0.11616869 -0.10446282 0.21395631 -0.49464464 -0.13840252 0.07335949 -0.04136964 0.17299841 0.10317754 -0.017842568 -0.14783186 0.121577986 0.0012489335 -0.15578121 0.051828675 -0.16425034 -0.11816212 -0.25467622 0.18340446 -0.14079107
139 -0.19355021 -0.5072588 -0.014487155 -0.04030876 0.19299375 0.06810067 -0.08398578 -0.0024563416 0.28851154 -0.23422419 -0.003970477 0.074799374 0.10309865 -0.12754934 0.21853057 -0.5027815 -0.1510504 0.06623124 -0.06619894 0.19109422 0.11112636 -0.024186699 -0.14624918 0.12714396 -0.01152069 -0.16645443 0.061830495 -0.16254549 -0.11054684 -0.26562837 0.17456512 -0.107899345
35 -0.19169623 -0.48462433 -0.0140091395 -0.0382818 0.18975641 0.07042487 -0.063788645 -0.02287973 0.2925145 -0.23494808 -0.01617946 0.11361822 0.09924585 -0.13281536 0.21481717 -0.5184818 -0.13378502 0.09089343 -0.032347642 0.17977265 0.11591172 -0.030434426 -0.13509552 0.14492708 0.0059455847 -0.16334626 0.07485132 -0.14545982 -0.11062658 -0.25192976 0.18136755 -0.12597504
68 -0.19196023 -0.44965234 0.0004434438 -0.03332219 0.20036623 0.06492951 -0.058205936 -0.012713119 0.25820127 -0.23238239 -0.019919798 0.0883828 0.11840059 -0.14853044 0.23020683 -0.5242529 -0.1621647 0.09179089 -0.06796956 0.19764602 0.10214529 -0.01693344 -0.14476424 0.15483238 -0.02242095 -0.15845434 0.063989684 -0.16949381 -0.101984404 -0.26521167 0.20376456 -0.121061124
13 -0.18933061 -0.4951678 -0.012425354 -0.058170058 0.1994443 0.07532544 -0.069758266 -0.029387806 0.3004692 -0.23003699 -0.024757884 0.07699555 0.11772959 -0.15701117 0.22660875 -0.51913834 -0.15292962 0.083342075 -0.076985806 0.17660865 0.104748175 -0.028595326 -0.15801221 0.13848689 -0.024420816 -0.15324314 0.09525572 -0.15663657 -0.093615875 -0.2519458 0.16965629 -0.11814064
148 -0.19582678 -0.4773456 0.00069061544 -0.041628893 0.19318804 0.058307674 -0.08147385 0.01488585 0.2906701 -0.22726947 -0.025060933 0.09982156 0.106744245 -0.15636483 0.22183304 -0.51648784 -0.15114851 0.08952611 -0.059192523 0.18274681 0.10859052 -0.026282074 -0.13598149 0.14369875 -0.013489534 -0.16335422 0.08772577 -0.1713207 -0.100065246 -0.25760388 0.18774337 -0.13389266
89 -0.19413127 -0.48454827 -0.013606885 -0.0523036 0.20619059 0.0733861 -0.06175902 -0.018541468 0.2844739 -0.24157637 -0.0033048764 0.10585764 0.111226484 -0.14560296 0.23701873 -0.5531132 -0.15034428 0.06997744 -0.06273234 0.17121911 0.11327225 -0.03435398 -0.12429516 0.15161732 -0.016567158 -0.16337568 0.07426969 -0.17561406 -0.117744595 -0.2520486 0.16761935 -0.12550564
25 -0.20187204 -0.50067145 -0.014449932 -0.035687402 0.19168495 0.052835125 -0.071601056 -0.005496192 0.3060152 -0.23253568 -0.013360034 0.083195046 0.10090001 -0.123594835 0.20692794 -0.50703204 -0.13205712 0.06726542 -0.04170263 0.1928489 0.10917059 -0.031193092 -0.11605606 0.13983826 -0.002426603 -0.17154294 0.06594794 -0.16246036 -0.11107199 -0.24120793 0.18367825 -0.121086225
167 -0.17245792 -0.4992898 -0.02227685 -0.044072986 0.21100017 0.05497938 -0.07273069 -0.012763061 0.31350604 -0.24283344 -0.024261912 0.09541467 0.103601284 -0.1073692 0.21751082 -0.5064412 -0.13653418 0.09849115 -0.0565319 0.18495335 0.09096709 -0.02334974 -0.12157594 0.16307066 0.008599406 -0.15353353 0.06347069 -0.15827146 -0.096853144 -0.2622382 0.19721153 -0.09357427
145 -0.19613424 -0.48945072 -0.021817124 -0.03847555 0.21233054 0.07333878 -0.089709766 0.0034116486 0.31871715 -0.24713625 -0.014469869 0.08436141 0.10808414 -0.14247362 0.20747742 -0.53174734 -0.16560937 0.07862053 -0.049400304 0.17090213 0.096352994 -0.014496207 -0.12211831 0.14666453 0.00477208 -0.15392749 0.083053716 -0.14581697 -0.08497044 -0.2351704 0.18211468 -0.1141444
135 -0.20800458 -0.53763545 -0.0064214123 -0.03205229 0.20721674 0.05052404 -0.06275135 0.0063428995 0.32169473 -0.24770233 -0.0011014831 0.1128885 0.11576454 -0.13109668 0.20770834 -0.49396858 -0.14272161 0.07212388 -0.058526788 0.17781587 0.095333084 -0.038083043 -0.119083785 0.12218991 0.010643483 -0.1553196 0.06117404 -0.14785376 -0.101317294 -0.22901338 0.15896577 -0.124367796
24 -0.19568299 -0.54960966 -0.0078526195 -0.03705984 0.23459317 0.060411453 -0.0813589 -0.0019719517 0.3189613 -0.22502048 -0.0037805082 0.09130057 0.118596196 -0.14773133 0.2053217 -0.49714515 -0.15670806 0.085101366 -0.054766424 0.17383987 0.105323575 -0.02488251 -0.13780233 0.147977 -0.0009021115 -0.13128015 0.070000276 -0.1713879 -0.10626111 -0.22402751 0.15828955 -0.12089097
21 -0.21603937 -0.52765775 -0.017719092 -0.056537617 0.21286006 0.061976526 -0.079012774 -0.006808731 0.3122515 -0.22772817 -0.0018089087 0.103304945 0.10427598 -0.1430394 0.20398487 -0.47942778 -0.13801397 0.067761034 -0.039089367 0.1721061 0.11090617 -0.02815516 -0.13127305 0.13526887 0.0028618877 -0.15923484 0.066897325 -0.14839691 -0.10695072 -0.25701153 0.18071549 -0.12449271
181 -0.2024442 -0.5227563 -0.013416626 -0.057428777 0.19606867 0.034416717 -0.059321515 -0.001593639 0.29921433 -0.24022889 0.005188084 0.105332516 0.11164593 -0.14049771 0.21926968 -0.49985045 -0.14379592 0.070721954 -0.059944704 0.1789472 0.08099633 -0.029790126 -0.113206856 0.11690455 0.015851123 -0.1395403 0.056999847 -0.15487118 -0.08120794 -0.23230547 0.1564294 -0.11017016
57 -0.20322779 -0.53628546 -0.018587662 -0.056198902 0.22778518 0.07932718 -0.08819025 -0.0019205783 0.32503736 -0.26031855 -0.015464678 0.102036245 0.11169275 -0.12249979 0.19391927 -0.49509785 -0.14230867 0.07590253 -0.04908692 0.16803493 0.08399649 -0.021003868 -0.12434283 0.12545678 -0.015242431 -0.14129128 0.058759905 -0.13561308 -0.08906815 -0.23950207 0.16121812 -0.11688393
81 -0.186263 -0.46903214 0.0059118927 -0.045272514 0.20756139 0.056274645 -0.07181541 -0.009497527 0.28596538 -0.24813977 1.849138e-05 0.08856891 0.13207369 -0.14745088 0.22771184 -0.5276256 -0.15867527 0.07582378 -0.046323042 0.19028144 0.11270339 -0.029714769 -0.15005086 0.12713039 0.0012326908 -0.13986933 0.07445187 -0.1650048 -0.10274801 -0.2487693 0.16733903 -0.11729221
17 -0.2269351 -0.5848242 0.00042516878 -0.0322775 0.21895814 0.06327828 -0.07057691 0.007700894 0.34334448 -0.24827328 -0.014010207 0.118230686 0.107230656 -0.12217669 0.1887431 -0.4584284 -0.13601603 0.060153536 -0.0607616 0.16859321 0.10048751 -0.03689051 -0.11753939 0.113861404 -0.0030064161 -0.13101837 0.061775677 -0.14711425 -0.08899415 -0.24811926 0.18057235 -0.12739982
20 -0.20668957 -0.5330799 -0.013905577 -0.024719331 0.20241138 0.04740151 -0.06125121 0.0062935315 0.31518206 -0.2681195 -0.020672984 0.094545186 0.123777285 -0.13718091 0.21024108 -0.49466062 -0.14388834 0.07722898 -0.049023885 0.1646578 0.10272532 -0.02754246 -0.112405255 0.12866773 0.0023858794 -0.15171635 0.071511604 -0.16052438 -0.0905498 -0.25006324 0.15650412 -0.11712265
174 -0.2046609 -0.49210653 0.0067611276 -0.01883957 0.19317076 0.07247501 -0.07600318 -0.019324822 0.32570428 -0.26738572 -0.0045416993 0.110585526 0.10306836 -0.12984845 0.21930732 -0.51219624 -0.13494673 0.05415585 -0.046147536 0.15586947 0.102082826 -0.023167597 -0.13768303 0.14239198 0.005001426 -0.15200202 0.07188597 -0.14782336 -0.118883006 -0.2309922 0.17139128 -0.14249058
156 -0.15869215 -0.44384795 -0.036854345 -0.03098791 0.19473104 0.061778333 -0.06404785 -0.009694641 0.28092486 -0.22137658 -0.022630543 0.100707896 0.099670514 -0.114027455 0.24354465 -0.53735006 -0.13167077 0.071618676 -0.065454505 0.20583801 0.08612339 -0.03237734 -0.1295205 0.14835365 -0.0066696745 -0.17556164 0.062638655 -0.17912869 -0.08643409 -0.25521466 0.17059746 -0.109543115
82 -0.18172905 -0.5077996 0.0032411139 -0.052209735 0.1877208 0.07422479 -0.06594078 -0.014912993 0.28667158 -0.23407376 -0.03279308 0.09481575 0.111235626 -0.13188003 0.20388298 -0.4693517 -0.14911424 0.09354225 -0.058828495 0.18091767 0.11947505 -0.027738657 -0.116177365 0.13156925 -0.01620354 -0.15959682 0.080893435 -0.15438786 -0.10824933 -0.24348526 0.18162435 -0.13089642
99 -0.16919805 -0.47260123 0.0010996024 -0.021924952 0.19665977 0.054734435 -0.06991796 -0.0040814215 0.2875269 -0.22975685 -0.026967695 0.07832934 0.1282164 -0.13210428 0.24455488 -0.5239819 -0.14482613 0.080351494 -0.066050716 0.16812533 0.12186734 -0.03212756 -0.13259517 0.15004072 -0.019155711 -0.15932265 0.07957646 -0.16618946 -0.09587903 -0.27547687 0.1924972 -0.13587509
147 -0.20340101 -0.5274999 0.0004381155 -0.030284237 0.21482079 0.06527272 -0.074374184 -0.012155758 0.3345316 -0.24048375 -0.02079379 0.09098265 0.094310775 -0.14502685 0.20316112 -0.49809012 -0.1533524 0.07582793 -0.052683476 0.16749476 0.07658334 -0.0343292 -0.12908809 0.12672168 -0.016684094 -0.13414043 0.060905945 -0.13673018 -0.09560709 -0.2503075 0.15523744 -0.10990516
134 -0.20422074 -0.5638838 -0.00886122 -0.04047481 0.23270474 0.08290937 -0.06955254 0.0040616337 0.32590792 -0.22802623 -0.020656688 0.077278934 0.094484195 -0.14162797 0.19961725 -0.47224793 -0.13267748 0.08549655 -0.06180735 0.17290701 0.097398534 -0.022450162 -0.14547022 0.12691647 -0.02158122 -0.13818371 0.05441493 -0.13256781 -0.090747096 -0.2347952 0.18210073 -0.11987468
126 -0.20832077 -0.51999855 -0.019086739 -0.026958402 0.20589057 0.0810993 -0.07998127 -0.0026993505 0.29544392 -0.25538835 -0.020998405 0.10201967 0.11132276 -0.13394947 0.22241257 -0.5075322 -0.13129212 0.07268441 -0.049579598 0.16596119 0.09493997 -0.008642997 -0.12019651 0.11827075 -0.024035132 -0.16491556 0.08660897 -0.16323599 -0.10366976 -0.25999117 0.17816547 -0.133076
18 -0.18560015 -0.5036867 -0.023345048 -0.031763665 0.21307747 0.04832643 -0.08169588 0.009612229 0.30055946 -0.221966 -0.011795699 0.09721636 0.11841596 -0.13387409 0.21754263 -0.50432247 -0.1380759 0.075795986 -0.05000381 0.1896737 0.1060509 -0.031429738 -0.10568511 0.12803175 0.0014346289 -0.13717185 0.07678631 -0.15547186 -0.08729101 -0.24023911 0.17504269 -0.11555785
153 -0.1807039 -0.47131053 0.003599513 -0.024524113 0.17941524 0.054462254 -0.08098078 -0.022628553 0.2887012 -0.2435617 -0.010874634 0.10284942 0.11940191 -0.12208369 0.23499538 -0.5177058 -0.1563403 0.06816835 -0.047317278 0.19388796 0.102630615 -0.034494314 -0.13884924 0.13370866 0.011560424 -0.16842468 0.085021056 -0.16437091 -0.09754596 -0.25850055 0.18087131 -0.13613589
44 -0.18150692 -0.5094193 -0.027021404 -0.04558678 0.2014801 0.07063975 -0.07535462 -0.008937058 0.31962007 -0.25444743 -0.022675306 0.10844174 0.10441525 -0.13285094 0.22918679 -0.50304866 -0.14504115 0.06825457 -0.055572424 0.19067694 0.09849626 -0.0075324494 -0.15127909 0.1458966 0.0052800192 -0.17281942 0.06581589 -0.1467796 -0.10392553 -0.2577381 0.1804677 -0.13767768
43 -0.21336828 -0.5361606 -0.010410451 -0.05216934 0.23480032 0.060912535 -0.06352422 0.004542067 0.30630386 -0.23784013 -0.018966118 0.089099415 0.08418149 -0.1348127 0.21661036 -0.4752441 -0.15573344 0.08486349 -0.072371714 0.15655328 0.100119516 -0.025798159 -0.120918214 0.12779245 -0.021164417 -0.12221217 0.06367222 -0.14397247 -0.10043637 -0.23536776 0.19649962 -0.09779375
146 -0.23428889 -0.5652841 0.0025206355 -0.04461937 0.2066832 0.056088895 -0.08898379 -0.0055170357 0.33418438 -0.2580316 -0.026700443 0.117669135 0.08821984 -0.12075347 0.2206323 -0.44967517 -0.13945213 0.061528794 -0.042782728 0.14577644 0.071136996 -0.027818626 -0.123542555 0.12637363 -0.014717006 -0.15492697 0.070653364 -0.1439174 -0.08858468 -0.22128549 0.1791894 -0.12694927
143 -0.17327094 -0.5244713 -0.0064526633 -0.043875657 0.21618395 0.072186306 -0.07304086 -0.024130452 0.2990137 -0.23870574 -0.035093915 0.09811562 0.11077239 -0.13413295 0.20846489 -0.47848466 -0.15041128 0.09431639 -0.03938051 0.16267407 0.091386124 -0.030146254 -0.12946287 0.14303923 -0.02775804 -0.13645037 0.0716582 -0.15252422 -0.1027692 -0.25087765 0.18622522 -0.1351931
140 -0.20503728 -0.5469704 -0.023535538 -0.03693488 0.23538382 0.0481017 -0.091940984 0.0010103339 0.33484146 -0.25691652 -0.0038503488 0.10105107 0.10969043 -0.14269584 0.20483506 -0.47287956 -0.14743428 0.09733885 -0.0493435 0.18446854 0.09497007 -0.043286096 -0.123825006 0.11698957 -0.016296932 -0.13463967 0.0682514 -0.15061407 -0.08244153 -0.22723508 0.14323916 -0.12423821
115 -0.18890356 -0.54658777 0.0059923693 -0.040808294 0.21517254 0.04987678 -0.09257231 -0.019894788 0.32070234 -0.2632169 -0.027987173 0.10643284 0.11314183 -0.13995607 0.20931745 -0.49899647 -0.1610224 0.07408862 -0.033589043 0.16797937 0.09812796 -0.01691612 -0.11624464 0.12820145 0.007167676 -0.15748906 0.048072267 -0.13854648 -0.083630286 -0.21479459 0.15059245 -0.094423026
109 -0.21253818 -0.5329535 -0.013511362 -0.03845642 0.216024 0.062504776 -0.074634485 -0.010113428 0.29054207 -0.23138379 -0.007079506 0.09277204 0.107796825 -0.1223655 0.19771804 -0.4751907 -0.14513198 0.07995454 -0.065631025 0.18583038 0.08185318 -0.014170127 -0.12247112 0.14582807 -0.019224184 -0.1528467 0.08381193 -0.17323029 -0.10756532 -0.2329768 0.17477576 -0.116752036
96 -0.1886134 -0.48689154 0.0060111964 -0.05644188 0.18763782 0.053641185 -0.08808698 -0.016907342 0.2946362 -0.22829528 -0.022007696 0.08338995 0.11329744 -0.14349265 0.23255894 -0.50626147 -0.14088604 0.092115 -0.055358525 0.18443751 0.11829083 -0.015653986 -0.13966706 0.13696481 -0.017025087 -0.14720725 0.071147256 -0.15967624 -0.11788806 -0.25055888 0.19767244 -0.13624187
123 -0.18899688 -0.47523287 0.0022321057 -0.051261533 0.21138419 0.067966685 -0.05730412 -0.014372946 0.30109808 -0.22956981 -0.0068673715 0.08680034 0.10229725 -0.1386695 0.21632649 -0.5440622 -0.14752072 0.08863946 -0.06088352 0.17107074 0.10750229 -0.022122141 -0.12447251 0.12504157 -0.01928215 -0.14852127 0.08808286 -0.16167946 -0.081639685 -0.2297972 0.16651899 -0.0984726
37 -0.17739289 -0.42931846 0.008065761 -0.018926168 0.17234123 0.056966167 -0.07010849 -0.006179371 0.30150956 -0.23698801 -0.017270053 0.112325065 0.14651366 -0.16100071 0.2326895 -0.55847305 -0.17059541 0.07968827 -0.034408696 0.18546689 0.09941259 -0.023121107 -0.12737058 0.15349592 0.008567302 -0.17870387 0.09089935 -0.17799066 -0.10168876 -0.25950244 0.19508125 -0.13876727
154 -0.19408044 -0.53036255 -0.0034178635 -0.04837889 0.2067167 0.051070496 -0.07809821 0.013128371 0.3435793 -0.25119352 -0.008474136 0.10026924 0.124905705 -0.12694445 0.22326459 -0.4968195 -0.14893404 0.06527563 -0.049400926 0.16870885 0.08755167 -0.028050996 -0.13473022 0.13178661 -0.019686941 -0.16046663 0.05875987 -0.16090143 -0.11081162 -0.24461603 0.15723762 -0.1261823
67 -0.19897372 -0.5021061 0.0022496525 -0.033161134 0.21651684 0.04808819 -0.068367645 -0.017802168 0.32952127 -0.24004027 0.00029422095 0.08811134 0.09108738 -0.1534677 0.22202581 -0.5013778 -0.13881284 0.07105138 -0.05382533 0.1616191 0.09287935 -0.038621284 -0.12036883 0.10982122 0.014356528 -0.1405634 0.07769768 -0.15572226 -0.09447339 -0.27091613 0.17199482 -0.14121313
64 -0.17990997 -0.48273966 -0.010743597 -0.026903437 0.19010174 0.070243426 -0.06362091 0.008685899 0.3170107 -0.26383546 -0.0066014538 0.09712985 0.10908901 -0.13695255 0.23020451 -0.48490673 -0.15087962 0.07330292 -0.050630867 0.18069631 0.118702896 -0.014666299 -0.151302 0.12820418 -0.0014044301 -0.16187009 0.076692216 -0.15024738 -0.10763273 -0.25646013 0.18189599 -0.15014994
112 -0.19028479 -0.53565615 0.0070629264 -0.0492473 0.20069815 0.060800225 -0.061460946 0.009359813 0.3163256 -0.25924197 -0.014379748 0.07658615 0.096374795 -0.15132724 0.22028749 -0.48576847 -0.1344241 0.08759437 -0.049195856 0.17717308 0.092446126 -0.0356535 -0.11115384 0.120092474 -0.02261665 -0.13237984 0.07296912 -0.14498669 -0.10173565 -0.25766656 0.18663375 -0.13189813
175 -0.20148228 -0.48356485 -0.0017002058 -0.039668135 0.19642591 0.054781307 -0.057138577 -0.010728975 0.31188533 -0.25257155 -0.017194362 0.109689005 0.12216533 -0.13583785 0.23355204 -0.51783705 -0.15757802 0.07687962 -0.04678536 0.1890137 0.09695494 -0.03108322 -0.13206998 0.13299058 -0.010643873 -0.17802335 0.079259865 -0.1595709 -0.09596302 -0.26079676 0.19106449 -0.14228787
168 -0.19266888 -0.49111342 -0.008936504 -0.027716063 0.1918641 0.06363284 -0.07416744 -0.025597932 0.29732388 -0.23517667 -0.026765145 0.1104671 0.12389662 -0.12797548 0.21561474 -0.528569 -0.13355914 0.082682975 -0.03719173 0.17941767 0.09053205 -0.013863658 -0.13443439 0.12499414 0.0059030284 -0.16118419 0.08423085 -0.15600593 -0.09898905 -0.2309786 0.18400533 -0.1365329
16 -0.20448965 -0.5460589 -0.018111791 -0.044370145 0.20939057 0.06153281 -0.065333344 -0.002204954 0.3152578 -0.25188842 -0.030485388 0.097663574 0.104119785 -0.12084442 0.21663429 -0.491907 -0.15074389 0.073730774 -0.06601896 0.16428986 0.09553361 -0.017989695 -0.11478541 0.117084555 -0.004045636 -0.1439312 0.07497836 -0.16458142 -0.0944933 -0.2352281 0.1478959 -0.09412962
40 -0.19897334 -0.49125895 -0.017609779 -0.041687466 0.21818103 0.0610798 -0.0773775 0.011967443 0.2880115 -0.23774958 -0.00030847354 0.0810817 0.110882975 -0.14701118 0.20691094 -0.5298477 -0.13870028 0.06505058 -0.06379091 0.17357056 0.10681629 -0.028741762 -0.107478835 0.14647058 -0.020482427 -0.15080944 0.0597482 -0.16467664 -0.09950111 -0.24809565 0.15731835 -0.1077607
151 -0.1796433 -0.5359128 -0.009323375 -0.050194692 0.22328123 0.06713 -0.07814015 -0.010627212 0.33469674 -0.2490064 0.00339726 0.10415124 0.095004536 -0.12380953 0.21335948 -0.49736932 -0.14901733 0.07147176 -0.025961883 0.1873967 0.087428905 -0.01692627 -0.12820369 0.14854686 -0.012951007 -0.15891041 0.06528515 -0.15901525 -0.08032623 -0.24940714 0.16174497 -0.12561569
128 -0.19988394 -0.5221707 -0.020528313 -0.049189553 0.2093093 0.046968408 -0.06704621 0.0032184878 0.31771308 -0.26564723 -0.026744718 0.10037061 0.11281361 -0.14638212 0.2187981 -0.50842375 -0.13409442 0.10096076 -0.040692586 0.17697123 0.09617991 -0.019663578 -0.13878283 0.12596959 -0.011857443 -0.14571056 0.08173536 -0.16640013 -0.09274571 -0.22621238 0.1478462 -0.11678465
101 -0.20048577 -0.5033267 -0.014512814 -0.023296246 0.21547514 0.051503923 -0.07181209 -0.022382155 0.3252047 -0.27196229 -0.017041005 0.104981564 0.12325307 -0.119093046 0.21724042 -0.52464163 -0.119964525 0.0798773 -0.04562343 0.17812105 0.11580513 -0.009088175 -0.13493726 0.15092462 -0.012779855 -0.15335996 0.065971024 -0.16396728 -0.106231555 -0.2419263 0.16424043 -0.12475687
47 -0.2007476 -0.5118418 -0.017427774 -0.044401564 0.20693488 0.06288319 -0.08768474 -0.0033856796 0.2953057 -0.23080015 -0.024197102 0.09667702 0.10927919 -0.14196786 0.228491 -0.47879654 -0.14659366 0.0806798 -0.049202673 0.18540114 0.092277594 -0.01607397 -0.14533359 0.13151683 0.008599438 -0.14405735 0.086665764 -0.14919642 -0.11094626 -0.25788638 0.1880656 -0.12469917
133 -0.22030039 -0.57746404 -0.010215974 -0.045339305 0.22214082 0.06813664 -0.09888126 0.011515786 0.33595228 -0.25108802 -0.01267023 0.09487259 0.09284262 -0.11904965 0.191759 -0.47804186 -0.1486635 0.0895418 -0.042768285 0.17202903 0.09783464 -0.017286208 -0.14233643 0.12493883 -0.01379531 -0.1358833 0.06397746 -0.14429356 -0.09266076 -0.21918616 0.14457121 -0.1055637
138 -0.22295398 -0.54522467 -0.026706569 -0.035863735 0.21547225 0.05869336 -0.087984845 -0.015826324 0.33738333 -0.26370484 -0.021195577 0.11256944 0.10456492 -0.13318829 0.21201949 -0.46913677 -0.13118255 0.06992667 -0.052044507 0.17406614 0.09601728 -0.02631391 -0.12557478 0.11134953 -0.0060640476 -0.15089878 0.08512801 -0.1512001 -0.07906124 -0.22162996 0.16683781 -0.10557543
84 -0.19288348 -0.46584406 0.0014928469 -0.026029201 0.20241329 0.07320089 -0.07210298 -0.0122736525 0.29609752 -0.2375738 -0.0030294303 0.09426825 0.117777735 -0.13999096 0.22050378 -0.509169 -0.1422811 0.08637613 -0.046016015 0.18719901 0.08794596 -0.019423123 -0.13450122 0.13571098 -0.008070869 -0.16537635 0.061098624 -0.14601675 -0.09350365 -0.26303378 0.1917192 -0.117574275
102 -0.1954918 -0.5410448 0.00064904365 -0.059130374 0.2203594 0.051235575 -0.084358 0.00249681 0.29747713 -0.24607266 -0.026993988 0.07984914 0.09290723 -0.15865852 0.19728583 -0.49217072 -0.15138085 0.09618451 -0.045719437 0.16705564 0.086282514 -0.034783237 -0.1320622 0.11154855 -0.018787246 -0.15261748 0.080976315 -0.15848215 -0.08032675 -0.2373857 0.176569 -0.10120576
94 -0.18264587 -0.48092064 -0.01862956 -0.026264448 0.17825174 0.05620054 -0.07966322 0.006470464 0.29474014 -0.24791592 0.008069571 0.10938636 0.108049035 -0.14576387 0.21954677 -0.51258975 -0.14794943 0.07038685 -0.06133622 0.1619542 0.12341774 -0.019600864 -0.12881315 0.15509729 0.010255112 -0.17104737 0.065455124 -0.16790366 -0.12097534 -0.26469207 0.18610378 -0.13517047
19 -0.19693568 -0.5539767 0.0047034714 -0.057507955 0.2229441 0.08249456 -0.08344653 -0.021190986 0.31737173 -0.24328598 -0.030928737 0.09716904 0.1048756 -0.12769875 0.19711581 -0.4912134 -0.14796935 0.07032071 -0.044064038 0.18805178 0.0891723 -0.034327105 -0.13129108 0.148843 -0.017129429 -0.13353087 0.06247067 -0.15324295 -0.10627507 -0.24598508 0.17729159 -0.10499568
130 -0.20833051 -0.568542 -0.0055840136 -0.03789846 0.24261811 0.070856705 -0.06686913 0.00040457933 0.34494212 -0.2681395 -0.006400286 0.10135252 0.10492835 -0.12693116 0.20808816 -0.47305873 -0.14964215 0.08707033 -0.024845313 0.16795464 0.09124964 -0.025157467 -0.13524312 0.11813001 -0.016271368 -0.13488425 0.052558962 -0.13421825 -0.09021945 -0.22845334 0.15473473 -0.12994614
27 -0.1789043 -0.51566637 -0.03370766 -0.0615034 0.20875739 0.06445878 -0.06366326 0.005138867 0.28356194 -0.22137606 -0.010160706 0.080411 0.10797548 -0.112374514 0.23114356 -0.5300896 -0.12849225 0.071701005 -0.05717588 0.16556072 0.10790865 -0.021057805 -0.12116415 0.17024809 0.007941415 -0.16529155 0.058025867 -0.15000103 -0.10411768 -0.24330477 0.18181354 -0.11377481
106 -0.1959716 -0.5411669 -0.011339418 -0.04112354 0.20346248 0.08322179 -0.07166473 -0.027324969 0.30124927 -0.2620956 -0.0050815996 0.094317354 0.081324145 -0.14126658 0.20106195 -0.50775075 -0.121878214 0.07546931 -0.063866146 0.18742678 0.0792117 -0.03520743 -0.14528745 0.124725826 -0.02911163 -0.14014307 0.06925986 -0.1770257 -0.10507189 -0.2448518 0.16743755 -0.09527976
159 -0.17114307 -0.4739395 -0.0057415063 -0.021647217 0.19288793 0.054533668 -0.06995039 -0.012685145 0.3040132 -0.23856112 -0.02166039 0.08539823 0.11226635 -0.13267022 0.2170738 -0.52717334 -0.1455343 0.094574556 -0.04430738 0.18036607 0.08832889 -0.032620173 -0.119095325 0.12528786 -0.007880652 -0.1391371 0.08644821 -0.16063437 -0.11110798 -0.25945964 0.20765534 -0.12041248
74 -0.20795001 -0.5092279 -0.02020874 -0.06345157 0.197324 0.078158505 -0.07568136 -0.0053597703 0.27247337 -0.24132147 -0.012134963 0.10256078 0.08838522 -0.11708146 0.22022699 -0.50205183 -0.12743324 0.0868397 -0.05034257 0.16220012 0.08574547 -0.018875668 -0.13940439 0.1468355 -0.028610805 -0.13292891 0.07291638 -0.1617263 -0.091225825 -0.24984856 0.20221171 -0.12282965
136 -0.18803352 -0.51139575 -0.0014031543 -0.053178128 0.21419002 0.070802346 -0.056141417 -0.0005200759 0.2932839 -0.23878455 -0.020446781 0.09701381 0.10661731 -0.13742083 0.22343197 -0.5002975 -0.14177424 0.07549213 -0.06489247 0.16127458 0.09339796 -0.016791936 -0.118508875 0.14538905 0.0030043446 -0.16652225 0.057521626 -0.16713926 -0.11257903 -0.25310984 0.18095331 -0.12939547
125 -0.18062128 -0.5037129 -0.012952002 -0.03344987 0.20202237 0.0515271 -0.07296959 -0.016436506 0.29329073 -0.26248634 -0.006841126 0.08241037 0.09964825 -0.123564035 0.2214672 -0.5148647 -0.13601363 0.068459086 -0.03434437 0.163266 0.11474337 -0.03905558 -0.13214508 0.14160463 -0.012718456 -0.16256984 0.059472896 -0.18249525 -0.12603681 -0.28952983 0.20926596 -0.13709553
100 -0.20162803 -0.5246258 -0.008862286 -0.04691672 0.2245917 0.06272175 -0.08657867 0.012785903 0.32540932 -0.24500565 -0.007864528 0.10078429 0.09689452 -0.13479537 0.18323399 -0.4467298 -0.12037162 0.06505974 -0.066910036 0.18218172 0.09458311 -0.03454673 -0.123157054 0.13009858 -0.012650205 -0.16265014 0.042999875 -0.14473882 -0.10442313 -0.23665297 0.16580473 -0.12702572
30 -0.17955872 -0.5433681 -0.024074111 -0.030825555 0.20349151 0.07604032 -0.06685362 -0.011064997 0.3143359 -0.24912643 -0.03194286 0.094584495 0.100615114 -0.1366168 0.20422138 -0.50743693 -0.13811424 0.08217482 -0.06181961 0.1921594 0.09700813 -0.026774738 -0.12080847 0.116006516 -0.0038383934 -0.1541932 0.06832572 -0.14667772 -0.104357116 -0.22053148 0.15729018 -0.114161395
116 -0.2243721 -0.54098576 -0.010845922 -0.021436378 0.22237195 0.070834026 -0.06840349 -0.0060652 0.32741743 -0.25365654 -0.010382402 0.113335975 0.10498841 -0.11647149 0.19505271 -0.48384234 -0.119393066 0.06933985 -0.036725193 0.16816401 0.11204224 -0.010887108 -0.13878593 0.11324086 0.021146663 -0.15721692 0.06182876 -0.14210624 -0.102283634 -0.22437139 0.14955243 -0.11356756
91 -0.21193275 -0.5295924 0.004958086 -0.03687308 0.21261151 0.07516134 -0.07628878 -0.0119665405 0.31869984 -0.238123 -0.012089658 0.075786136 0.1139223 -0.13784872 0.20078945 -0.4944151 -0.15484858 0.08517609 -0.055422563 0.16420698 0.100365765 -0.02108052 -0.120004155 0.13364676 -0.018386088 -0.15129507 0.07853403 -0.16195609 -0.10921172 -0.24891888 0.18119365 -0.13935646
38 -0.19015414 -0.5355911 -0.0058109444 -0.04212991 0.18805934 0.06391307 -0.07949382 -0.022792337 0.30327734 -0.25251833 -0.028220672 0.08796387 0.120306246 -0.13847288 0.20209092 -0.49123934 -0.13298121 0.096452795 -0.051571902 0.1804268 0.0798228 -0.012639422 -0.13193657 0.120726414 -0.026546419 -0.14482298 0.07755621 -0.16609867 -0.096514486 -0.24475415 0.17790624 -0.132055
65 -0.19817832 -0.5024906 -0.018142024 -0.03297206 0.21030673 0.050138906 -0.06659967 -0.0030328538 0.31963128 -0.26447847 -0.009060576 0.10651386 0.13327359 -0.13458759 0.20360851 -0.50974596 -0.13754685 0.07932314 -0.040500466 0.18922058 0.09646983 -0.041392237 -0.10553903 0.14997964 0.011313456 -0.15969375 0.06455475 -0.14858846 -0.100693114 -0.23342183 0.18283336 -0.10841301
14 -0.19340429 -0.5182584 0.0101350015 -0.037031367 0.21415468 0.06793723 -0.08066409 -0.005031486 0.29630008 -0.23778114 -0.034523588 0.0930003 0.10407937 -0.13800438 0.22119252 -0.48998708 -0.13234903 0.08637083 -0.04038097 0.16104695 0.116020955 -0.015413204 -0.12235325 0.13203786 -0.018536177 -0.14840308 0.086194254 -0.12923913 -0.10463344 -0.21547505 0.16512103 -0.107771605
131 -0.204567 -0.5210299 -0.005748517 -0.05113856 0.2228268 0.07578543 -0.05925615 -0.00022424442 0.30605045 -0.23486629 -0.019613437 0.1109471 0.100695826 -0.1434876 0.21600434 -0.51951265 -0.13210732 0.07796762 -0.04922641 0.18151148 0.10372008 -0.0141327595 -0.13520953 0.1346938 0.004105972 -0.14452367 0.07880447 -0.13791266 -0.087880865 -0.23554775 0.17647104 -0.10709041
29 -0.21606475 -0.53164274 -0.016618416 -0.04920803 0.21702945 0.05987145 -0.07499696 -0.023969302 0.29087496 -0.2349831 -0.00781295 0.11325128 0.09046187 -0.12410076 0.20246072 -0.466738 -0.153962 0.05791064 -0.044824496 0.15860999 0.10154583 -0.029943887 -0.13987766 0.124705285 -0.018904682 -0.1588702 0.07083765 -0.16500522 -0.08998556 -0.23723443 0.19320032 -0.14250234
124 -0.20324114 -0.5053969 -0.011015382 -0.033980478 0.2186077 0.053385735 -0.05457585 -0.003651288 0.30811253 -0.24057344 -0.0048737335 0.08996091 0.11511268 -0.14393455 0.21445273 -0.52601004 -0.13892336 0.079239875 -0.039559014 0.18476564 0.09996785 -0.017853595 -0.13777635 0.13160998 -0.020595832 -0.14675283 0.067865916 -0.1579059 -0.08215384 -0.22772542 0.15953158 -0.108291924
69 -0.211342 -0.5108462 -0.010323689 -0.03065699 0.20329343 0.07310027 -0.07345323 -0.0063857315 0.32322764 -0.26242992 -0.013960161 0.116925344 0.12433693 -0.13209501 0.2270084 -0.52696276 -0.16256496 0.08225233 -0.03448141 0.18522346 0.11670279 -0.015596485 -0.12946342 0.12750517 -0.008351843 -0.15522411 0.06465607 -0.16321814 -0.11623088 -0.2341636 0.16478217 -0.10688875
164 -0.17803594 -0.5045887 -0.005425146 -0.052644577 0.20420142 0.06903506 -0.089135766 -0.005003842 0.28701028 -0.24340038 -0.013600184 0.10611236 0.11215651 -0.13791168 0.20979081 -0.49786615 -0.16141255 0.08793176 -0.062256668 0.16582076 0.096271515 -0.025965417 -0.16334239 0.11061624 -0.00269033 -0.15428637 0.08813619 -0.15833075 -0.099486515 -0.267924 0.20798613 -0.1506448
158 -0.20905063 -0.5052622 -0.029621385 -0.033995856 0.19933152 0.063490056 -0.05468327 -0.004271371 0.313542 -0.26506686 -0.010732031 0.10235109 0.12535073 -0.14597385 0.21901482 -0.5291803 -0.16004655 0.09580452 -0.046904404 0.1874548 0.1000837 -0.034968734 -0.12935278 0.12824525 -0.008121452 -0.17431566 0.082260095 -0.16903731 -0.099353835 -0.24619636 0.16139999 -0.13164231
32 -0.20824078 -0.5091816 -0.03384488 -0.04620998 0.2056316 0.058191717 -0.05136887 -0.017675752 0.2835692 -0.2288358 -0.020126877 0.09338962 0.10369613 -0.13175291 0.2228958 -0.5133037 -0.13349052 0.073517635 -0.08057337 0.18818024 0.103152424 -0.012180871 -0.1444539 0.14007778 -0.013241238 -0.15195484 0.0682947 -0.1444859 -0.095666155 -0.25353387 0.16737594 -0.113931604
129 -0.20460507 -0.5034329 0.0018437807 -0.037297674 0.2135141 0.060871158 -0.08204262 -0.0011459033 0.32436433 -0.23566435 -0.00865584 0.09790114 0.1033731 -0.14168216 0.22853324 -0.5033341 -0.14665143 0.0684155 -0.041327275 0.15811674 0.112147644 -0.013648187 -0.15373795 0.1277457 0.0045552542 -0.15472879 0.0677876 -0.15482579 -0.09826887 -0.23791316 0.17775874 -0.1231978
88 -0.18900931 -0.4944523 -0.007242943 -0.031081738 0.18589948 0.049188517 -0.06778791 -0.0010617035 0.2864274 -0.26314342 -0.004857709 0.09714672 0.10605322 -0.14289096 0.25011173 -0.5426733 -0.13531019 0.06895428 -0.036362924 0.18379141 0.10923774 -0.020964112 -0.13984844 0.15408202 -0.024771942 -0.16292138 0.07579462 -0.17390853 -0.07446514 -0.22186014 0.15127745 -0.081733584
45 -0.18514535 -0.5042646 -0.01911347 -0.031965185 0.21068008 0.060885273 -0.06032668 0.005952338 0.31306517 -0.23677813 -0.02390388 0.10243617 0.12970792 -0.13782917 0.22484829 -0.5287259 -0.13444507 0.084125094 -0.046571378 0.19598871 0.1008937 -0.030709386 -0.1309434 0.13015084 -0.010168222 -0.15761636 0.06494249 -0.1675589 -0.10142912 -0.22715224 0.1712887 -0.11694679
52 -0.21617314 -0.50967145 -0.0007066579 -0.052799903 0.1911133 0.04347323 -0.053432144 -0.008335327 0.31387883 -0.25333655 -0.0017489052 0.09365096 0.10284354 -0.1278455 0.19832307 -0.50175834 -0.1281774 0.0850167 -0.05545094 0.1664344 0.105910234 -0.026616978 -0.1362326 0.1301473 -0.0020179166 -0.13695744 0.048387736 -0.13220291 -0.088512525 -0.24064776 0.16586074 -0.09522832
62 -0.17927766 -0.5019777 -0.025419936 -0.0491585 0.19704005 0.049145892 -0.08638272 -0.0015531753 0.29148692 -0.24926172 -0.008841197 0.09142141 0.11888968 -0.12795742 0.21155201 -0.5051587 -0.14261614 0.080948465 -0.04168469 0.19461434 0.105126865 -0.024640687 -0.13592628 0.14942749 -0.0043452154 -0.16158205 0.070359364 -0.17418143 -0.117490135 -0.26556715 0.18514939 -0.13290523
180 -0.19684735 -0.4952706 -0.015973048 -0.031019883 0.21745932 0.05887507 -0.068269245 -0.020356484 0.31109726 -0.2340173 -0.010697573 0.08263702 0.09748466 -0.12757464 0.20146635 -0.5314275 -0.15515168 0.09174637 -0.0647593 0.19023317 0.08988846 -0.030960552 -0.15117256 0.12851433 -0.007562571 -0.14140488 0.08298156 -0.15429156 -0.11183272 -0.2880785 0.2044347 -0.12884265
162 -0.20607762 -0.5360973 -0.013700707 -0.023592653 0.21715093 0.066473 -0.07836355 0.004234301 0.35417488 -0.25111175 -0.012770047 0.10567552 0.10783897 -0.1435776 0.21042208 -0.49796912 -0.14569865 0.07907796 -0.02695533 0.18136273 0.09437329 -0.031554736 -0.14438565 0.12886597 0.0018324374 -0.1591471 0.07304477 -0.1403294 -0.084144115 -0.2505683 0.17841296 -0.12048333
49 -0.19179201 -0.5274112 0.012480627 -0.014679143 0.21300405 0.045377124 -0.06979405 -0.013715489 0.3339292 -0.27020526 -0.0026242363 0.11523681 0.094740644 -0.13460015 0.21296981 -0.51194674 -0.14496715 0.067945085 -0.033963863 0.18175316 0.09473616 -0.024343641 -0.11637248 0.11136909 0.0070127086 -0.15535691 0.049887553 -0.16176483 -0.087637715 -0.22257133 0.13889138 -0.12268633
177 -0.20077862 -0.48536855 -0.0209312 -0.038748562 0.21277596 0.05761651 -0.076418996 -0.020656673 0.31318727 -0.2369906 -0.0103399595 0.091141656 0.116875455 -0.13736773 0.21997006 -0.51340973 -0.14386638 0.082668655 -0.07381048 0.1969192 0.090401694 -0.022298502 -0.14151393 0.13349079 0.0012086674 -0.1439795 0.06192772 -0.16408479 -0.12442607 -0.26133016 0.18504289 -0.114830784
75 -0.18663646 -0.5376836 -0.015950743 -0.052000336 0.21820621 0.07834681 -0.06749298 -0.01469718 0.3275949 -0.26593316 -0.006533433 0.09003636 0.10073231 -0.12874685 0.20402563 -0.49467805 -0.12786217 0.07818466 -0.037855223 0.18697427 0.0999727 -0.040577404 -0.15163448 0.11993441 -0.009095055 -0.17361715 0.057188928 -0.13891539 -0.104997136 -0.25404948 0.17436522 -0.116720125
54 -0.1948104 -0.49721587 0.004913999 -0.034434382 0.18987066 0.05562926 -0.06296579 -0.027416425 0.33762047 -0.27315918 -0.03180368 0.09480844 0.12645873 -0.13269632 0.22035031 -0.5306676 -0.14704707 0.072753005 -0.036747053 0.17134461 0.097705506 -0.02299686 -0.13303141 0.15511486 0.0002444938 -0.17697433 0.06394874 -0.16285415 -0.10459192 -0.23520386 0.16916236 -0.09697484
108 -0.2019426 -0.46902317 -0.021836083 -0.045863695 0.20766996 0.06316443 -0.062335666 -0.0055239736 0.29098275 -0.22821766 -0.0033426257 0.07889816 0.11073657 -0.139398 0.21472344 -0.5145203 -0.15133685 0.076130226 -0.05475464 0.19508952 0.10532588 -0.018923588 -0.13395317 0.14602117 -0.0048492886 -0.15325311 0.06614358 -0.15994382 -0.097500265 -0.25094083 0.17988177 -0.10736284
104 -0.18010607 -0.5061025 -0.008801185 -0.053657867 0.19811475 0.04772654 -0.0585321 -0.005839143 0.29977953 -0.24660255 0.000100892314 0.086613245 0.113125265 -0.118568406 0.21869487 -0.50645024 -0.14872019 0.066908196 -0.066617146 0.18444878 0.10053461 -0.02084593 -0.124129325 0.14555173 -0.00085641374 -0.15531564 0.060760655 -0.15713999 -0.08878721 -0.22826505 0.17884344 -0.10777722
179 -0.18690564 -0.44534796 -0.006501725 -0.050286476 0.18049228 0.08029028 -0.07185511 -0.016141418 0.307983 -0.26120296 -0.0126516465 0.11186645 0.11509156 -0.14569978 0.22930984 -0.51052123 -0.15051143 0.07581615 -0.05492009 0.18148819 0.0921868 -0.04230803 -0.13626085 0.1389117 0.006165882 -0.17227747 0.062049456 -0.15920365 -0.10056574 -0.25427476 0.18320516 -0.1175506
90 -0.20278828 -0.5047311 -0.00728212 -0.04785249 0.21339524 0.069349125 -0.06888256 -0.021458814 0.30474943 -0.24994282 -0.025702061 0.08561752 0.11221467 -0.13015454 0.2116923 -0.5098163 -0.150727 0.07339766 -0.051043678 0.17244744 0.113928646 -0.033240564 -0.12388666 0.12663609 -0.019701889 -0.14956018 0.07512381 -0.14320756 -0.10252949 -0.20215465 0.15659569 -0.12774982
117 -0.17233421 -0.50709236 -0.015149885 -0.04679714 0.20866553 0.05199306 -0.08409456 -0.018573621 0.29428464 -0.25301346 -0.031536233 0.09650707 0.112534426 -0.14752103 0.25332737 -0.51262516 -0.1729012 0.095233634 -0.048680983 0.17477068 0.113272004 -0.0050767427 -0.13002403 0.14406282 -0.007587186 -0.15862289 0.067336395 -0.14751895 -0.09973629 -0.22249134 0.15655883 -0.08420955
119 -0.1928091 -0.53169674 -0.022812976 -0.03917642 0.22218786 0.07363625 -0.072599076 -0.0119953025 0.30522227 -0.25924596 -0.027893858 0.08614123 0.08767231 -0.119995885 0.19493356 -0.44472918 -0.1327838 0.07981439 -0.054541215 0.16280434 0.084034435 -0.016738446 -0.12904167 0.122988105 -0.0032477693 -0.15459491 0.057674628 -0.13737585 -0.09198874 -0.21802615 0.15504953 -0.12841555
31 -0.18598762 -0.49690375 -0.00048308686 -0.030850371 0.20204967 0.04569951 -0.07334758 -0.011148839 0.3075987 -0.24404228 0.0007758215 0.11782469 0.12966046 -0.15121427 0.2082078 -0.5252862 -0.16575357 0.078889616 -0.040211625 0.18195768 0.10982046 -0.03787938 -0.14209656 0.13768424 -0.0014904144 -0.14627837 0.06915281 -0.1366609 -0.09419441 -0.23997453 0.15368803 -0.09100407
132 -0.20331877 -0.47691935 0.0002740577 -0.050352734 0.201556 0.07234118 -0.07909562 -0.0132939 0.30236736 -0.25061357 -0.018694151 0.08894402 0.11616272 -0.1262182 0.23078595 -0.50422007 -0.14976148 0.07100495 -0.05254415 0.17025575 0.092186876 -0.016719854 -0.14101179 0.14619991 -0.0075870585 -0.13941956 0.07410133 -0.16387095 -0.11226512 -0.2570424 0.18927272 -0.15005425
183 -0.19669873 -0.5009251 -0.01776424 -0.036156975 0.21120165 0.047550764 -0.05593624 0.006750065 0.3009419 -0.24841183 -0.019475162 0.0813192 0.09701404 -0.14727725 0.22998327 -0.51164556 -0.15537766 0.082811065 -0.061975576 0.17110276 0.09999484 -0.016523417 -0.13694578 0.14334014 -0.023273831 -0.15679312 0.055481605 -0.15506534 -0.093071274 -0.2492742 0.18517065 -0.11826908
86 -0.17491692 -0.5118513 0.00752681 -0.017972583 0.22025527 0.077430114 -0.067266725 -0.01840287 0.31975412 -0.23825352 -0.015905185 0.10380809 0.12067209 -0.14103627 0.23210289 -0.51084816 -0.13997412 0.093512155 -0.056742948 0.18809913 0.102011375 -0.026441708 -0.12754527 0.12293195 -0.03230762 -0.14357136 0.06444714 -0.15462424 -0.096211985 -0.2153475 0.15207464 -0.11038312
97 -0.19608401 -0.4785324 -0.013389316 -0.026823636 0.20140524 0.039314773 -0.067371644 -0.009370289 0.30817255 -0.23854844 -0.008219324 0.10526966 0.12780945 -0.124631286 0.21488038 -0.5022984 -0.1252708 0.07132306 -0.0531246 0.18504988 0.112305164 -0.035562627 -0.13430296 0.11837357 -0.003703724 -0.17410101 0.054648176 -0.16712552 -0.11909374 -0.26231983 0.19121674 -0.1164075
171 -0.18894476 -0.51467973 -0.025307054 -0.040685423 0.19601177 0.06943907 -0.06434203 0.009447024 0.29942003 -0.22966687 0.0021168862 0.091705896 0.10312414 -0.12793697 0.2079636 -0.4772254 -0.13312411 0.07892385 -0.04326534 0.16990337 0.11057581 -0.019807242 -0.13170461 0.14141405 -0.009315542 -0.13914818 0.07122552 -0.16575646 -0.09555115 -0.25379068 0.1978931 -0.112980545
157 -0.19730033 -0.5002318 -0.032041647 -0.02664146 0.19224861 0.08587511 -0.086165875 0.006281532 0.31338546 -0.2538167 -0.008883253 0.11451484 0.104136616 -0.13015383 0.20980448 -0.49341133 -0.1511019 0.08627514 -0.05552881 0.18942514 0.08821126 -0.045369912 -0.134873 0.11672496 -0.022633465 -0.14578344 0.07190408 -0.15591528 -0.09640812 -0.22530176 0.16677657 -0.10267542
122 -0.17709671 -0.48488078 -0.0021852374 -0.023979453 0.2016117 0.05233528 -0.07788607 0.00739417 0.3079567 -0.25661793 -0.009397256 0.08708968 0.11600842 -0.13937351 0.20568755 -0.4991323 -0.14523129 0.078199066 -0.049011663 0.17319053 0.0852309 -0.037454545 -0.13539663 0.12449994 -0.010918896 -0.14687234 0.06944144 -0.15124662 -0.09498836 -0.24254303 0.1510633 -0.12523128
113 -0.21149619 -0.56146693 -0.006973101 -0.050443534 0.2223889 0.07393971 -0.07284859 0.012245032 0.317055 -0.26208794 -0.023335615 0.08041521 0.100228585 -0.1251069 0.19330366 -0.47517857 -0.14180313 0.06607253 -0.058345176 0.16810495 0.10599334 -0.025266958 -0.13618827 0.15102945 -0.011683182 -0.14040856 0.049843505 -0.14972045 -0.11046778 -0.21827503 0.15825456 -0.10867842
93 -0.20992781 -0.5367664 0.0036722368 -0.043111496 0.21099551 0.07685135 -0.080190934 0.018170675 0.2993174 -0.23916239 -0.008354375 0.092103966 0.09033153 -0.13181578 0.2297474 -0.5187508 -0.13569358 0.075486235 -0.046134822 0.17698234 0.11864493 -0.028703747 -0.110757895 0.14034782 0.003709862 -0.16771962 0.07368821 -0.13795629 -0.07637897 -0.22095662 0.16403882 -0.121259734
15 -0.20279467 -0.500865 0.0030641167 -0.046346683 0.21340613 0.08345531 -0.06457647 -0.014023326 0.30046025 -0.24050516 -0.010651243 0.096977584 0.11186955 -0.13098322 0.2126993 -0.49932078 -0.16476743 0.071876355 -0.05552002 0.16613302 0.12321473 -0.020941067 -0.13033351 0.13544276 -0.025189864 -0.15073988 0.07155678 -0.15150525 -0.087031245 -0.26238608 0.1788267 -0.10901308
46 -0.2168416 -0.53040755 -0.0016588568 -0.034891516 0.22205779 0.074920416 -0.064752206 -0.0009128561 0.3029389 -0.24915676 -0.00037276628 0.10830904 0.09206985 -0.11890334 0.20540637 -0.52332187 -0.13750532 0.07711522 -0.046858825 0.19309744 0.09090145 -0.034256294 -0.14084221 0.13936917 0.0006931537 -0.17007273 0.05771202 -0.15940191 -0.08965332 -0.24112006 0.15409988 -0.09898534
173 -0.18148524 -0.4850477 0.0010953973 -0.017170934 0.19340135 0.049115032 -0.06481579 -0.001338418 0.29637423 -0.22745514 -0.0056161676 0.07626621 0.102582596 -0.12667193 0.23043336 -0.5339467 -0.15152507 0.09445328 -0.043365523 0.18754807 0.10690613 -0.031683903 -0.12425536 0.13571838 0.005709052 -0.15690869 0.0733813 -0.15258975 -0.091554426 -0.22795483 0.18589681 -0.11259512
87 -0.20039842 -0.48625275 -0.016785871 -0.03585173 0.20005694 0.0780736 -0.06863339 -0.017348874 0.3010392 -0.22404084 -0.014715255 0.09523745 0.116796084 -0.13115954 0.22335812 -0.48742488 -0.14991589 0.07944756 -0.055809658 0.17740582 0.11142328 -0.03722646 -0.14289549 0.13122234 -0.020316226 -0.1421213 0.059784852 -0.15742414 -0.10479713 -0.27196717 0.2097972 -0.12485362
182 -0.2125213 -0.57907087 -0.03625448 -0.0759463 0.22482163 0.059790425 -0.06347369 -0.018503202 0.28962824 -0.21688211 -0.023233684 0.0709388 0.08796511 -0.12259075 0.19025314 -0.46981105 -0.12690432 0.088611774 -0.052879207 0.18696587 0.078526534 -0.015447102 -0.14635234 0.11761634 -0.0030984788 -0.14259365 0.077513576 -0.1434687 -0.10289214 -0.21888015 0.1777001 -0.09537136
72 -0.19571008 -0.52641255 -0.016036393 -0.045837395 0.21678162 0.076774225 -0.083215185 -0.004437009 0.2925651 -0.23213239 -0.009056929 0.10295196 0.09349917 -0.1475442 0.21964054 -0.47713912 -0.13476102 0.095294 -0.067935534 0.173791 0.08847203 -0.021335527 -0.1314131 0.12563965 -0.005795388 -0.15056181 0.08179737 -0.15146455 -0.11189227 -0.2611309 0.17365521 -0.12827407
8 -0.18658535 -0.5132098 -0.00012585631 -0.027145447 0.19537272 0.06669324 -0.0674578 -0.010397469 0.30326977 -0.23594567 -0.022031212 0.096853934 0.103638634 -0.1381191 0.23025048 -0.5194124 -0.13482046 0.07545333 -0.029224603 0.18693025 0.10332776 -0.023109227 -0.13597801 0.11838225 -0.0107513955 -0.15180051 0.073201716 -0.15624435 -0.10515497 -0.2416964 0.1752533 -0.118286826
41 -0.19816607 -0.51247555 -0.0076788715 -0.032391988 0.21161547 0.057174534 -0.057495013 -0.0060409787 0.31232154 -0.25084588 -0.007347486 0.10440363 0.101448126 -0.12946837 0.21824385 -0.503035 -0.14222674 0.07373681 -0.044320777 0.18651469 0.10307511 -0.04083729 -0.1342234 0.13965385 0.006305308 -0.15467514 0.051627185 -0.1567191 -0.10591442 -0.2394372 0.15918581 -0.10572965
77 -0.18076432 -0.5155649 -0.0020140428 -0.032504246 0.19928633 0.06439591 -0.08952784 0.011199529 0.29355934 -0.2330819 -0.01657494 0.09448863 0.09689415 -0.12750308 0.23213154 -0.50612354 -0.13133521 0.09814358 -0.02678592 0.17885017 0.090197094 -0.010439408 -0.11960588 0.13135153 -0.0018373257 -0.14425887 0.06796561 -0.14377852 -0.09961538 -0.2311933 0.1683492 -0.12264204
127 -0.20593336 -0.5330464 -0.0023891176 -0.029023927 0.22020774 0.073881626 -0.0729884 0.00040650004 0.30459744 -0.24024434 0.0020906911 0.096199185 0.10549859 -0.1475475 0.22743087 -0.48239878 -0.12876081 0.07470909 -0.040370673 0.18595168 0.09782285 -0.03323351 -0.12156922 0.11143617 0.0015238964 -0.15836082 0.080198646 -0.14828174 -0.1050065 -0.22871931 0.1693437 -0.13184793
9 -0.21057634 -0.55950505 -0.03025063 -0.05605248 0.24433114 0.067640066 -0.072964095 0.008440858 0.3149436 -0.23008433 -0.011790676 0.09388192 0.0974406 -0.13732792 0.18815522 -0.45693272 -0.13762334 0.087204434 -0.066619925 0.16979578 0.06760202 -0.015963044 -0.10775663 0.1125319 -0.020911379 -0.13366187 0.05509945 -0.15706256 -0.099211395 -0.22644456 0.16759238 -0.10129376
22 -0.19874285 -0.5494879 -0.021503605 -0.05350431 0.21094179 0.05992829 -0.074446656 -0.021107247 0.3071657 -0.26237446 -0.016803687 0.10080098 0.108580664 -0.1371931 0.22424407 -0.47082955 -0.13688737 0.06322607 -0.039698314 0.16848017 0.108221374 -0.017339427 -0.11865807 0.12568264 -0.028580224 -0.13518658 0.06733557 -0.18233763 -0.09754917 -0.24209657 0.1788982 -0.12777847
95 -0.21803154 -0.54962105 0.007578165 -0.030650852 0.23974589 0.05258301 -0.063905485 0.023007844 0.32996932 -0.256313 -0.0054084277 0.091692045 0.093511455 -0.14086987 0.19082576 -0.4720443 -0.13031095 0.07557741 -0.031766444 0.15168284 0.08428562 -0.0040922253 -0.11122029 0.14201126 -0.008396229 -0.16673645 0.04436696 -0.13941051 -0.09671353 -0.2255978 0.15537368 -0.11219206
155 -0.22916108 -0.55765367 -0.014209248 -0.03914958 0.2108641 0.07047959 -0.08397758 -0.024606252 0.2903841 -0.23584504 -0.017561417 0.0830827 0.11147343 -0.13244718 0.22270362 -0.49196586 -0.14926426 0.075506665 -0.051569186 0.16969591 0.08248768 -0.013191894 -0.122312866 0.14220433 0.0038976194 -0.14023603 0.066998996 -0.15365858 -0.090148054 -0.21526247 0.18529175 -0.10562075
142 -0.19281027 -0.4799481 -0.027516274 -0.060905624 0.1913241 0.078813136 -0.07040171 -0.015364547 0.27391535 -0.22530393 -0.026953528 0.07998933 0.11358449 -0.14078338 0.2335446 -0.5321205 -0.14086448 0.09745717 -0.06891172 0.18151118 0.093796894 -0.021807443 -0.1459089 0.12503333 -0.009634084 -0.15452342 0.09153965 -0.16795565 -0.10097177 -0.24545717 0.18788897 -0.11223297
141 -0.20035622 -0.52538913 0.0032660873 -0.05388587 0.2205696 0.06641088 -0.05211282 -0.006924394 0.31735012 -0.27059963 -0.010797357 0.09575487 0.10586573 -0.13522549 0.21203677 -0.51281285 -0.13252868 0.08464226 -0.053005427 0.18696071 0.07819255 -0.014018436 -0.14079954 0.15127677 -0.006304303 -0.17112789 0.073567554 -0.16776939 -0.08989858 -0.21699816 0.14823669 -0.10043608
176 -0.19866718 -0.51355636 -0.010921719 -0.04891651 0.20718853 0.08862016 -0.075436376 -0.011063504 0.30088776 -0.23014137 -0.030351052 0.07521119 0.09134678 -0.12341274 0.2165198 -0.49672815 -0.13517158 0.09001553 -0.065828696 0.170307 0.08165683 -0.0066125533 -0.14248388 0.13405944 -0.0030079708 -0.14127131 0.066107444 -0.15903561 -0.11141163 -0.23474294 0.1989498 -0.14120774
144 -0.18107598 -0.49747512 -0.02288567 -0.021910742 0.22111063 0.07745035 -0.07579359 0.006517171 0.30222034 -0.22391194 -0.009457848 0.09709161 0.11445536 -0.14659318 0.24735945 -0.52806705 -0.14619231 0.101222925 -0.045344245 0.18920003 0.11199493 -0.029684458 -0.14281532 0.12831537 0.0032449623 -0.16284703 0.06282117 -0.14054935 -0.0802772 -0.25171378 0.19246677 -0.10451041
