663 32
2 -0.1648987 -0.43083873 0.07670794 0.06687252 0.110920735 -0.18525407 -0.0034479767 0.24835008 0.12707488 -0.16600531 0.019407148 0.033649907 -0.043420225 -0.13135505 0.13136205 -0.48274842 0.28157228 -0.01033941 -0.05850266 -0.12428842 -0.02272171 0.15337567 0.0038770156 0.6245606 0.041008085 -0.27375454 0.045690984 0.031976227 0.057176378 0.032255433 -0.22442435 -0.12292486
5 -0.23747322 -0.4876466 0.052974176 0.031018216 0.051318504 -0.20892029 0.036546722 0.19330747 0.12026259 -0.1432643 0.06372804 0.0041483575 -0.06271363 -0.10630067 0.13911684 -0.49951062 0.3068532 -0.020169906 -0.064140774 -0.07125532 0.03391512 0.17163105 -0.025336385 0.5035929 0.03013301 -0.16495416 0.049594987 -0.038958095 0.057681948 0.032228395 -0.24590051 -0.12546584
4 -0.224641 -0.47812277 0.024624674 0.025430547 0.03752963 -0.2012662 0.046248265 0.2311281 0.084638976 -0.15198982 0.10604454 -0.051728792 -0.15353352 -0.14537126 0.14050312 -0.55963117 0.28225857 -0.06461282 -0.03549962 -0.03530933 0.07257537 0.1802391 0.0003093772 0.5324502 0.0068615624 -0.20607461 0.013997729 0.02545955 0.068298995 -0.019442067 -0.24846923 -0.13420594
3 -0.2618741 -0.42289552 0.12989783 0.054361846 0.07469955 -0.18362843 0.0685123 0.17843266 0.13610442 -0.17063445 0.08892631 -0.07553387 -0.13394476 -0.114327736 0.15416387 -0.4916883 0.3030246 -0.020944068 -0.025941392 -0.11712351 -0.03306927 0.19448026 -0.006727599 0.56965697 0.042429645 -0.1641474 0.05784748 0.025327317 0.073205896 -0.0040262295 -0.24281387 -0.08742276
1 -0.24548902 -0.5429511 0.10524947 -0.012471566 0.058483914 -0.2814065 0.026113927 0.22953956 0.14942762 -0.14277133 0.10389316 -0.0031173192 -0.067741066 -0.20516193 0.19094945 -0.5616119 0.29056403 -0.03821345 -0.0015844166 -0.119992286 -0.0060546594 0.10263295 -0.019739227 0.44906074 0.016798425 -0.19207488 0.050400488 0.039011516 0.05664323 -0.027815642 -0.19045416 -0.058715247
0 -0.19666353 -0.55651754 0.053540904 -0.018533586 0.055384327 -0.27001342 0.032813296 0.22285438 0.13889724 -0.16148116 0.15513954 -0.040488645 -0.111241736 -0.24425766 0.16051762 -0.5080702 0.27883974 -0.06425755 -0.09560635 -0.10208104 -0.022312943 0.10644289 -0.06333389 0.4313249 -0.01819584 -0.19395298 -0.018254448 -0.011420903 -0.007991816 0.0044782795 -0.20099391 -0.10245145
320 -0.20046204 -0.42743093 0.11258829 -0.041100014 -0.0100024 -0.20008005 0.12105989 0.10927677 0.12899235 -0.08514025 0.11783323 0.002725321 -0.031578407 -0.14780357 0.121694446 -0.34344304 0.33955342 -0.090781696 -0.1750286 -0.110099174 0.042519484 0.16279677 -0.040583704 0.506693 0.120586425 -0.092056915 -0.03767123 -0.07506488 0.01637553 0.12718566 -0.319822 -0.12278413
539 -0.18972552 -0.41391742 0.09107227 -0.031487383 -0.029933438 -0.20574364 0.11534615 0.11705177 0.13102086 -0.09151924 0.12118759 0.018747676 0.035108954 -0.15687363 0.12161338 -0.33137044 0.3460838 -0.08192036 -0.15185536 -0.10766036 0.0754922 0.15977141 -0.03032788 0.49585912 0.13036875 -0.10252537 -0.04111436 -0.081928626 0.0037519145 0.15977712 -0.32782808 -0.11334814
547 -0.16908841 -0.38457942 0.107160844 -0.0108916415 -0.010864393 -0.19506203 0.1267383 0.09964516 0.120034605 -0.09719388 0.1287972 0.014668791 0.03066827 -0.13663557 0.08611101 -0.29368067 0.38073006 -0.11231171 -0.15714943 -0.1210878 0.05566037 0.18032579 -0.0442734 0.5269992 0.155922 -0.108757555 -0.04382893 -0.080119774 0.027587144 0.16510409 -0.35924262 -0.1258809
523 -0.12916349 -0.3758455 0.109287106 -0.023043323 -0.024660848 -0.17522848 0.1012239 0.08744222 0.10247442 -0.09072401 0.124387115 0.015823666 0.027138922 -0.15211917 0.08528578 -0.27105466 0.37468836 -0.119298816 -0.17308277 -0.12383651 0.058865663 0.17784074 -0.047772 0.54220265 0.14555705 -0.11898532 -0.06965362 -0.07323681 0.024781985 0.17577136 -0.35844722 -0.14759092
445 -0.20364907 -0.45836598 0.11629323 -0.02424574 -0.009684859 -0.22591726 0.100855365 0.11611072 0.11998499 -0.12469596 0.1238713 -0.0068124123 -0.019224524 -0.18353546 0.14607517 -0.38838163 0.32003012 -0.07303591 -0.12783816 -0.10632275 0.047859535 0.16008678 -0.03369389 0.4567193 0.10200893 -0.10083907 -0.031350255 -0.043494206 0.014737464 0.106553346 -0.27568263 -0.09721908
571 -0.17308648 -0.42186713 0.123605356 -0.0112570105 -0.002432672 -0.2220327 0.11162919 0.1291989 0.11713416 -0.102252804 0.11107795 0.005492737 -0.0020909973 -0.17993689 0.11525757 -0.35310313 0.36368573 -0.10418423 -0.13896197 -0.12171479 0.03516924 0.16756652 -0.020237783 0.48903623 0.1397656 -0.12581643 -0.03732732 -0.057539124 0.031717986 0.13071008 -0.3030956 -0.13298962
560 -0.18580917 -0.44258597 0.10100129 -0.052285418 -0.01269004 -0.21925326 0.12055219 0.111344844 0.13958086 -0.11632864 0.123456635 0.008747007 0.002388154 -0.17859282 0.11845406 -0.35557675 0.35520342 -0.09318853 -0.11727283 -0.13780448 0.05081015 0.16747227 -0.03457211 0.48569506 0.13828623 -0.11093034 -0.05199856 -0.05648218 0.018044988 0.109240174 -0.3027875 -0.12373011
546 -0.15756801 -0.42622113 0.11380654 -0.048693545 -0.018527899 -0.21678467 0.12448757 0.10706692 0.1177328 -0.106332034 0.10813345 0.051825475 0.027854433 -0.19004202 0.108340375 -0.28858754 0.34448636 -0.10728511 -0.1738312 -0.12438985 0.072811276 0.13992003 -0.052156173 0.47592372 0.16929914 -0.09171377 -0.05969117 -0.08700168 0.022972358 0.15986669 -0.33116615 -0.12795088
117 -0.15957174 -0.3944054 0.103627324 -0.032868218 0.011347133 -0.20226717 0.09564778 0.099479824 0.11766139 -0.112309285 0.10055072 0.018559165 0.00022834772 -0.17945792 0.11639496 -0.2771209 0.36102188 -0.1002012 -0.15733027 -0.13250059 0.065388456 0.18198802 -0.033635184 0.5300304 0.1398281 -0.12241639 -0.050176177 -0.062860325 0.007865093 0.14409274 -0.34163198 -0.11776658
553 -0.1498716 -0.400843 0.10248275 -0.015641285 -0.015296926 -0.20856932 0.11728864 0.08834978 0.14471856 -0.098552085 0.11672946 0.04577925 0.04277511 -0.16261253 0.11404172 -0.29937655 0.36486608 -0.10702616 -0.17400548 -0.13766447 0.04032038 0.15201773 -0.04508779 0.50576615 0.15452455 -0.11868127 -0.034797657 -0.08107756 -0.010849938 0.1460729 -0.32346052 -0.11212114
454 -0.15842979 -0.4416409 0.098637454 -0.008961166 0.00963684 -0.24415189 0.107520506 0.14393777 0.15963367 -0.11907708 0.12398275 0.0036971013 -0.019734526 -0.17070866 0.12907206 -0.38916257 0.3665627 -0.06822047 -0.110524036 -0.12305869 0.04218731 0.1420222 -0.050529 0.4796797 0.12844272 -0.12967509 -0.017935751 -0.041010007 0.037814304 0.10896759 -0.2870014 -0.1004397
568 -0.14538716 -0.41613835 0.11292838 -0.03770905 -0.007190745 -0.2119693 0.12100214 0.08840709 0.1234449 -0.10646737 0.11985402 0.023859596 0.031785708 -0.1787766 0.08908029 -0.28364947 0.3709111 -0.09637437 -0.14532258 -0.116558895 0.051222578 0.16085474 -0.03837934 0.5192565 0.15545833 -0.119251445 -0.07014274 -0.073241785 0.0031153858 0.14716898 -0.35134923 -0.111506574
152 -0.15715642 -0.40701032 0.11784171 -0.051633243 -0.033846147 -0.20004684 0.11433301 0.09927777 0.12982123 -0.11919076 0.11617634 0.03478822 0.0153282685 -0.1628257 0.10262956 -0.28481436 0.38730714 -0.108035095 -0.18272293 -0.12889837 0.054287363 0.16609591 -0.04856412 0.49100488 0.1713351 -0.08820849 -0.059487965 -0.081503004 0.0008194615 0.17638305 -0.3324623 -0.13153554
344 -0.15670644 -0.40751538 0.10238431 -0.050641336 -0.03554343 -0.21496646 0.14332584 0.0725954 0.12887056 -0.07589442 0.14883463 0.035414807 0.020913024 -0.16788632 0.10369459 -0.29518425 0.37362674 -0.11259421 -0.17158507 -0.13119102 0.07413451 0.16108112 -0.04267748 0.47971466 0.18594755 -0.086819984 -0.05069481 -0.090203166 -0.01034022 0.17633791 -0.33718044 -0.12178133
298 -0.16539317 -0.37237623 0.10221987 -0.014690755 -0.005266102 -0.21273044 0.13834432 0.094124794 0.101859726 -0.076792 0.12670197 0.011292305 0.023450999 -0.16017944 0.108422324 -0.29992986 0.40311205 -0.088895835 -0.15408102 -0.1282445 0.06105567 0.15424402 -0.020557486 0.51660985 0.14811218 -0.115030676 -0.05590543 -0.07731168 0.024840662 0.16043906 -0.3429422 -0.13281721
256 -0.1516064 -0.36413658 0.09945605 -0.028877264 -0.0057158167 -0.20360547 0.13572654 0.09965266 0.110804096 -0.082309365 0.1371418 0.020279853 0.023273598 -0.16028194 0.106823415 -0.30192703 0.39521733 -0.11882867 -0.15091504 -0.12622643 0.057647344 0.16537406 -0.014759724 0.5054708 0.14778003 -0.10636618 -0.068045996 -0.062458526 0.028071053 0.16940261 -0.35014817 -0.11873484
252 -0.1715043 -0.40503863 0.10326439 -0.020998396 -0.0054666917 -0.20908923 0.11036289 0.12669812 0.1351796 -0.10498862 0.114702515 0.0062497077 -0.0016901505 -0.16543706 0.12035274 -0.32100797 0.36547968 -0.09328774 -0.15076914 -0.113074705 0.07565025 0.15726832 -0.013315295 0.47535527 0.14216514 -0.10752834 -0.04663219 -0.0496593 0.010565415 0.13139905 -0.32217783 -0.13683978
42 -0.17857888 -0.3895306 0.09454442 -0.043883644 -0.010091417 -0.21917944 0.117570624 0.11278319 0.12966904 -0.08559628 0.13662456 0.015423502 0.009947795 -0.15336546 0.11557896 -0.30905086 0.34744745 -0.1064632 -0.14600217 -0.12284862 0.06684316 0.15357068 -0.037680842 0.51137406 0.16366711 -0.11924979 -0.059246127 -0.06303903 -0.0041332263 0.16302611 -0.3253759 -0.11180021
614 -0.13634348 -0.3884896 0.10967701 -0.02993711 -0.011098327 -0.20864516 0.12873907 0.10088204 0.101916365 -0.111170195 0.13131474 0.019463575 -0.016481068 -0.13793725 0.09858798 -0.29925853 0.37859857 -0.12385876 -0.1652248 -0.118437804 0.039656244 0.1557418 -0.02602714 0.53792155 0.15149744 -0.13260514 -0.04986321 -0.068907134 0.006896393 0.13854788 -0.31509295 -0.112296574
637 -0.19762586 -0.45178565 0.09095445 -0.007412046 0.00901701 -0.20333172 0.10692276 0.12175812 0.1318782 -0.12377927 0.10533769 0.008482076 -0.023055382 -0.16143689 0.12769432 -0.37493506 0.31768823 -0.090139754 -0.108966805 -0.12416309 0.049673487 0.15674128 -0.02498693 0.48744836 0.10341206 -0.10181111 -0.030076817 -0.04175832 0.028224641 0.12558523 -0.3106366 -0.10709554
140 -0.17163219 -0.41500512 0.093999475 -0.027970534 0.008624105 -0.22421455 0.092083834 0.08303192 0.14178029 -0.11746283 0.12057918 0.0066448534 0.0054294183 -0.16438943 0.100511596 -0.30276155 0.35790813 -0.0624033 -0.1494334 -0.105773784 0.040128727 0.16472545 -0.04290073 0.50799274 0.108930185 -0.09699968 -0.018970795 -0.07318206 0.0207972 0.13406546 -0.3435647 -0.13501534
288 -0.18594807 -0.42143506 0.1209892 -0.040586375 -0.021793256 -0.22498733 0.13927573 0.102992035 0.13333991 -0.11721925 0.12845305 0.016974535 0.03759178 -0.14767893 0.1257934 -0.32420278 0.33084115 -0.08901422 -0.15156503 -0.13056128 0.073664434 0.14057027 -0.02312962 0.47813225 0.15527636 -0.07507427 -0.0459599 -0.087386325 0.004968413 0.16083425 -0.3268356 -0.10318355
194 -0.16166107 -0.40934667 0.100462414 -0.042892348 -0.024356138 -0.19999403 0.10806151 0.10228658 0.13606167 -0.112085365 0.12261013 0.014868806 0.029671999 -0.17395253 0.119087756 -0.3262663 0.3875659 -0.09993904 -0.15477125 -0.13478608 0.06892146 0.1533965 -0.05139538 0.47820544 0.14782009 -0.084631704 -0.048974056 -0.09278263 0.01841786 0.14823346 -0.3271469 -0.11309295
416 -0.15014572 -0.3745998 0.100222826 -0.0047382135 0.024012625 -0.17967458 0.10654556 0.117583565 0.10966755 -0.092186645 0.10996513 0.017827215 -0.011386463 -0.14753889 0.12487214 -0.3552408 0.38327095 -0.10225018 -0.15628242 -0.10832275 0.03992621 0.16529764 -0.023772182 0.52510357 0.1314203 -0.11432305 -0.039264165 -0.046605423 0.024989424 0.13589586 -0.3230473 -0.12973109
574 -0.1732045 -0.4239575 0.123158105 -0.038808085 -0.02657199 -0.20486099 0.113938786 0.08625145 0.14834744 -0.11154857 0.11230052 0.005491841 0.0129121775 -0.17274992 0.09657982 -0.32956058 0.3504623 -0.09655724 -0.16688791 -0.12949283 0.053267665 0.16764535 -0.04935371 0.4983002 0.16516508 -0.083482504 -0.044419996 -0.0874645 -0.0057919626 0.16697437 -0.32532138 -0.10652375
427 -0.17088021 -0.43816173 0.10787837 -0.02663512 -0.020697786 -0.23182689 0.13584714 0.082264185 0.12472314 -0.10944682 0.13173184 0.013095826 0.03023447 -0.17217544 0.1139856 -0.29083708 0.35091823 -0.09176179 -0.1710486 -0.10649332 0.058764037 0.158506 -0.034216948 0.478883 0.15787494 -0.07779279 -0.05690834 -0.080393 0.0033681537 0.17059639 -0.34508142 -0.11891026
273 -0.18155502 -0.43715698 0.10980557 -0.019634843 0.008357297 -0.22182074 0.11777789 0.13229199 0.1374468 -0.11544804 0.13364136 0.011747377 -0.009847945 -0.1911919 0.1242194 -0.36560616 0.32787707 -0.0887752 -0.14649312 -0.13348825 0.027057353 0.1441441 -0.036117975 0.46361238 0.109878175 -0.112291306 -0.037935983 -0.052627143 0.034198154 0.12851177 -0.30680916 -0.091994435
662 -0.1853529 -0.4134217 0.122217976 -0.030470854 -0.008819887 -0.20434819 0.14100899 0.08327753 0.12158818 -0.107912265 0.1402701 0.014702076 0.016275674 -0.17477316 0.11076047 -0.30742228 0.35005644 -0.09477176 -0.16474052 -0.097754344 0.077021934 0.16578941 -0.03416301 0.47517604 0.18103056 -0.068992265 -0.05829785 -0.09473031 0.011519577 0.16823433 -0.3280529 -0.11259485
419 -0.15854536 -0.42672852 0.11560312 -0.037024874 0.0036525896 -0.21610633 0.09367882 0.13267685 0.13967128 -0.11414824 0.104021326 0.0020768007 -0.008290799 -0.16158493 0.14318553 -0.34125873 0.37152264 -0.09327929 -0.1334138 -0.11002567 0.053120058 0.1770107 -0.037532914 0.5015417 0.12979059 -0.12317354 -0.033898335 -0.059027925 0.007549252 0.11970184 -0.29687843 -0.10855462
604 -0.1862877 -0.39144853 0.117876954 -0.02975884 -0.025809491 -0.20434704 0.10204306 0.11770715 0.111461505 -0.09910389 0.11267104 0.0005110693 -0.009348722 -0.15911992 0.106575646 -0.3050597 0.37821126 -0.10152592 -0.16320546 -0.110956274 0.07090661 0.16139896 -0.043352064 0.52978826 0.14560041 -0.1271016 -0.036718592 -0.06449444 0.030947376 0.13803199 -0.32316536 -0.1388564
648 -0.17643194 -0.4194665 0.10948283 -0.043963086 -0.012997647 -0.2172397 0.11155509 0.09865756 0.12478986 -0.12148473 0.13516316 0.00031932225 -0.0124219395 -0.18255977 0.10708254 -0.3230288 0.34904027 -0.1041976 -0.13533632 -0.11254983 0.05690856 0.15570255 -0.044505946 0.50333875 0.13190609 -0.11866609 -0.027143344 -0.077624284 0.010455412 0.12918705 -0.3119948 -0.12048251
44 -0.16380182 -0.4166629 0.107895315 -0.048754506 -0.015018497 -0.22137025 0.11242546 0.10444953 0.13355108 -0.10287987 0.13752678 0.014299788 0.007878636 -0.16700414 0.13004977 -0.31869367 0.34479177 -0.10480352 -0.14342873 -0.11814301 0.048393782 0.1717402 -0.048339307 0.50522214 0.16607676 -0.0949377 -0.02541031 -0.06346806 0.035306484 0.15155463 -0.33414072 -0.1326031
67 -0.18064632 -0.37084836 0.09991332 0.00033412842 0.02665266 -0.18515348 0.09145131 0.09928928 0.13002273 -0.104007885 0.11844925 -0.017753055 -0.026655039 -0.16273703 0.11687524 -0.35856867 0.37540188 -0.0946181 -0.14336625 -0.123142295 0.03921848 0.16623415 -0.029637976 0.5323675 0.13161623 -0.11985104 -0.013847576 -0.058034148 0.027434804 0.11562999 -0.3263473 -0.13145593
215 -0.15090454 -0.4113424 0.12497875 -0.039385576 -0.009706314 -0.23016815 0.13113515 0.098985955 0.16035497 -0.094132476 0.14531764 0.03523438 0.011600405 -0.16993023 0.12774763 -0.3143828 0.36705548 -0.11527326 -0.15431117 -0.13882686 0.04190704 0.1509854 -0.042497136 0.50048625 0.16173837 -0.104395226 -0.0371396 -0.06518707 0.002912859 0.15547974 -0.31035143 -0.120877646
198 -0.1616743 -0.40193677 0.10835339 -0.032692906 -0.026834676 -0.20291325 0.09903965 0.08826652 0.13698159 -0.09198045 0.10037764 0.017999675 0.030038284 -0.14154576 0.0997614 -0.29234657 0.36674562 -0.09650071 -0.156478 -0.11675432 0.06109096 0.16714357 -0.04396877 0.5140886 0.14313939 -0.09464324 -0.036705595 -0.09189344 0.00269435 0.16637243 -0.33718383 -0.13427007
644 -0.16247347 -0.38581747 0.103268184 -0.032227688 -0.0006726005 -0.19000478 0.11698645 0.10879036 0.10950102 -0.09119793 0.111038916 0.006533834 0.008995193 -0.14484075 0.09959468 -0.2797407 0.38162127 -0.09944275 -0.18723622 -0.12864485 0.05677708 0.16936621 -0.051353395 0.5380189 0.1408349 -0.08299178 -0.046547107 -0.08830639 0.018288275 0.15582459 -0.35549542 -0.14322451
269 -0.1824581 -0.4222329 0.11091039 -0.028460909 -4.0139712e-05 -0.21418892 0.096919544 0.12683907 0.12262578 -0.10669007 0.10594269 0.015682235 -0.00035250874 -0.14958936 0.112744905 -0.36091942 0.3470624 -0.087420374 -0.1378719 -0.10291963 0.055460636 0.1474404 -0.030101694 0.50134915 0.124476336 -0.094558515 -0.028540809 -0.059874307 0.030695148 0.12911409 -0.30054894 -0.11890828
310 -0.17823718 -0.41245118 0.099324614 -0.060447104 -0.025443934 -0.2104086 0.1304795 0.04933359 0.11772765 -0.0847965 0.14079034 0.020459183 0.051319897 -0.14854105 0.08680115 -0.2748825 0.36502856 -0.109348886 -0.18205552 -0.13049752 0.07222121 0.18003024 -0.039823778 0.48400435 0.19075613 -0.08197198 -0.07120009 -0.10112695 -0.01925909 0.1754281 -0.34201008 -0.11307332
388 -0.1725877 -0.39937943 0.077932276 -0.018389104 0.014156691 -0.20571223 0.08192587 0.12204435 0.10703 -0.1000558 0.12357898 -0.004196948 0.008320627 -0.15754761 0.12521131 -0.3354297 0.3511546 -0.103517495 -0.12443298 -0.13350226 0.052680608 0.16745673 -0.020840432 0.5264235 0.11685049 -0.115607165 -0.019511687 -0.061049167 0.01870238 0.10794515 -0.30547956 -0.11145074
636 -0.18417601 -0.41690707 0.08932822 -0.013085121 -0.017130807 -0.20061019 0.08339801 0.1050773 0.116057195 -0.101517215 0.1202353 0.021660345 0.002972641 -0.16173023 0.101116866 -0.35563946 0.34511524 -0.09276004 -0.15271524 -0.10977905 0.0676843 0.16321777 -0.020170804 0.5172401 0.14110288 -0.11184199 -0.018645795 -0.056953873 0.019713594 0.1362641 -0.3310214 -0.14172915
646 -0.16829588 -0.3951457 0.104553774 -0.025814202 -0.0073945806 -0.21977092 0.10740799 0.09400807 0.13123868 -0.09846793 0.11609989 0.019055746 0.019523362 -0.14162415 0.11201424 -0.29480037 0.36799294 -0.08385502 -0.16225731 -0.12899993 0.077925585 0.14968252 -0.022643901 0.50525486 0.15854394 -0.09452953 -0.050831765 -0.07938912 0.013106708 0.1636926 -0.34993154 -0.13811575
356 -0.16880825 -0.40203303 0.12593164 -0.017452212 -0.01107397 -0.1889031 0.10501414 0.11148157 0.13004912 -0.102409974 0.11770343 0.0036713795 -0.005352753 -0.14942573 0.12851723 -0.30307972 0.35636103 -0.08191991 -0.15025675 -0.1172782 0.0609703 0.1587499 -0.047866285 0.5162112 0.14821087 -0.11254084 -0.031497203 -0.058290754 0.023782823 0.12574044 -0.331645 -0.13349167
40 -0.17340505 -0.3932873 0.09509514 -0.024908591 0.0035987876 -0.20430747 0.09989876 0.10976841 0.120865576 -0.1117534 0.11450322 0.020843795 0.02491264 -0.18095428 0.084983826 -0.29637584 0.36172414 -0.10242361 -0.18018259 -0.14037865 0.06373351 0.16627511 -0.026444925 0.51596195 0.15127707 -0.10581072 -0.056382976 -0.08664547 -0.012729874 0.15828782 -0.3364742 -0.13150825
217 -0.17729606 -0.38845614 0.087258704 -0.035448264 -0.02714515 -0.2117541 0.116258554 0.066804424 0.11649643 -0.09261587 0.119517975 -0.011756154 0.022867788 -0.16226423 0.10062078 -0.29909053 0.36767673 -0.09211085 -0.17540814 -0.13676646 0.059204265 0.17093882 -0.0542856 0.51347643 0.14683306 -0.09879892 -0.06292322 -0.087632634 0.009464893 0.1568542 -0.35405958 -0.12385088
483 -0.16712035 -0.38816345 0.08574236 -0.012531732 0.021958534 -0.1979614 0.09337757 0.10187856 0.13009526 -0.12527816 0.12123283 0.012819518 0.0026876265 -0.14059602 0.11235393 -0.3320782 0.3609206 -0.07914692 -0.14797994 -0.11780318 0.04404127 0.18183574 -0.028514635 0.53568995 0.13600169 -0.1310099 -0.038647767 -0.06307232 0.030769601 0.10725087 -0.32699248 -0.11900663
290 -0.18905361 -0.44468504 0.10637484 -0.025381662 -0.007727433 -0.2190245 0.11853222 0.117652565 0.15073381 -0.120256156 0.15354396 0.0016050288 -0.0078148395 -0.17787912 0.13139604 -0.3554776 0.32776496 -0.10514597 -0.15068297 -0.13080493 0.037359487 0.17292644 -0.036048606 0.45699742 0.14071627 -0.10615198 -0.04628649 -0.06009314 0.011058991 0.11666639 -0.3043038 -0.12162597
193 -0.15090254 -0.41223153 0.13614835 -0.038608596 -0.057680584 -0.22712219 0.15514497 0.09339134 0.14118075 -0.10641969 0.13102391 0.028283156 0.054284245 -0.20077436 0.10301803 -0.28203037 0.36291498 -0.13058048 -0.19635855 -0.14133608 0.06737393 0.14779896 -0.035122197 0.4610657 0.18332206 -0.06331351 -0.0632305 -0.09090742 -0.0012120944 0.20520915 -0.340627 -0.106033474
174 -0.17988059 -0.404156 0.12513441 -0.02145177 -0.022339595 -0.2184778 0.12771058 0.09318281 0.15319796 -0.1292618 0.1367177 0.028875252 0.012516682 -0.1696352 0.12451135 -0.3396329 0.35129791 -0.08979755 -0.13979489 -0.13157031 0.06192066 0.14512652 -0.029819274 0.47850978 0.13417369 -0.07780093 -0.043619264 -0.046071008 0.006047398 0.14301835 -0.31268087 -0.118016005
96 -0.14766316 -0.4004203 0.12908262 -0.054381896 -0.033185396 -0.22050484 0.11945402 0.055202138 0.14436458 -0.094141 0.10224648 0.022496885 0.044537906 -0.15723795 0.098685786 -0.23860548 0.3935025 -0.09185938 -0.20596965 -0.12496585 0.07634113 0.17945006 -0.049022093 0.49663395 0.1704604 -0.060021896 -0.07048688 -0.10883394 -0.01964474 0.197123 -0.34220555 -0.13037397
559 -0.197064 -0.44009113 0.10155242 -0.039227065 -0.0075478614 -0.20499966 0.11355021 0.116216 0.1311121 -0.09741308 0.11139056 0.025474165 -0.009948473 -0.17390102 0.09083006 -0.3352687 0.35675657 -0.08842774 -0.13933797 -0.103464015 0.066545755 0.15424821 -0.025211215 0.4691383 0.13863897 -0.115383334 -0.051819973 -0.054517888 -0.0077332812 0.12501542 -0.31805164 -0.10353532
612 -0.16713403 -0.38639045 0.1384033 -0.031154476 -0.025047585 -0.221463 0.14293158 0.07803772 0.13074785 -0.08282271 0.12045005 0.06729762 0.07917373 -0.1528569 0.118088305 -0.25852183 0.38275006 -0.08732469 -0.15166879 -0.13757806 0.061919484 0.13527228 -0.01798531 0.4902211 0.19784011 -0.08019208 -0.055759527 -0.07053109 0.022780826 0.18484233 -0.33834273 -0.11094065
365 -0.16557959 -0.42416403 0.11587352 -0.058165774 -0.021064358 -0.20278257 0.14895007 0.109178685 0.13288853 -0.09651898 0.12406765 0.02986905 0.028354505 -0.1784303 0.13957027 -0.31306738 0.37057215 -0.10246952 -0.16494581 -0.11467392 0.07662277 0.18218547 -0.037165012 0.48439035 0.15403138 -0.084068835 -0.061051745 -0.083507985 -0.0076017594 0.16324347 -0.3112643 -0.12470481
570 -0.17935799 -0.41875333 0.1498015 -0.036873627 -0.01825054 -0.22422701 0.1474398 0.09503647 0.14959301 -0.09108418 0.13823119 0.0021232995 0.021759333 -0.16699617 0.13359042 -0.3038262 0.34633324 -0.10594382 -0.14884178 -0.14336096 0.05805139 0.1770195 -0.054631393 0.47982946 0.17329215 -0.070355 -0.041064557 -0.06499232 0.015212292 0.16485962 -0.30863532 -0.10827458
426 -0.18800563 -0.39052087 0.122026384 -0.007555646 -0.010526464 -0.21639687 0.12010035 0.08715406 0.13938242 -0.10038167 0.102203205 0.033556476 0.015607617 -0.1430398 0.1169533 -0.29211798 0.38894105 -0.08849263 -0.14264518 -0.1181943 0.06925866 0.16464995 -0.04688707 0.5483858 0.15469831 -0.10119878 -0.022284491 -0.061359167 0.010030205 0.16221598 -0.33659223 -0.09710352
562 -0.1700018 -0.4201042 0.106654145 -0.03943874 -0.021725712 -0.20658953 0.12355481 0.07411854 0.12510218 -0.08029207 0.11792854 0.0008452273 -0.004542827 -0.16828996 0.12018427 -0.30283105 0.33996052 -0.098434776 -0.18685892 -0.10795216 0.062078293 0.16144091 -0.039466072 0.4896974 0.15322037 -0.09216291 -0.04785208 -0.094460666 -0.003990288 0.15726739 -0.33513492 -0.12649688
566 -0.1767271 -0.46429145 0.14146589 -0.06890077 -0.018204631 -0.22710778 0.1277085 0.109202825 0.14927 -0.09539802 0.12062696 0.013571528 0.019012785 -0.17928648 0.13501772 -0.3422142 0.34114656 -0.09070099 -0.14048265 -0.1022434 0.05681867 0.1510315 -0.039802622 0.44669133 0.14543848 -0.075306036 -0.049989354 -0.06137935 -0.011009244 0.15416452 -0.29444006 -0.10582234
92 -0.18566093 -0.4229211 0.087254785 -0.039192807 -0.0055578193 -0.2148345 0.12122732 0.106180474 0.131412 -0.09315177 0.12102698 0.015852321 0.0020504699 -0.15141147 0.12708518 -0.3432302 0.35753575 -0.10361092 -0.14964207 -0.12989447 0.053310018 0.1521429 -0.038188823 0.4756761 0.14561695 -0.10429815 -0.03774062 -0.049279664 0.022728402 0.14333227 -0.32054737 -0.12296502
95 -0.19666341 -0.41080016 0.11387026 -0.02080824 0.012957558 -0.20318934 0.107760414 0.12954523 0.12279808 -0.10857891 0.11277656 -0.008354649 -0.019889439 -0.14829938 0.10402261 -0.32118195 0.35189512 -0.086567014 -0.12546195 -0.12720929 0.055202477 0.18522081 -0.031631093 0.5229337 0.12832582 -0.12507102 -0.038357385 -0.06067172 0.012312419 0.11538624 -0.31617472 -0.11271268
379 -0.16855095 -0.38648102 0.11253808 -0.04332981 0.00388825 -0.21166518 0.11167281 0.119178355 0.12515545 -0.10454689 0.12411935 0.045643885 0.018561859 -0.16668788 0.11181957 -0.33097348 0.35296497 -0.095324926 -0.13641244 -0.14458257 0.034148946 0.15704514 -0.038854785 0.49638125 0.13747823 -0.120128065 -0.04123308 -0.041883145 0.013416577 0.1424806 -0.2958494 -0.112988025
652 -0.15653862 -0.4220357 0.12540627 -0.031520247 -0.021392226 -0.24388151 0.13405399 0.09098641 0.12569277 -0.116759144 0.10279729 0.03084344 0.020356363 -0.15874396 0.10606639 -0.32007533 0.35767296 -0.07262894 -0.15225028 -0.112518474 0.070707485 0.1515805 -0.033941805 0.49007952 0.15381323 -0.087469436 -0.045089234 -0.061986662 0.012373514 0.13430512 -0.326907 -0.10415958
634 -0.17304108 -0.4304858 0.109853454 -0.030944586 -0.021388313 -0.20618123 0.1177403 0.08622197 0.1286736 -0.08988183 0.130057 0.0005869575 0.003973411 -0.15864047 0.110471494 -0.3242117 0.35830113 -0.113097675 -0.1372994 -0.11780303 0.046439905 0.15761024 -0.034437757 0.481363 0.1290018 -0.09626548 -0.029825572 -0.055528685 0.01665215 0.14816386 -0.3294416 -0.103816755
352 -0.19402976 -0.42923996 0.114207186 -0.033019178 -0.017581267 -0.18948573 0.11413472 0.09950456 0.13722111 -0.101396084 0.1093982 0.016079973 0.015827714 -0.15780762 0.10665406 -0.30215988 0.35975447 -0.08469448 -0.1662254 -0.116881765 0.042841837 0.17902657 -0.034657404 0.49201137 0.16036642 -0.10327053 -0.044089664 -0.08079953 0.010955507 0.1715421 -0.3319793 -0.11402146
350 -0.16118534 -0.41964248 0.13303414 -0.03321009 -0.013480771 -0.22096936 0.13179198 0.12639211 0.10848358 -0.120983675 0.13097088 0.030951772 0.014734442 -0.17639983 0.11563486 -0.35469782 0.3611449 -0.094402835 -0.13537227 -0.1277372 0.051569033 0.14350863 -0.014121832 0.4981137 0.13872555 -0.11552729 -0.042128563 -0.033689942 0.011357115 0.11911714 -0.30347756 -0.112789616
532 -0.18871821 -0.40131798 0.10680798 -0.039234653 -0.03665777 -0.21456407 0.12520015 0.071861774 0.14458656 -0.09887909 0.109634735 0.009022758 0.024924453 -0.15524454 0.095823266 -0.28877583 0.34317386 -0.11801939 -0.17688176 -0.13718164 0.06613979 0.18997374 -0.04317101 0.49392113 0.1849613 -0.09086317 -0.037010487 -0.10065385 -0.020588715 0.18744388 -0.350694 -0.1110744
468 -0.15484904 -0.4223693 0.09900172 -0.04907667 -0.0056391037 -0.2320544 0.13059485 0.103370786 0.13181531 -0.09661742 0.116146885 0.046883464 0.020990467 -0.15415841 0.12921603 -0.3333038 0.35878015 -0.11145463 -0.14465898 -0.12333206 0.06680904 0.1657293 -0.024448598 0.46976638 0.1541991 -0.111153424 -0.06328815 -0.06267914 0.016975755 0.15282999 -0.32653338 -0.115927316
444 -0.18821116 -0.4218563 0.104450785 -0.042888626 -0.037671853 -0.19041559 0.15638831 0.09658484 0.12924497 -0.088182904 0.12574314 0.019241204 0.008195811 -0.1631583 0.110202715 -0.29764378 0.36174414 -0.1122815 -0.18448934 -0.13135791 0.08703416 0.18582676 -0.06116596 0.47903228 0.15305261 -0.07625545 -0.065766156 -0.08008543 0.014750001 0.16839656 -0.32466888 -0.11864407
101 -0.17107393 -0.38644946 0.08827453 -0.017795648 0.0019025177 -0.21413435 0.09300396 0.09167934 0.12055148 -0.11054189 0.10768937 0.009966815 0.017108724 -0.14590052 0.094569944 -0.3087991 0.38285968 -0.092786744 -0.14209346 -0.11814875 0.06602268 0.16577514 -0.042260155 0.53087837 0.14109437 -0.10242308 -0.042323817 -0.07585936 0.0037676257 0.14320545 -0.34905592 -0.121180564
98 -0.16071728 -0.3798645 0.08727035 -0.023746414 0.006282867 -0.20085827 0.10261158 0.10679856 0.11383697 -0.10389048 0.119251214 -0.011836465 0.009512755 -0.14044097 0.11961023 -0.3148297 0.37942377 -0.095785394 -0.14959349 -0.123994075 0.036957882 0.17605032 -0.027042627 0.54552764 0.11181904 -0.119384706 -0.031422313 -0.065967925 0.013666462 0.11386172 -0.3189199 -0.12600422
13 -0.14199209 -0.3722285 0.13305402 -0.06098851 -0.04553567 -0.2145315 0.15123232 0.031950537 0.13607864 -0.065604806 0.12201914 0.0209253 0.0708032 -0.17009085 0.09257421 -0.23190756 0.38081673 -0.13178042 -0.20570494 -0.15418403 0.102448866 0.16546717 -0.05494353 0.5073815 0.20106323 -0.06977392 -0.05345866 -0.09406909 -0.005853902 0.21546738 -0.3789075 -0.13778776
59 -0.18005165 -0.4074319 0.12766029 -0.032422483 -0.016257199 -0.1835359 0.116252676 0.08490878 0.1288058 -0.10873031 0.1027521 0.03805339 0.04385421 -0.15235187 0.076049924 -0.29040134 0.37873015 -0.08851549 -0.16273789 -0.10616483 0.0737028 0.15650555 -0.040864803 0.49565423 0.1754055 -0.10399871 -0.06404731 -0.097621165 0.008456582 0.17088635 -0.34942183 -0.1250291
529 -0.16566934 -0.43112156 0.123848945 -0.040805947 -0.03398972 -0.21393155 0.1294906 0.068118624 0.10979695 -0.099157065 0.1408379 0.008501716 0.010308873 -0.15578678 0.10057893 -0.3212898 0.3683111 -0.11190452 -0.16131404 -0.12673652 0.07657769 0.15870069 -0.027193649 0.46378273 0.15405118 -0.10308395 -0.06366955 -0.06971581 -0.00058276 0.15000145 -0.32923308 -0.10674881
39 -0.18689698 -0.41826963 0.114993796 -0.040009405 -0.014214411 -0.20816088 0.14009392 0.08824753 0.13377601 -0.10895606 0.11571922 0.012722655 0.034890786 -0.16980112 0.10694919 -0.3132725 0.33856994 -0.09581375 -0.16931786 -0.09480698 0.07850508 0.16193521 -0.019699132 0.48293337 0.15009935 -0.08312119 -0.056947596 -0.06590621 -0.009034981 0.15727568 -0.32224122 -0.12922882
337 -0.14097701 -0.37439734 0.10291327 -0.030329917 -0.0141379805 -0.20269665 0.12424482 0.086554945 0.14630766 -0.10724604 0.13961779 0.020812256 0.045931663 -0.16410832 0.11782434 -0.2907051 0.3931266 -0.09954289 -0.17386578 -0.13393289 0.05278031 0.172751 -0.044420373 0.5011604 0.16894689 -0.075184286 -0.03651342 -0.07463003 -0.0038330606 0.17272773 -0.34004608 -0.10400618
336 -0.15654384 -0.41030806 0.11993035 -0.04080901 -0.029452812 -0.22070163 0.13514051 0.071821295 0.118461646 -0.10445243 0.13544331 0.007030462 0.0035485856 -0.16835871 0.10028365 -0.2829715 0.37437034 -0.12319446 -0.17178795 -0.14136955 0.06496788 0.15689796 -0.039265916 0.48750815 0.15577486 -0.08020719 -0.058102526 -0.09164353 -0.025529051 0.16832359 -0.33632898 -0.13295893
133 -0.21693659 -0.46938285 0.09317046 -0.0146972835 0.012042151 -0.21830094 0.06765572 0.16417633 0.12091445 -0.107226536 0.12222641 -0.019169537 -0.043281104 -0.13846725 0.13639429 -0.43519285 0.31585968 -0.07054245 -0.09607464 -0.10097292 0.058642898 0.16625944 -0.041983604 0.4753877 0.06499988 -0.12191928 0.0005738625 -0.035622712 0.027551046 0.074558586 -0.29574996 -0.11542161
456 -0.15679991 -0.3342753 0.14018227 -0.032260057 -0.017553817 -0.18750437 0.117140315 0.06809679 0.14066114 -0.10768674 0.106468186 0.008837015 0.017762367 -0.13308501 0.10628084 -0.24468268 0.39430016 -0.113956206 -0.17818487 -0.15424702 0.07972269 0.18007174 -0.03431956 0.5329246 0.18863758 -0.091486484 -0.029786458 -0.08882032 0.026651492 0.17597197 -0.37093312 -0.12567374
313 -0.20143329 -0.41004878 0.11374832 -0.028276602 -0.018020293 -0.21485199 0.09740611 0.096729144 0.13929226 -0.11554574 0.12662034 -0.0177683 -0.03189043 -0.16506717 0.11112423 -0.31907144 0.37544358 -0.08245153 -0.14471444 -0.118582994 0.05079177 0.17113195 -0.04463262 0.4974693 0.12418362 -0.088048615 -0.04390607 -0.08203419 0.018685471 0.15413967 -0.32812598 -0.11298926
420 -0.17880464 -0.40028343 0.113246255 -0.037388243 -0.016710626 -0.19696318 0.1287075 0.07876672 0.10564501 -0.113337174 0.13505365 -0.005080412 0.005697197 -0.15990917 0.113266036 -0.31385428 0.37076625 -0.099859215 -0.16865788 -0.1156955 0.053400774 0.16467433 -0.039771635 0.51639044 0.13862213 -0.1034071 -0.038628176 -0.086224236 0.02189708 0.16113171 -0.33530238 -0.11294403
390 -0.15328848 -0.4281044 0.12001242 -0.0297376 -0.03183259 -0.22216208 0.13458465 0.09547015 0.14707874 -0.11862066 0.12867056 0.03268815 0.028469784 -0.1777708 0.12352207 -0.32401028 0.35492316 -0.103886485 -0.15864556 -0.13150337 0.06321075 0.1560599 -0.043917436 0.4710734 0.14599322 -0.09526809 -0.059357576 -0.06130159 0.0010395022 0.15827104 -0.32918146 -0.11295606
107 -0.17037952 -0.41708037 0.116744906 -0.06188579 -0.04894668 -0.224881 0.14900908 0.08685083 0.12859114 -0.09678616 0.10787232 0.0022562249 0.006940589 -0.17782201 0.11321721 -0.29515633 0.3616023 -0.09282158 -0.1455791 -0.10212395 0.06633185 0.16933842 -0.04292831 0.4798907 0.16708197 -0.08657184 -0.061129283 -0.09250387 -0.0028549659 0.15834872 -0.3309608 -0.108488865
135 -0.15795778 -0.38794786 0.107298404 -0.028127035 -0.017400928 -0.21047066 0.12372184 0.10495528 0.13712294 -0.102694996 0.123558596 0.04931634 0.018234478 -0.1382457 0.09645898 -0.28437942 0.36655885 -0.105511464 -0.16890237 -0.13854074 0.04848758 0.14906624 -0.030920085 0.5046959 0.17099679 -0.10712846 -0.050694987 -0.07896382 0.0066945185 0.14931078 -0.33244628 -0.13557348
82 -0.15404522 -0.40266666 0.12947385 -0.0459898 -0.023768147 -0.209732 0.12689047 0.08114498 0.12721653 -0.092960455 0.11340532 0.03457538 0.036236748 -0.17911778 0.097824015 -0.28711262 0.36985523 -0.101056695 -0.15942128 -0.120717146 0.070311025 0.15147942 -0.028045544 0.5277942 0.14291385 -0.117139235 -0.03204973 -0.073364556 0.0055925213 0.15485635 -0.3268416 -0.14186801
581 -0.16970506 -0.46917805 0.09011057 -0.025125202 -0.021637883 -0.24857843 0.11156941 0.13310677 0.14773972 -0.10721622 0.11453308 0.020178312 -0.004907285 -0.1633607 0.121586256 -0.38508916 0.3343678 -0.08819474 -0.116070434 -0.13123792 0.031140558 0.13906278 -0.03846435 0.46076703 0.10631126 -0.104833476 -0.009113109 -0.039620813 0.0060953773 0.121211395 -0.30120954 -0.11576569
374 -0.19701393 -0.44192794 0.11924349 -0.03717913 -0.009578078 -0.2147377 0.122455195 0.07941599 0.1502813 -0.10424138 0.10725718 0.016684761 0.02062997 -0.16765611 0.11562852 -0.32912195 0.3438405 -0.07480099 -0.14608133 -0.13635427 0.04017854 0.16599561 -0.049579218 0.4708045 0.15462974 -0.07111315 -0.034666467 -0.089852065 0.0070073027 0.16019437 -0.30702826 -0.1036066
585 -0.20025554 -0.439496 0.13654698 -0.021788966 -0.02455751 -0.23055665 0.122727305 0.09893322 0.14918053 -0.09545447 0.11332415 0.023591444 0.022178294 -0.149744 0.15536009 -0.34849596 0.36581525 -0.07882164 -0.12897298 -0.12330915 0.04215489 0.12926295 -0.019036947 0.45551288 0.1417052 -0.10523367 -0.025953954 -0.07460362 0.031236831 0.14957738 -0.30866227 -0.113208555
591 -0.18293925 -0.40179235 0.12960543 -0.057582803 -0.04445484 -0.2106808 0.13408083 0.060131885 0.13818516 -0.105946794 0.15096593 0.006004132 0.033054594 -0.17807609 0.106213875 -0.28999642 0.37245387 -0.092440076 -0.18815541 -0.13829783 0.071309425 0.16259772 -0.054338448 0.48076385 0.17349534 -0.06205179 -0.06694883 -0.09447634 -0.006097886 0.19206104 -0.34307557 -0.113978565
105 -0.15093537 -0.37712944 0.11642413 -0.01582938 0.0018928328 -0.20078377 0.10894848 0.10716229 0.112309806 -0.09999674 0.121143796 0.028833404 0.0037564354 -0.13734892 0.09654064 -0.275386 0.38697866 -0.1043123 -0.1464087 -0.118483305 0.066870965 0.16744687 -0.030983085 0.5443497 0.13885938 -0.1118668 -0.033927355 -0.050891403 0.013719289 0.14829285 -0.33586368 -0.14096196
330 -0.17186017 -0.40047947 0.108792715 -0.015552521 0.019535942 -0.20306118 0.090704255 0.115867265 0.10971586 -0.115203485 0.13152252 0.0101588415 0.007407188 -0.16904779 0.10451114 -0.35901937 0.36065856 -0.099135764 -0.13244653 -0.12351161 0.054328233 0.1602686 -0.03907212 0.5105918 0.11358815 -0.12981784 -0.05260112 -0.03906708 0.031878196 0.12139838 -0.30607396 -0.11722297
584 -0.20790584 -0.41421297 0.10053017 -0.0032155083 -0.0007532706 -0.18411195 0.078624964 0.10296554 0.123308875 -0.09999553 0.1100285 -0.035145413 -0.04749206 -0.12780768 0.10121305 -0.3604031 0.33726496 -0.080411546 -0.1444423 -0.12575126 0.03279989 0.1815172 -0.0366825 0.5158605 0.12539767 -0.10438162 -0.0076532927 -0.07550717 0.027950937 0.12292544 -0.3315947 -0.11901579
544 -0.16105734 -0.38064504 0.102715805 -0.031664442 -0.01884829 -0.2125089 0.115822345 0.0699431 0.14464432 -0.09903858 0.13687891 0.0032751244 0.020619618 -0.17231975 0.0825795 -0.28409436 0.3814639 -0.10879173 -0.17643416 -0.11653797 0.064160764 0.16259077 -0.043588784 0.51099575 0.14861715 -0.109249786 -0.055671178 -0.083446264 -0.010576385 0.17640916 -0.3287765 -0.13209392
578 -0.18663931 -0.40561193 0.10383724 -0.01611883 -0.007920583 -0.21445775 0.11051164 0.12299159 0.12458618 -0.1274385 0.1357591 0.0047953827 0.011785312 -0.17124648 0.089409225 -0.34499252 0.34221104 -0.09742384 -0.15133438 -0.11583937 0.06625099 0.15966699 -0.026395058 0.5036054 0.11828706 -0.11745033 -0.04662193 -0.05231846 0.008184244 0.12278934 -0.3247137 -0.114985
289 -0.16563512 -0.4277682 0.077242404 -0.02569776 -0.01111976 -0.23144574 0.07799347 0.13135761 0.13548067 -0.11977487 0.11915923 0.01730605 0.026091268 -0.15310223 0.115651846 -0.37337208 0.3519737 -0.0673578 -0.12406115 -0.120284885 0.039851885 0.15874457 -0.036892835 0.46744105 0.12102454 -0.10522193 -0.02897447 -0.07449881 0.0076772687 0.09967178 -0.30365017 -0.12218487
263 -0.15855017 -0.420069 0.11005742 -0.057517856 -0.01177968 -0.2178537 0.13191669 0.10878169 0.1317089 -0.09470528 0.14160366 0.017339852 0.007667944 -0.17236821 0.11651958 -0.29657033 0.36008996 -0.101279214 -0.16323681 -0.115345 0.054196175 0.14448908 -0.03966684 0.48630166 0.15065588 -0.10684862 -0.04027065 -0.07918928 0.014689675 0.15376659 -0.3295296 -0.13906232
469 -0.17576869 -0.38188705 0.09680789 -0.027254026 -0.009882964 -0.19158731 0.107102774 0.09836261 0.10116762 -0.11330916 0.10058547 0.00015999115 0.0016792344 -0.1506831 0.0868654 -0.30623016 0.37214202 -0.104224965 -0.17341065 -0.12417065 0.071753584 0.15187176 -0.014543635 0.5255036 0.14030391 -0.12983407 -0.054408625 -0.066723324 0.028869247 0.13889283 -0.3289173 -0.14702833
270 -0.20529455 -0.41117108 0.0901336 -0.027428739 0.017545192 -0.18995559 0.08782315 0.09106649 0.12818712 -0.11991404 0.08725712 -0.0081237955 -0.032528203 -0.15106604 0.116959974 -0.30866632 0.35129127 -0.07753349 -0.14221291 -0.10615502 0.043795757 0.18278435 -0.05584529 0.5200588 0.1182622 -0.1014706 -0.024958095 -0.080267005 0.026742097 0.127216 -0.32890233 -0.123520136
527 -0.1821618 -0.40391144 0.11136779 -0.056407027 -0.023050904 -0.198763 0.12036029 0.086463615 0.12679318 -0.09136259 0.13293093 0.015114355 0.0061904113 -0.16775541 0.11858787 -0.2828805 0.35446543 -0.11026121 -0.15464762 -0.12422961 0.07019968 0.1688425 -0.016818486 0.48750672 0.16157068 -0.09955654 -0.062260427 -0.080615714 0.013362644 0.15068862 -0.33910868 -0.13401799
441 -0.17100094 -0.39835334 0.09993819 -0.034345992 -0.005962929 -0.21594153 0.10094971 0.10776792 0.13324468 -0.1018064 0.11239679 -0.0008622946 0.007029609 -0.15116854 0.10215376 -0.29124177 0.36945122 -0.094685696 -0.17267369 -0.13207206 0.06865218 0.17976752 -0.04669834 0.5288802 0.14609316 -0.10598357 -0.041093636 -0.07334463 -0.008961809 0.14921786 -0.32765412 -0.122260295
409 -0.14085084 -0.37095955 0.102076344 -0.022962391 -0.012065663 -0.21520992 0.1273561 0.07699671 0.14618361 -0.09055027 0.114743136 0.03430604 0.053350292 -0.15880686 0.10117525 -0.26017568 0.3908926 -0.11641854 -0.17743613 -0.1212345 0.07072638 0.15299608 -0.033013307 0.52518183 0.16155978 -0.09398637 -0.04934334 -0.10281336 0.009304326 0.17191517 -0.34928426 -0.13159938
87 -0.18248253 -0.4104571 0.12399749 -0.037339564 -0.035221547 -0.19125359 0.12622532 0.076057106 0.14159161 -0.09069267 0.10346319 0.015708638 0.023282018 -0.15212855 0.11785376 -0.2753093 0.36264017 -0.09595473 -0.16021477 -0.135103 0.075216636 0.1548783 -0.051738817 0.4862023 0.16119307 -0.07811496 -0.05789968 -0.07671901 -0.00016341895 0.1511348 -0.32507142 -0.1216947
369 -0.16585362 -0.4072647 0.098327935 -0.041755 -0.0216762 -0.21237645 0.10108178 0.08596294 0.13513601 -0.09878985 0.11921863 0.028142976 0.025660113 -0.16474089 0.10935211 -0.32567555 0.36915594 -0.09013421 -0.15568444 -0.09965553 0.054149378 0.14766608 -0.046584677 0.49239874 0.15823175 -0.0907799 -0.053822808 -0.08305454 0.0042477935 0.15702596 -0.31733653 -0.13378921
509 -0.16534229 -0.4038361 0.109578714 -0.031907517 -0.032605086 -0.22508483 0.12677315 0.09407106 0.15017705 -0.107616946 0.13168412 0.052366097 0.048770316 -0.16855615 0.1074951 -0.2790302 0.36474597 -0.09105379 -0.17410508 -0.12803571 0.062133107 0.15964966 -0.048013046 0.49385306 0.17641556 -0.09806178 -0.058259416 -0.074861445 -0.002282297 0.16712289 -0.3211857 -0.112820216
197 -0.19610271 -0.42168206 0.120898545 -0.033152398 -0.012629375 -0.22899123 0.08863288 0.111783475 0.13245496 -0.10481933 0.13370256 0.009218744 0.02171414 -0.16691923 0.10454819 -0.32694992 0.34870067 -0.09636177 -0.124638736 -0.112061724 0.060365126 0.1476348 -0.04784395 0.4781069 0.14109997 -0.10681028 -0.027754271 -0.07529371 0.020178733 0.1069132 -0.31318262 -0.0948607
143 -0.14945012 -0.40330902 0.1082527 -0.010029421 0.01581812 -0.19122231 0.122252 0.11380722 0.121757194 -0.10002516 0.10231616 0.01701655 0.009288555 -0.1593619 0.097612895 -0.32793704 0.35693598 -0.085915044 -0.13677165 -0.13604325 0.05212346 0.15481897 -0.013375206 0.5341522 0.13319783 -0.10637764 -0.045245267 -0.04029188 0.029112069 0.12240755 -0.32456037 -0.12933443
392 -0.15618815 -0.37019292 0.1047153 -0.016946767 -0.020106085 -0.21035711 0.1013867 0.09591382 0.10419491 -0.098966315 0.09960195 0.0030617279 0.030572478 -0.15700443 0.10785306 -0.28285053 0.39187762 -0.10212978 -0.15471016 -0.13711438 0.05052569 0.15469204 -0.026900558 0.5230944 0.15355109 -0.105440386 -0.02717066 -0.07232466 0.011956826 0.15762866 -0.33311892 -0.14145666
601 -0.19788656 -0.42906305 0.109900504 -0.03321607 -0.020735541 -0.2308088 0.1315678 0.09244289 0.13496968 -0.11303315 0.107221894 0.009067501 0.0043542515 -0.17353733 0.0945271 -0.30954581 0.3689245 -0.09967138 -0.13546394 -0.12366253 0.04524472 0.14974362 -0.049252916 0.50944746 0.12806161 -0.08953924 -0.021313047 -0.057635125 0.005880611 0.14163338 -0.31194353 -0.11368965
249 -0.1671079 -0.43622333 0.11293569 -0.049469613 -0.022113366 -0.21669011 0.11615439 0.100048505 0.12220178 -0.09873819 0.13998142 0.0069994405 0.010954027 -0.17837416 0.09890787 -0.31136695 0.34567478 -0.09203196 -0.17981574 -0.103648126 0.068563886 0.13962153 -0.03446972 0.4693001 0.15359712 -0.08306862 -0.07348155 -0.08792032 0.0057565267 0.1466471 -0.3255638 -0.10872454
381 -0.17378666 -0.405362 0.11444831 -0.0324387 -0.020647436 -0.19934307 0.14278995 0.074153654 0.13779354 -0.104582615 0.12648474 0.03105107 0.04361772 -0.16979799 0.088127576 -0.25575262 0.38366106 -0.1157563 -0.16073357 -0.10839944 0.07139357 0.16109958 -0.04633854 0.4864676 0.17286874 -0.083455905 -0.06741544 -0.08248363 0.0051425816 0.19216901 -0.35514808 -0.12578236
351 -0.16529143 -0.41106656 0.119992346 -0.06676983 -0.021270268 -0.225153 0.14186908 0.096739054 0.14777502 -0.09699219 0.15414728 0.038501717 0.032017063 -0.18906136 0.10483839 -0.33464456 0.3737454 -0.0911932 -0.16147889 -0.11792206 0.070925914 0.14119996 -0.033016674 0.46803266 0.14247864 -0.07601647 -0.074032485 -0.060145807 0.0106556425 0.15364954 -0.30107865 -0.11108633
287 -0.17944385 -0.43839964 0.13159567 -0.030740347 -0.02649095 -0.2435125 0.11576379 0.12254503 0.14745039 -0.10836509 0.1363868 -0.009557147 -0.033557758 -0.17269541 0.14631055 -0.35245916 0.34040692 -0.090401895 -0.12235592 -0.12373785 0.034053985 0.17686057 -0.05496117 0.46150512 0.11573792 -0.09156139 -0.037824314 -0.04598808 0.026059074 0.13153145 -0.2983502 -0.11133999
262 -0.18217558 -0.40418437 0.100630075 -0.013445554 0.004687883 -0.21112281 0.13200438 0.113805644 0.14470164 -0.083372205 0.117023885 -0.0011891597 0.007005504 -0.17114449 0.12275197 -0.3779307 0.3563518 -0.07719653 -0.11999054 -0.11703794 0.0555705 0.1567194 -0.038824752 0.4703744 0.14521597 -0.09192648 -0.018602565 -0.047685623 0.014482802 0.13093096 -0.30709514 -0.12305644
533 -0.1796625 -0.4235298 0.1326825 -0.042449355 -0.037621554 -0.2117044 0.117287405 0.09565996 0.12635392 -0.10100676 0.11162742 0.0072436677 0.03057948 -0.16994673 0.108436234 -0.31159064 0.35615608 -0.105893575 -0.15042369 -0.12962596 0.038751118 0.15475422 -0.0371224 0.48901767 0.13577199 -0.08614539 -0.042108182 -0.0881764 0.008825262 0.17820536 -0.3326751 -0.12273877
159 -0.16896567 -0.4310857 0.1125449 -0.029226622 -0.023941385 -0.2401758 0.11852493 0.10067862 0.13146667 -0.11751802 0.12959655 -0.000721829 0.011228708 -0.16999045 0.1092971 -0.35261133 0.35438412 -0.07884031 -0.12696709 -0.10495656 0.036521513 0.1553687 -0.03190367 0.47288784 0.14542207 -0.07553199 -0.029088205 -0.054648887 0.003484908 0.13712838 -0.293547 -0.10864771
106 -0.15282407 -0.42923623 0.10978043 -0.018392053 -0.026300544 -0.2062067 0.11682891 0.08654177 0.11657702 -0.114675276 0.120620675 0.011538939 -0.002548397 -0.1794181 0.08479901 -0.30233735 0.37434626 -0.10306245 -0.18325356 -0.11553294 0.04316464 0.15144323 -0.06293331 0.48397934 0.14864293 -0.076750845 -0.054094613 -0.09120439 -0.00964631 0.16793507 -0.34089747 -0.10379052
38 -0.14808334 -0.45948267 0.13007377 -0.031602703 -0.02174807 -0.23891957 0.12086047 0.09227418 0.1540169 -0.11591181 0.1236296 0.03886675 0.0568066 -0.17902704 0.11328755 -0.321014 0.34491593 -0.0990193 -0.13835615 -0.12207342 0.054288395 0.14906974 -0.02598633 0.4581943 0.15126793 -0.085497595 -0.045497615 -0.08920055 0.0010053995 0.13909757 -0.3327887 -0.13118644
558 -0.13998938 -0.40846542 0.10093789 -0.04057319 -0.01080465 -0.20769297 0.10280398 0.1358903 0.13962209 -0.11895088 0.12412835 0.023115857 0.017810239 -0.16927838 0.10670329 -0.3231117 0.35739964 -0.09388709 -0.13756588 -0.12493082 0.02971395 0.15110527 -0.05411554 0.5127181 0.15057407 -0.10188994 -0.033054102 -0.061014395 0.018143917 0.16457024 -0.32375073 -0.1268412
459 -0.19760177 -0.44058633 0.113707304 -0.03421432 -0.012920568 -0.2182312 0.13113555 0.07742918 0.12490785 -0.12033996 0.115399204 0.0011751216 -0.0020211684 -0.17825662 0.11897743 -0.34297058 0.34648272 -0.10725869 -0.13629238 -0.12214911 0.07287252 0.17298073 -0.024711415 0.46854606 0.1340569 -0.09146973 -0.0528996 -0.063056886 0.016414028 0.13111791 -0.33125034 -0.11710928
24 -0.15066539 -0.37114587 0.13231693 -0.026497697 -0.02819432 -0.21819735 0.14397609 0.0724849 0.14318325 -0.084747195 0.1398812 0.030040601 0.06395216 -0.17552398 0.10670507 -0.28128958 0.35985237 -0.10916372 -0.1640426 -0.13269557 0.08436006 0.16748793 -0.02410305 0.48654482 0.18644294 -0.060078967 -0.06583822 -0.09315913 0.0067885034 0.19322985 -0.35110125 -0.12536626
81 -0.17453519 -0.39943704 0.12523742 -0.04436063 0.0031297782 -0.20335287 0.11151619 0.10097389 0.114160635 -0.1040469 0.12309881 0.003439051 0.023944546 -0.15250634 0.109786406 -0.27755588 0.362961 -0.088996194 -0.1561605 -0.123215474 0.06816716 0.16154352 -0.053012952 0.4999141 0.16178516 -0.087212496 -0.043946315 -0.08480095 -0.007912507 0.15980752 -0.33692238 -0.12793674
573 -0.16370039 -0.41181624 0.10303333 -0.053076375 -0.0055130916 -0.19022249 0.1100824 0.108400606 0.119004264 -0.07392421 0.11195416 0.025953192 0.03295788 -0.16607933 0.10610251 -0.2949255 0.35799512 -0.1241627 -0.14807692 -0.1337836 0.06805373 0.15628852 -0.027479421 0.5128017 0.16200045 -0.11719669 -0.04407705 -0.063728236 0.031070696 0.175696 -0.34411216 -0.11947605
64 -0.17206816 -0.43363464 0.12514085 -0.0332823 -0.021660183 -0.23609528 0.13447659 0.10183781 0.15310189 -0.119887926 0.13805436 0.023388265 0.03374219 -0.17534705 0.13707533 -0.32523307 0.34799224 -0.098026045 -0.14015946 -0.121716976 0.080267765 0.16186808 -0.048455242 0.4513161 0.14257494 -0.089718364 -0.0370133 -0.07427072 0.013094923 0.15402056 -0.31295812 -0.11404064
282 -0.16819991 -0.40209687 0.10154215 -0.006436943 0.0017463961 -0.22338134 0.105633914 0.08764804 0.13693371 -0.10405842 0.112369694 0.031633545 0.01929921 -0.12917408 0.11160483 -0.30256978 0.3703183 -0.09734505 -0.15263343 -0.11354385 0.044691283 0.1540416 -0.014898446 0.5248361 0.13774683 -0.10980998 -0.022176212 -0.0819942 0.011617565 0.14742836 -0.32684264 -0.14057031
476 -0.19464935 -0.41324976 0.1034049 -0.04791797 -0.030394623 -0.20996347 0.10035871 0.10586651 0.132546 -0.103983365 0.1313507 -0.015528048 0.0033753584 -0.1621855 0.11577875 -0.32534015 0.34826416 -0.11364422 -0.16255327 -0.11576844 0.061847188 0.15766907 -0.056777142 0.47573835 0.1581768 -0.081282616 -0.043058693 -0.087597124 0.0017535822 0.14153044 -0.31206977 -0.1138511
341 -0.17047971 -0.41563404 0.08728257 -0.044854034 -0.029580358 -0.202994 0.103349626 0.08064925 0.1316394 -0.09659434 0.11467345 0.028576575 0.03371188 -0.15632819 0.11632723 -0.29657763 0.35970682 -0.09337392 -0.16648777 -0.12465986 0.04040228 0.14957681 -0.05079441 0.5204558 0.16783066 -0.090132825 -0.04407201 -0.096493505 -0.017436443 0.15735152 -0.3503536 -0.13318048
458 -0.16666582 -0.3787496 0.1145208 -0.029993447 -0.013183601 -0.1685611 0.12504329 0.0655698 0.100210145 -0.09070642 0.11309331 -0.006084674 0.0024204259 -0.16116905 0.09596877 -0.26925415 0.40021828 -0.118202105 -0.18436006 -0.12477674 0.064415924 0.17758013 -0.04040045 0.5270339 0.16551867 -0.075893454 -0.056241713 -0.100092225 0.017183537 0.19270745 -0.35626253 -0.13329637
587 -0.1757601 -0.41006082 0.11659112 -0.034533665 -0.027393758 -0.22309655 0.12803641 0.10053323 0.11824889 -0.11190436 0.11248524 6.5309614e-05 0.0043819686 -0.1773207 0.12616937 -0.3217808 0.35203722 -0.10944197 -0.15708113 -0.10399526 0.06928202 0.14913058 -0.043861695 0.48806345 0.1623779 -0.09186706 -0.0481889 -0.06202596 0.015666531 0.13905127 -0.3259524 -0.12388187
543 -0.17304756 -0.41548255 0.11591338 -0.027888812 -0.00030544453 -0.19183272 0.12041487 0.08558772 0.1303629 -0.09736831 0.111048505 0.008149081 -0.0055205445 -0.16092004 0.11710741 -0.30865768 0.37578753 -0.07020157 -0.14840718 -0.111558855 0.071410105 0.1898086 -0.033368427 0.52165145 0.16447483 -0.11088071 -0.0563729 -0.05251758 0.014606816 0.13981344 -0.33173385 -0.12553033
505 -0.16217205 -0.40050218 0.08855869 -0.025241895 0.018013017 -0.19080573 0.08250012 0.115189806 0.105590835 -0.11324516 0.10807707 0.00917089 0.007967438 -0.15340693 0.108029515 -0.34147742 0.36556596 -0.083022274 -0.15944569 -0.11945792 0.04229007 0.15805048 -0.034677427 0.5159801 0.13076529 -0.1293586 -0.035243765 -0.07113661 0.022435648 0.12990724 -0.3416302 -0.13259538
9 -0.16068588 -0.43453002 0.099332884 -0.032072645 -0.00096837373 -0.21714662 0.10353865 0.13021584 0.14336449 -0.104917064 0.12132284 0.018434022 -0.025512315 -0.18924022 0.118793525 -0.34982684 0.3471265 -0.09333836 -0.15153648 -0.11704007 0.016363792 0.16718492 -0.03498004 0.47078818 0.12366273 -0.09409909 -0.03673421 -0.07845533 0.005805423 0.1406371 -0.30616924 -0.10677421
301 -0.16937594 -0.4262257 0.116082616 -0.06643043 -0.026855549 -0.21405227 0.12807313 0.08730094 0.12112664 -0.08561254 0.1468343 0.018594965 0.034303118 -0.17698246 0.11168792 -0.30026242 0.38163334 -0.11746779 -0.1678441 -0.13364932 0.06704838 0.14021805 -0.052869923 0.46027133 0.18070689 -0.08178121 -0.064789906 -0.0929575 -0.012769827 0.17116027 -0.33739388 -0.11411005
223 -0.15521291 -0.39152744 0.114704594 -0.012103643 0.0027571125 -0.1931913 0.11307034 0.09977355 0.12607242 -0.114377275 0.118035324 -0.0014232864 0.005297333 -0.17550275 0.118558094 -0.30581108 0.3615616 -0.10750886 -0.17208634 -0.13702087 0.05096702 0.15350363 -0.0548355 0.53821045 0.14360698 -0.10809386 -0.021622747 -0.0767114 0.01980304 0.16570172 -0.32883692 -0.121408835
475 -0.17072336 -0.40532932 0.09675658 -0.062144 -0.012166903 -0.20606905 0.12071832 0.09768065 0.12690909 -0.09540197 0.10907593 0.024586849 0.0042709103 -0.15940888 0.10397655 -0.28468105 0.36914787 -0.10369109 -0.15289824 -0.121894 0.05667703 0.15823756 -0.036344472 0.5182269 0.16115388 -0.11234973 -0.05697834 -0.0834448 -0.009703332 0.15507652 -0.3228115 -0.13232665
448 -0.1689726 -0.3938512 0.12030357 -0.03444826 -0.025423424 -0.21348594 0.135917 0.075195536 0.124823496 -0.11399371 0.15146343 0.0109078055 0.022851344 -0.16292362 0.105295464 -0.3011382 0.3349346 -0.10676711 -0.16566235 -0.12858671 0.061045825 0.16419919 -0.034485206 0.49271885 0.1675266 -0.0813783 -0.055540297 -0.09543398 0.01355296 0.16027196 -0.3363833 -0.12489355
247 -0.1492026 -0.4273128 0.09883745 -0.031063933 -0.018259652 -0.24228305 0.11707953 0.11321204 0.12451076 -0.08767819 0.12241238 0.04653793 0.021557413 -0.17650796 0.09862229 -0.30306825 0.3684797 -0.096218154 -0.1547943 -0.13477448 0.050394908 0.14131115 -0.02476993 0.5047697 0.17896926 -0.11384355 -0.055487256 -0.06629979 0.0055831033 0.1518473 -0.3378549 -0.12910537
513 -0.16836211 -0.3921349 0.10706912 -0.03049644 0.030006604 -0.21311782 0.10586687 0.112375475 0.12763935 -0.09907783 0.11276688 0.013199328 0.008634522 -0.15478697 0.10123804 -0.33393493 0.37621722 -0.09057133 -0.14350457 -0.14900906 0.040808193 0.14596456 -0.048281644 0.51644385 0.12820067 -0.12994243 -0.039040152 -0.060860395 0.019367883 0.12642469 -0.30668223 -0.12413949
173 -0.16540608 -0.42941552 0.12507114 -0.048975017 -0.048449524 -0.21571183 0.14298055 0.097590975 0.12460995 -0.081811525 0.1353113 0.004275698 0.027342463 -0.17294808 0.10698775 -0.3025674 0.3623501 -0.10380331 -0.16383764 -0.11540482 0.08569407 0.1544833 -0.029654048 0.47057566 0.17533109 -0.081666894 -0.07866802 -0.0754441 0.0088070175 0.18653238 -0.32640272 -0.1164528
657 -0.17475583 -0.41111743 0.107909426 -0.02781936 -0.0001367462 -0.21075983 0.11170451 0.084252395 0.13743117 -0.10186491 0.11553452 0.015912645 0.022251796 -0.15880875 0.103081696 -0.30877763 0.37306505 -0.10323257 -0.1705844 -0.14596504 0.05717613 0.15409668 -0.016528247 0.508331 0.13751915 -0.1074682 -0.057860572 -0.079893574 -0.012327626 0.1451209 -0.3296982 -0.12478167
321 -0.18182644 -0.38024828 0.12158105 -0.03482501 -0.0076179947 -0.20125934 0.09808426 0.111286424 0.11898901 -0.08772355 0.12193723 0.0013326518 -0.0137114795 -0.15868668 0.112553485 -0.29386407 0.3477903 -0.09834996 -0.15636216 -0.14282863 0.032290537 0.1745826 -0.052270886 0.52789325 0.14859551 -0.10473772 -0.027951038 -0.068569094 0.027117396 0.14679247 -0.33390233 -0.12294829
314 -0.18538979 -0.37361994 0.090832174 -0.050039902 -0.011112587 -0.1973628 0.10670934 0.070447065 0.09750474 -0.09876299 0.11460591 0.020178737 0.051977325 -0.1554472 0.08888736 -0.25995433 0.38161263 -0.10626426 -0.18432352 -0.12840977 0.077127315 0.16939285 -0.047664624 0.53180575 0.18448994 -0.1015657 -0.05119858 -0.0848796 -0.012985683 0.17155267 -0.36370814 -0.14365242
257 -0.15021852 -0.4149041 0.08382022 -0.02417691 -0.0021686833 -0.21798605 0.1087771 0.10381697 0.11370838 -0.10389337 0.11617417 0.029178992 -0.0015688186 -0.15684707 0.100463524 -0.3078783 0.36717838 -0.10581801 -0.1843242 -0.13329631 0.06702432 0.17331336 -0.045217585 0.49912173 0.15464926 -0.09426065 -0.055577505 -0.09162123 -0.011283809 0.1744979 -0.33543676 -0.13655026
635 -0.16263786 -0.3886476 0.09758943 -0.009163372 0.007908598 -0.18926309 0.12373398 0.11161902 0.12822542 -0.090664305 0.12511602 0.032498527 0.014929812 -0.14453588 0.098331876 -0.29940307 0.3815149 -0.08923392 -0.15404189 -0.12164131 0.08396242 0.19317453 -0.010481445 0.5367273 0.13870762 -0.12843508 -0.056692682 -0.07946794 0.019362625 0.14795181 -0.34145284 -0.1254522
145 -0.16000839 -0.41454247 0.12706672 -0.06704667 -0.037272483 -0.20453751 0.13119833 0.06934323 0.14953314 -0.0869845 0.121007174 0.019434417 0.048522394 -0.18749851 0.09114799 -0.25739065 0.35713357 -0.110104755 -0.18885924 -0.15080582 0.058278598 0.17570041 -0.047439773 0.47101554 0.1926799 -0.04139206 -0.055621333 -0.108586974 0.00077416835 0.21469067 -0.33412507 -0.11189397
45 -0.15879881 -0.3963545 0.09362896 -0.017751379 0.026865691 -0.19602884 0.10893834 0.13715452 0.14088711 -0.10349978 0.10715247 0.010689039 -0.006434591 -0.15167588 0.12531435 -0.3539206 0.38218778 -0.08039562 -0.14174871 -0.103212744 0.043654047 0.16211292 -0.022698315 0.5215452 0.11285101 -0.11612169 -0.034579854 -0.05367651 0.030628316 0.124048464 -0.32026938 -0.11563218
482 -0.18587644 -0.4467404 0.09213831 -0.048729803 -0.016897772 -0.23188172 0.11672668 0.08856699 0.12540518 -0.112493746 0.13000064 -0.0045159725 0.007032668 -0.15653783 0.10389585 -0.31274888 0.333836 -0.10698226 -0.15072384 -0.11532218 0.052281417 0.15966749 -0.044434365 0.48902732 0.16168922 -0.10191226 -0.0526183 -0.08973101 0.004688967 0.14120796 -0.30302995 -0.11560887
108 -0.17162079 -0.3968495 0.09517513 -0.05387628 -0.0028951669 -0.19192013 0.10870778 0.09249711 0.13005446 -0.08549456 0.12955683 -0.0006044564 0.025434323 -0.17313401 0.087316565 -0.2970245 0.36494356 -0.11256165 -0.17389108 -0.11611282 0.059683193 0.17280631 -0.05513975 0.5161016 0.15634345 -0.09015977 -0.07208672 -0.09623169 -0.012522661 0.15254012 -0.33591554 -0.10998215
554 -0.16557758 -0.41495207 0.10506881 -0.04157839 -0.013894266 -0.22358602 0.1216922 0.10311767 0.15466684 -0.09862829 0.14149691 0.023644615 0.0072264825 -0.16303985 0.12233036 -0.33040363 0.34701478 -0.09218882 -0.15345927 -0.14149539 0.065508984 0.17142057 -0.051750243 0.4858407 0.15888935 -0.08685061 -0.050425224 -0.07093457 -0.0060270894 0.14546145 -0.30563667 -0.12690423
625 -0.17252025 -0.43377417 0.11492631 -0.03915502 -0.02043823 -0.2336731 0.124668516 0.11677672 0.14320742 -0.09823634 0.15338936 0.02800566 -0.020359099 -0.15856728 0.14958972 -0.36815965 0.33666638 -0.08244817 -0.15348797 -0.12157948 0.037601624 0.16325356 -0.043840706 0.4522209 0.1441493 -0.098651476 -0.023780903 -0.076203324 0.017855719 0.13359344 -0.3061532 -0.0992459
75 -0.15125862 -0.43202433 0.1269792 -0.053203396 -0.021145836 -0.2280001 0.1533452 0.100276746 0.13663685 -0.11436204 0.14696252 0.028579338 0.036971737 -0.17410901 0.11314048 -0.31478447 0.36228222 -0.11245112 -0.14390892 -0.112645656 0.07067468 0.13071091 -0.037139744 0.46147683 0.15211855 -0.10195531 -0.05609521 -0.058632463 0.011733726 0.15787412 -0.33061033 -0.09607985
363 -0.18812832 -0.3967501 0.11745094 -0.019663034 0.000577557 -0.21300863 0.12445071 0.09183794 0.13268253 -0.11657544 0.1244557 -0.02408114 -0.010179072 -0.15421978 0.12401517 -0.3316809 0.3574172 -0.09191804 -0.15245216 -0.11614536 0.035791982 0.15783234 -0.040961087 0.4956242 0.1419136 -0.082265094 -0.018244138 -0.060055643 0.035587464 0.13274649 -0.32374477 -0.12122868
467 -0.18468921 -0.39972037 0.096325986 -0.02903287 0.007095784 -0.19347624 0.10748866 0.13008058 0.11540633 -0.11834946 0.11103747 0.014873898 0.0066589764 -0.13003959 0.13272388 -0.35518447 0.3454561 -0.10602292 -0.12783542 -0.10844032 0.037783287 0.15783359 -0.023760624 0.5251275 0.12489606 -0.13081387 -0.021002626 -0.06060024 0.024271522 0.108521976 -0.31316376 -0.115240164
304 -0.16882105 -0.39299724 0.11753256 -0.027899614 -4.243909e-05 -0.22644334 0.12257575 0.08644702 0.10864361 -0.09841299 0.12451852 0.02869005 0.031937998 -0.14605758 0.09436521 -0.2758528 0.3806231 -0.10484801 -0.1662924 -0.14889318 0.062591724 0.14190261 -0.042192526 0.51157767 0.14747874 -0.117911175 -0.064373314 -0.062103573 0.008282387 0.17199373 -0.32853666 -0.11689767
228 -0.14086364 -0.3757738 0.106699824 -0.025452444 -0.018178489 -0.20136558 0.091045454 0.089973204 0.13248977 -0.1024502 0.10718056 0.0035182713 0.01885214 -0.16285287 0.10476304 -0.27093923 0.3640209 -0.1107062 -0.18270813 -0.14336956 0.048863355 0.1682228 -0.04879103 0.54324996 0.15987429 -0.124656305 -0.050722588 -0.09893979 0.005875165 0.15793288 -0.34102976 -0.10556075
334 -0.16844858 -0.3908143 0.11906452 -0.028701054 0.013545113 -0.21716636 0.09367002 0.13079314 0.11438769 -0.11260743 0.11772519 0.0032727728 -0.012908301 -0.16772367 0.11513674 -0.34512427 0.3594276 -0.09485446 -0.121621 -0.14960395 0.030193299 0.16057122 -0.018991739 0.52747846 0.11631067 -0.13217023 -0.00995672 -0.057677247 0.024136104 0.11724229 -0.32837832 -0.11975453
170 -0.17315291 -0.41090474 0.096514076 -0.01249393 -0.0045999666 -0.19402395 0.08962579 0.10884507 0.11729763 -0.12748787 0.10658065 -0.0031419953 0.0039422587 -0.15763125 0.106513806 -0.33250862 0.3551347 -0.08297533 -0.12309678 -0.13291298 0.05536132 0.16191064 -0.03551911 0.52090764 0.12081025 -0.14277509 -0.013681569 -0.06856612 0.0053147813 0.12092256 -0.31547526 -0.13500454
182 -0.18983866 -0.40552634 0.10082358 -0.045878436 -0.009054825 -0.2230425 0.122483976 0.09327035 0.11748652 -0.09792082 0.11420374 -0.0006160416 -0.0062580737 -0.15350085 0.107668795 -0.35197592 0.3613163 -0.08709116 -0.122683 -0.10833883 0.037674684 0.16686712 -0.04807754 0.50876373 0.13986525 -0.11876185 -0.028091036 -0.053105578 0.019672893 0.12316816 -0.30877042 -0.100597344
368 -0.1776012 -0.40462795 0.10030318 -0.025447207 0.018562712 -0.20571543 0.11113244 0.13124242 0.13603875 -0.10065039 0.103243805 0.011639203 0.0022663316 -0.13737477 0.12622748 -0.3405644 0.3444299 -0.06910885 -0.1306012 -0.11273501 0.042254053 0.16944201 -0.025494337 0.51847553 0.119447574 -0.11484379 -0.039405927 -0.02711412 0.024937863 0.11721654 -0.3185777 -0.12246707
384 -0.18954748 -0.45217153 0.080865934 -0.015050945 0.008632616 -0.20576961 0.093645796 0.14007121 0.1302389 -0.10940867 0.122958526 0.02188059 -0.005667469 -0.15353052 0.13450131 -0.38529631 0.3528336 -0.07076651 -0.11053335 -0.095703706 0.034234356 0.14484245 -0.022699123 0.47989845 0.101279385 -0.10455488 -0.015193483 -0.05123836 0.026483657 0.09314941 -0.30349573 -0.12029741
630 -0.15506518 -0.3857858 0.115904465 -0.030461723 0.0066035567 -0.20225692 0.09571326 0.09943498 0.12769566 -0.086070806 0.12317596 0.033855114 0.029687148 -0.13894211 0.11294199 -0.31666836 0.35735086 -0.08246076 -0.1332493 -0.13457112 0.048490074 0.17151488 -0.046485975 0.53112376 0.15687305 -0.11804137 -0.045732986 -0.063950695 0.012381467 0.14972182 -0.3168098 -0.123933464
261 -0.19388828 -0.43908173 0.09184246 -0.044125263 0.00014575831 -0.21308284 0.09675917 0.11694744 0.12893514 -0.09891248 0.14126839 -0.020133337 -0.024115907 -0.16618061 0.12900239 -0.35598817 0.34910655 -0.0967024 -0.14899068 -0.13843921 0.04338144 0.15913719 -0.05708572 0.47715774 0.11437309 -0.11288486 -0.03539777 -0.050594207 0.013504665 0.115690395 -0.29647937 -0.121302485
51 -0.15652959 -0.36961406 0.101320714 -0.017164517 0.0012598124 -0.20143317 0.10076905 0.08394605 0.12690622 -0.09008397 0.120414175 0.008353854 -0.005502959 -0.16956986 0.105656855 -0.31837732 0.37940857 -0.087504685 -0.16572368 -0.13596997 0.050869785 0.16625138 -0.026567357 0.5237437 0.14811505 -0.10983207 -0.027421355 -0.061892673 0.032264065 0.15836321 -0.3516925 -0.11919327
425 -0.16886339 -0.39501488 0.118879266 -0.023725973 -0.019524844 -0.23725697 0.10890032 0.09625197 0.14750686 -0.08189715 0.118703976 0.010853145 0.019580357 -0.14996591 0.11424872 -0.30410618 0.3732219 -0.10613409 -0.15389794 -0.14517404 0.062660724 0.15014504 -0.050759505 0.50568146 0.14986832 -0.104045585 -0.033156272 -0.066980384 0.028235778 0.17766012 -0.31558302 -0.12187646
349 -0.17392576 -0.41607666 0.11990247 -0.035889704 0.0009916977 -0.2047558 0.12629414 0.081889525 0.12844603 -0.092762366 0.12498717 0.028964065 0.023900183 -0.18621601 0.1282471 -0.31164992 0.35309067 -0.101974346 -0.14580971 -0.12350642 0.06428062 0.15955491 -0.03337303 0.5014843 0.1630944 -0.09798347 -0.038680606 -0.06517102 0.023985323 0.14623022 -0.3261662 -0.11085948
621 -0.17667481 -0.3854368 0.10541551 -0.010164706 0.00174313 -0.19026177 0.10548851 0.11280003 0.1096046 -0.11196209 0.09717693 0.008622695 0.0077102394 -0.13711405 0.10964994 -0.341246 0.36779884 -0.10530439 -0.14719592 -0.12671287 0.047565036 0.15562628 -0.030507999 0.54948163 0.11271921 -0.12435552 -0.031189004 -0.059912764 0.040135644 0.10279071 -0.31981304 -0.11512905
451 -0.16763122 -0.41505793 0.12226386 -0.0597176 -0.03554459 -0.23856305 0.12521498 0.08187487 0.13551493 -0.09074374 0.14061674 0.03615211 0.036465492 -0.16416535 0.13998401 -0.2931002 0.36678314 -0.12632765 -0.15908499 -0.12710151 0.07791251 0.17754 -0.018340925 0.48309335 0.16676895 -0.09860476 -0.045726426 -0.0744929 -0.0036495398 0.15959182 -0.3161657 -0.104857415
189 -0.20961711 -0.4083125 0.08974969 -0.028563797 -0.0025730075 -0.19564831 0.11569577 0.10361818 0.13289778 -0.09873972 0.1297363 -0.0022921276 0.0059367707 -0.16149 0.11871126 -0.33688706 0.3580599 -0.08881986 -0.14191863 -0.12400576 0.04612585 0.18294294 -0.03120837 0.4915288 0.15540361 -0.09482506 -0.044703 -0.061102554 0.001274729 0.12330053 -0.29762664 -0.1032284
209 -0.18205728 -0.4124439 0.11021598 -0.047583736 -0.045595095 -0.2077444 0.12917373 0.07782203 0.1488578 -0.09401516 0.10334794 0.010553499 0.013347681 -0.16382045 0.111959144 -0.28464383 0.3613858 -0.09491153 -0.18013719 -0.12100602 0.05133892 0.17201646 -0.03612868 0.49901396 0.15680625 -0.07878485 -0.049399864 -0.09329384 -0.0051621725 0.19335595 -0.336663 -0.10864389
318 -0.19242081 -0.39902806 0.09797153 -0.026462512 -0.008048516 -0.20818432 0.12708615 0.115971714 0.13607833 -0.10450093 0.11027979 0.010867503 0.008740203 -0.15912461 0.10481469 -0.33980376 0.36685377 -0.08350096 -0.13730279 -0.09689592 0.07765037 0.17453322 -0.03310921 0.50003934 0.14760008 -0.098303854 -0.032091085 -0.061077874 0.038264953 0.15036996 -0.31775776 -0.12762737
466 -0.18384512 -0.4286245 0.12232186 -0.0381126 -0.043603737 -0.21355793 0.12570587 0.069201656 0.13437594 -0.100399 0.12033603 0.013908922 0.053606518 -0.14116937 0.10917101 -0.29775432 0.33510014 -0.10444841 -0.14739321 -0.10645479 0.08204904 0.1729726 -0.0458752 0.48573512 0.16458821 -0.08616859 -0.06103792 -0.100724675 0.0016006535 0.15125203 -0.35266396 -0.1282278
166 -0.17931941 -0.40208462 0.091972254 -0.033671718 -0.00049557653 -0.20554483 0.11410629 0.08693339 0.11189055 -0.10996636 0.116905235 -0.0008239949 0.013476722 -0.16062494 0.121457964 -0.31498107 0.3550686 -0.1006936 -0.16061786 -0.11732815 0.069769084 0.1612811 -0.032743093 0.51549613 0.14063847 -0.11972293 -0.04413918 -0.07169354 0.008347829 0.13188353 -0.32423636 -0.106426746
303 -0.17121553 -0.4010202 0.09484669 -0.021998832 -0.009178463 -0.21860245 0.123845614 0.08836476 0.14257085 -0.08885482 0.12712155 0.019451542 0.021143794 -0.1698987 0.0979614 -0.2952787 0.35436946 -0.08430647 -0.16075234 -0.1154457 0.07526822 0.17632091 -0.023020655 0.5035375 0.15570427 -0.08041632 -0.03480191 -0.078597486 -0.007913091 0.13987108 -0.32367262 -0.11851872
102 -0.19783168 -0.431784 0.11477835 -0.055682212 -0.033239786 -0.23262773 0.12393132 0.09990035 0.13346706 -0.11731403 0.12794112 -0.012288889 0.0026210207 -0.18676998 0.10675171 -0.34203812 0.34562644 -0.0878707 -0.14053994 -0.11805005 0.049900655 0.15218411 -0.04181342 0.4603041 0.13618164 -0.09702802 -0.030663736 -0.07956591 0.021561384 0.14167368 -0.3133917 -0.11822671
645 -0.16121277 -0.37708634 0.091444805 -0.029669993 -0.007522954 -0.20297551 0.09823078 0.1332727 0.11869918 -0.087102786 0.105709806 0.009532994 0.0071158623 -0.17813283 0.110156 -0.33230698 0.3620178 -0.09499956 -0.16065936 -0.12373259 0.04287683 0.17242569 -0.04715189 0.53973395 0.12060068 -0.13908663 -0.02755118 -0.07310802 0.033061463 0.13987009 -0.32516247 -0.11436144
494 -0.18167938 -0.41088995 0.118227854 -0.047334418 -0.01916955 -0.21648622 0.13185802 0.1143364 0.12545832 -0.095087476 0.12920249 -0.007910597 -0.0026968427 -0.164459 0.12465562 -0.32362092 0.36853528 -0.07753603 -0.14737491 -0.12565917 0.0525252 0.17174943 -0.03493231 0.48556155 0.14178853 -0.09620767 -0.055874128 -0.07416449 0.021713268 0.13833521 -0.31668392 -0.11274007
623 -0.20841497 -0.46570936 0.11844349 -0.064653285 -0.043408092 -0.23585932 0.14132902 0.10720822 0.124078356 -0.0937178 0.16350694 -0.014012647 0.009386173 -0.18097067 0.12950672 -0.3802961 0.33101034 -0.09551525 -0.12711635 -0.1014835 0.08039085 0.16367826 -0.011759029 0.42381188 0.12054619 -0.084830984 -0.061426587 -0.05695381 -0.008704984 0.14120215 -0.30293196 -0.11243069
185 -0.17559315 -0.4126463 0.10607133 -0.0371141 -0.036994893 -0.22131455 0.13589287 0.083813176 0.1454275 -0.08110458 0.15172808 -0.0031088197 0.028912432 -0.1990183 0.100194335 -0.27554294 0.37721598 -0.10439356 -0.18948424 -0.110769995 0.069888934 0.14746462 -0.066215485 0.47226152 0.16526972 -0.068247646 -0.051655777 -0.09197589 -0.012180345 0.15647726 -0.33757874 -0.13408338
76 -0.17861012 -0.37773097 0.09264503 -0.013385275 0.020921476 -0.21948965 0.09937869 0.117515124 0.13101228 -0.10273488 0.0966136 0.022185087 0.009371794 -0.15746276 0.119798474 -0.3085797 0.4014107 -0.101620115 -0.13368224 -0.12207518 0.042353243 0.16212472 -0.041797675 0.5479076 0.14845689 -0.12924936 -0.04638743 -0.072112665 0.015635842 0.14285593 -0.31847927 -0.12078464
124 -0.17988753 -0.40742487 0.08751746 -0.0066241357 0.024833284 -0.20462124 0.10962529 0.13104136 0.12895168 -0.11713008 0.11027992 0.0067510903 -0.013041003 -0.14212045 0.0993818 -0.33973727 0.3727448 -0.08773731 -0.12109733 -0.12079595 0.05077204 0.18126503 -0.037160758 0.51275903 0.10472861 -0.13206497 -0.029356848 -0.053097423 0.0429298 0.09893375 -0.32554471 -0.12473279
319 -0.16432372 -0.4217807 0.1120965 -0.036030747 -0.011291431 -0.23117101 0.13159731 0.08897852 0.14116178 -0.094338246 0.12010497 0.03234765 0.021809224 -0.15672848 0.10410425 -0.29939577 0.3564428 -0.09094846 -0.14941846 -0.1080482 0.07678805 0.16438243 -0.037531074 0.49280164 0.14662956 -0.078701615 -0.03551658 -0.0796794 0.018930383 0.15993917 -0.33052382 -0.13456802
214 -0.16258186 -0.40665233 0.13119467 -0.024633674 -0.00497078 -0.23065908 0.12022595 0.11587725 0.15160859 -0.09780824 0.11668573 0.052403815 0.039198846 -0.16496563 0.11911999 -0.34046328 0.3858689 -0.10404646 -0.14037563 -0.12593894 0.044149417 0.15062436 -0.026262254 0.48562402 0.14051828 -0.096252665 -0.036254395 -0.06186006 0.00058761804 0.14193635 -0.3099892 -0.13459411
348 -0.1678545 -0.42255038 0.11223267 -0.044926275 -0.0022107754 -0.24128276 0.14128351 0.09654056 0.13854979 -0.11154057 0.12901899 0.028826699 0.04778088 -0.1763611 0.14357606 -0.37849143 0.3324647 -0.074581124 -0.14043972 -0.11300103 0.06661196 0.1522329 -0.026699455 0.45945698 0.17070776 -0.08914082 -0.047611356 -0.05842559 0.032210063 0.14309336 -0.312459 -0.10949906
89 -0.13093066 -0.3439947 0.109432526 -0.044967953 -0.017662717 -0.17186092 0.11962308 0.0580839 0.11731459 -0.07941035 0.12943043 0.043685403 0.034360148 -0.16075265 0.08947343 -0.22967346 0.38921958 -0.13715531 -0.19617592 -0.15034088 0.07730313 0.1657874 -0.030856892 0.55072844 0.18485752 -0.09233725 -0.06512643 -0.116457865 -0.020195873 0.198837 -0.36828703 -0.14801103
514 -0.1848787 -0.37565696 0.11838938 -0.05037137 -0.05099339 -0.19498427 0.12232777 0.05720029 0.12915376 -0.09180047 0.11035179 -0.0070640296 0.014651256 -0.14862503 0.10353004 -0.26186004 0.370168 -0.08923925 -0.1992104 -0.12806933 0.085223034 0.18734114 -0.048130576 0.48589525 0.20251565 -0.062829085 -0.052713484 -0.09092322 -0.008215318 0.20011151 -0.35002744 -0.13217312
316 -0.18594602 -0.41666105 0.10818444 -0.020816045 -0.01891548 -0.20664842 0.11497922 0.11513322 0.13422905 -0.08935011 0.116380826 -0.0024016849 0.0027858578 -0.15576136 0.12207962 -0.33267525 0.3487615 -0.07409328 -0.1341799 -0.110095896 0.041573644 0.15775742 -0.0448697 0.5061603 0.11652275 -0.107394464 -0.020047853 -0.06392831 0.018062867 0.15614408 -0.33130014 -0.10444982
362 -0.18848307 -0.4561653 0.08939734 -0.043527476 0.0050055888 -0.22638655 0.11262341 0.0980896 0.13426131 -0.12487114 0.13473748 0.006782028 -0.008683944 -0.18060158 0.12577954 -0.38372022 0.32582334 -0.071779914 -0.12808613 -0.10055903 0.03189863 0.14222166 -0.039900143 0.46697873 0.11977748 -0.0998352 -0.012376289 -0.054549098 0.02146799 0.1251885 -0.30441207 -0.107412376
358 -0.19810216 -0.4146615 0.10313927 -0.020807313 0.00036728563 -0.22591129 0.1318608 0.109341465 0.13630895 -0.11303195 0.10689673 0.009024402 0.003494479 -0.1611476 0.110704035 -0.35635617 0.36285374 -0.075681284 -0.14126974 -0.1124869 0.043329727 0.16191913 -0.028202929 0.48258543 0.15271394 -0.1009115 -0.036385745 -0.048019618 0.0021849314 0.12391266 -0.32055148 -0.10651603
264 -0.17056265 -0.4270912 0.13433325 -0.05032145 -0.0133788185 -0.24134348 0.12585558 0.103311844 0.1427749 -0.09061981 0.14127387 0.024064299 0.04267792 -0.18986791 0.123723306 -0.33626702 0.33759412 -0.10248346 -0.16429298 -0.12338471 0.06294747 0.14021176 -0.017706562 0.46484873 0.1497201 -0.10078185 -0.056699656 -0.07298626 -0.0017411129 0.13329408 -0.30554754 -0.102366626
606 -0.1734427 -0.3674426 0.1257459 -0.010921794 -0.009734467 -0.2079436 0.093576126 0.10353771 0.1123467 -0.09398218 0.111283384 0.005466885 0.017804377 -0.14160945 0.10554001 -0.28343007 0.37032104 -0.11005627 -0.16703007 -0.118455596 0.06224093 0.16787265 -0.021374002 0.55038196 0.14119734 -0.12842202 -0.02841246 -0.062272493 0.007958983 0.14540066 -0.34659153 -0.14473346
238 -0.1869132 -0.39868662 0.0971986 -0.035379615 -0.0060027028 -0.20196004 0.11588166 0.08766974 0.15075776 -0.09806038 0.09985948 0.019593582 0.023577759 -0.14562692 0.09782383 -0.31752068 0.35316786 -0.080149576 -0.13904984 -0.13007033 0.04612557 0.18136787 -0.039760593 0.5215371 0.1503803 -0.09753126 -0.020550136 -0.081158645 0.010337341 0.14427076 -0.3353131 -0.111683704
400 -0.18522038 -0.3698017 0.11688673 -0.018720832 -0.023253832 -0.20710632 0.1028466 0.085937835 0.12272569 -0.09311365 0.104287 -0.021865314 -0.0013742598 -0.15268485 0.104141824 -0.27435163 0.37206402 -0.10436317 -0.144829 -0.12689763 0.059062358 0.19303581 -0.0360532 0.5351299 0.13749538 -0.11921179 -0.042110894 -0.07731752 0.01180885 0.13322031 -0.33175355 -0.1322817
515 -0.16571032 -0.44241664 0.10171273 -0.0421897 -0.03777869 -0.20912623 0.11797226 0.08670533 0.14395158 -0.104375236 0.1311226 0.013184967 0.028240003 -0.19491917 0.103760414 -0.30541638 0.36074135 -0.08867448 -0.15076166 -0.11878731 0.072193846 0.1585504 -0.02845708 0.45782533 0.14693126 -0.08502447 -0.062417388 -0.094436325 0.0013852235 0.18426988 -0.3265903 -0.12720199
497 -0.16574639 -0.41191083 0.09985729 0.0026468113 0.02695956 -0.21926674 0.10046649 0.13269624 0.13031587 -0.11401595 0.13491839 0.031248221 -0.0110981595 -0.17187193 0.12983428 -0.3440443 0.34958583 -0.08834935 -0.15203285 -0.14026296 0.052735556 0.16787708 -0.04069362 0.5004142 0.11294663 -0.14403361 -0.020741057 -0.028146012 0.013093949 0.106946185 -0.31194836 -0.12724663
366 -0.18139045 -0.42594522 0.09451614 -0.022614706 -0.0071102413 -0.20994437 0.105928965 0.10279931 0.13063611 -0.11011306 0.10235419 0.031563815 0.02366814 -0.14845245 0.11799484 -0.3567879 0.3355621 -0.07398736 -0.13614473 -0.11668103 0.06543241 0.17601547 -0.042639446 0.5014056 0.16491802 -0.11451042 -0.029034428 -0.06506996 0.009701312 0.13339266 -0.30231395 -0.10286539
474 -0.19015239 -0.42184886 0.122992486 -0.036588985 -0.049490526 -0.21455422 0.13954371 0.08268814 0.14263271 -0.10348045 0.1262648 0.0017963519 0.047932655 -0.17934763 0.11299395 -0.29887742 0.364502 -0.09236376 -0.15641728 -0.14328872 0.04874848 0.15060787 -0.034480866 0.4770532 0.18407157 -0.087804645 -0.05264832 -0.085230485 0.0034790998 0.17677976 -0.34215832 -0.10713209
32 -0.18092658 -0.4004819 0.08589265 -0.013635448 0.0011734767 -0.20032357 0.09275674 0.11985473 0.105318934 -0.109368786 0.11513838 -0.00031459657 -0.009785995 -0.15732026 0.107248716 -0.33213875 0.38322943 -0.10359643 -0.1460131 -0.124544084 0.056702428 0.17943928 -0.04596232 0.52737546 0.10339345 -0.12741464 -0.038782634 -0.04551829 0.032928 0.12125884 -0.3396864 -0.12468417
28 -0.1958798 -0.43151504 0.12210625 -0.024102492 -0.004774559 -0.1972168 0.10491833 0.113924205 0.11358079 -0.10014154 0.12538713 0.0025407064 -0.025246805 -0.14586157 0.10116665 -0.3624342 0.34255254 -0.10211415 -0.12917826 -0.10755422 0.03220451 0.16885486 -0.04157765 0.510518 0.116457514 -0.10287488 -0.04868344 -0.048450828 0.025742665 0.12082371 -0.32011473 -0.10902804
84 -0.17766126 -0.4053286 0.10272641 -0.012623724 0.020611193 -0.18849204 0.078439154 0.107912526 0.12466442 -0.11511003 0.11357199 0.024656598 0.021621782 -0.15465827 0.093099736 -0.3072587 0.36970258 -0.09414973 -0.14314303 -0.12915306 0.029305415 0.17231654 -0.0332692 0.550008 0.13022575 -0.13646042 -0.042981997 -0.052102428 0.025349164 0.1259737 -0.33202922 -0.12252494
7 -0.15785363 -0.3893447 0.08924965 -0.03998707 -0.024925392 -0.19252159 0.11572511 0.09275177 0.12637438 -0.09065862 0.12569849 0.012197587 0.017865533 -0.18226624 0.11136411 -0.28813913 0.38001242 -0.12155292 -0.18137714 -0.118353 0.07800791 0.16495784 -0.038193323 0.517963 0.16270825 -0.10812178 -0.060848698 -0.091828406 0.0026491075 0.14917175 -0.33699512 -0.11010731
322 -0.15787609 -0.39701018 0.090629674 -0.03959127 0.0047984994 -0.1937561 0.11775756 0.089845635 0.13448447 -0.085634954 0.09544761 0.016565178 0.015520644 -0.15867107 0.101225436 -0.27902967 0.38454962 -0.11882502 -0.15240338 -0.13188466 0.05270746 0.15744779 -0.04930328 0.51515895 0.162481 -0.12156121 -0.034268517 -0.09115189 0.015109566 0.17292646 -0.33596808 -0.122407906
383 -0.16834614 -0.3747147 0.084892765 -0.004916693 0.017485507 -0.19124208 0.096345305 0.09301887 0.12175252 -0.12163874 0.12778556 -0.0019428881 -0.020995375 -0.1561323 0.08306648 -0.27568004 0.3638217 -0.09704233 -0.1684984 -0.14553216 0.07034464 0.16885948 -0.043597925 0.5746664 0.12585914 -0.123990886 -0.045490924 -0.06740706 -0.0028348372 0.14265738 -0.35496095 -0.12403885
465 -0.17096217 -0.41196814 0.10341955 -0.04699197 -0.017617643 -0.21363313 0.11059768 0.07932339 0.1392005 -0.08494214 0.13250144 0.02048805 0.033175454 -0.17547013 0.10962413 -0.2801449 0.35383725 -0.111267485 -0.17583549 -0.12411617 0.0424305 0.1742319 -0.054133914 0.5004822 0.16285533 -0.07365888 -0.06533661 -0.07571756 0.0009738851 0.18154229 -0.3439641 -0.12021104
464 -0.17918788 -0.36262098 0.113787256 -0.036851507 -0.008226106 -0.18833493 0.12609398 0.09167754 0.10859872 -0.09079677 0.14678127 0.0146926325 0.04172223 -0.15876499 0.09527253 -0.2495931 0.38290653 -0.103548706 -0.20884115 -0.14969362 0.086234465 0.16913971 -0.017970009 0.5203147 0.15926112 -0.100115456 -0.06752127 -0.08443344 0.0131425485 0.19838755 -0.37766823 -0.1339862
168 -0.18078536 -0.37527093 0.093720995 -0.0029210525 0.008720343 -0.1779568 0.084932566 0.10587956 0.10625308 -0.09361155 0.096652605 0.012701861 0.0030588864 -0.13645418 0.10249235 -0.35754195 0.3778584 -0.097242735 -0.14473566 -0.11979594 0.047240093 0.19111764 -0.029807732 0.5483702 0.12951025 -0.12808155 -0.017983584 -0.06433827 0.023059804 0.13025615 -0.32402933 -0.1277104
162 -0.15677461 -0.39077377 0.105445445 -0.04858174 -0.0324745 -0.21677126 0.13820685 0.07845214 0.14169487 -0.074246466 0.14340363 0.020460013 0.029607441 -0.18875128 0.10107279 -0.2539533 0.36663982 -0.10420319 -0.17364247 -0.1221021 0.088748485 0.15474148 -0.053719554 0.47375995 0.18048245 -0.061732873 -0.063211404 -0.087271824 0.0014880568 0.17986795 -0.33103448 -0.11497514
353 -0.15608075 -0.399086 0.09762352 -0.013138008 -0.0003004179 -0.23077883 0.11900291 0.09632458 0.1416358 -0.10522271 0.10403911 0.026664544 0.0050333436 -0.15138559 0.12465792 -0.34569332 0.35818475 -0.07343365 -0.12061225 -0.10910499 0.06384293 0.17597258 -0.014837469 0.5247762 0.12681204 -0.13281707 -0.044335254 -0.05808902 0.034553953 0.107477844 -0.30953965 -0.11899017
47 -0.15987788 -0.42218938 0.10926456 -0.05298163 -0.027089978 -0.22243632 0.11145589 0.09171999 0.12554114 -0.08337661 0.119870916 0.036014486 0.06257218 -0.19110098 0.11759356 -0.25493544 0.3621779 -0.11057793 -0.16712892 -0.12419786 0.060775355 0.16169682 -0.049202178 0.49922913 0.18319668 -0.086581275 -0.04294245 -0.08425603 -0.0123993885 0.17447712 -0.33511373 -0.11699493
638 -0.16535534 -0.4329553 0.1398926 -0.049242727 -0.027837288 -0.22820906 0.14653844 0.10958742 0.16106291 -0.10315761 0.15484025 0.0361012 0.049182173 -0.1814217 0.118872695 -0.33022636 0.34813154 -0.10316132 -0.124189794 -0.11903352 0.056255244 0.13567904 -0.029482886 0.45047665 0.15541036 -0.06731292 -0.06086775 -0.06862519 0.010640316 0.15150446 -0.31688604 -0.09836435
296 -0.18869606 -0.4075581 0.09951475 -0.05241424 -0.026960954 -0.21047764 0.12298375 0.08507967 0.122605786 -0.10006419 0.11875567 0.0030977314 0.016784323 -0.1533014 0.1002346 -0.31272572 0.37249592 -0.108646825 -0.14533748 -0.110429406 0.059634786 0.15695675 -0.021108544 0.5115905 0.14316148 -0.091040224 -0.04125832 -0.079387434 0.007933827 0.14385131 -0.31681433 -0.124938734
520 -0.15579636 -0.41686606 0.10790834 -0.0634427 -0.033308588 -0.19830094 0.120425224 0.061328027 0.1176862 -0.08303593 0.11890594 -0.007257318 0.025638856 -0.18179828 0.118657045 -0.27646905 0.35577622 -0.0956396 -0.18284121 -0.11254105 0.07182547 0.17623581 -0.03968841 0.49035043 0.15117274 -0.0885995 -0.04023722 -0.09355051 0.005154336 0.17949758 -0.3551397 -0.14091253
642 -0.16873164 -0.41036534 0.06785192 0.008778837 0.011368931 -0.19588311 0.06316922 0.13868682 0.097265795 -0.13254365 0.07168113 0.012190508 -0.020991236 -0.15028508 0.11146526 -0.35015798 0.36503273 -0.092730224 -0.11301126 -0.10337037 0.036991835 0.15776043 -0.030250615 0.55565065 0.10020906 -0.1487282 -0.027054869 -0.05314343 0.028750448 0.08509239 -0.3286737 -0.1471647
138 -0.18601432 -0.40523395 0.0659854 -0.0014272466 0.017745461 -0.20696543 0.072035804 0.13611332 0.10722125 -0.1264852 0.09772312 0.009902038 -0.03850073 -0.13632025 0.1137691 -0.37936953 0.36672744 -0.086223125 -0.12102228 -0.107124716 0.037230957 0.16942944 -0.020018937 0.5215366 0.08712258 -0.16047579 -0.008906637 -0.046451345 0.052804235 0.09491683 -0.3103429 -0.11139736
455 -0.18375875 -0.42177287 0.110680096 -0.042345297 -0.010635105 -0.20749049 0.106474094 0.106975615 0.14118282 -0.12286733 0.11802054 0.0042556734 0.028937891 -0.1665729 0.12450431 -0.33554637 0.3488797 -0.092248335 -0.119139284 -0.12139191 0.04023496 0.17537948 -0.03880684 0.49005148 0.1289825 -0.113801844 -0.04687441 -0.06417825 0.004683474 0.14917451 -0.31984073 -0.1138508
177 -0.20726803 -0.450737 0.110957086 -0.010402208 0.026028413 -0.2422838 0.10238361 0.11851099 0.15611048 -0.12731355 0.11249096 -0.009848673 -0.021228572 -0.16541821 0.12886533 -0.3779722 0.3327817 -0.08167643 -0.12145951 -0.08989897 0.020198368 0.16227405 -0.03846471 0.47056615 0.10770133 -0.101418145 -0.03096784 -0.039368335 0.021960422 0.099076666 -0.29361305 -0.10646417
175 -0.1840066 -0.40328246 0.09939943 -0.019302761 0.014229718 -0.20432805 0.09317517 0.10775795 0.13280343 -0.11906406 0.10535392 0.024138497 0.01544655 -0.13726056 0.09859154 -0.30424836 0.34216624 -0.08324351 -0.14814396 -0.12374114 0.04634299 0.16659482 -0.037826374 0.53657633 0.14479461 -0.13690422 -0.026710812 -0.06345348 0.0052806325 0.12461493 -0.32577032 -0.13938372
651 -0.16277945 -0.39148393 0.096182466 -0.011448323 0.015883688 -0.2046912 0.09114968 0.10966168 0.13050339 -0.10411129 0.112622544 0.019745685 -0.00054484396 -0.15154131 0.12651715 -0.34418017 0.3587481 -0.105021246 -0.12603848 -0.1251562 0.052768882 0.16705877 -0.05112438 0.5043401 0.13153568 -0.09981232 -0.032320894 -0.051520348 0.01703669 0.13360088 -0.31884906 -0.10690442
285 -0.1651079 -0.36262527 0.107648216 -0.017074859 -0.024294809 -0.18190661 0.0975504 0.09425594 0.12531133 -0.09002597 0.10799047 0.012442811 0.010847201 -0.1358927 0.1017496 -0.29248938 0.3845179 -0.09384358 -0.14512394 -0.14496343 0.05888204 0.17859608 -0.033500522 0.5456658 0.16806129 -0.11294114 -0.021896882 -0.06503011 0.019816281 0.14020826 -0.35436878 -0.14647527
531 -0.16915473 -0.40666303 0.1319398 -0.02733329 -0.0012418805 -0.22746263 0.10834228 0.10189035 0.12569971 -0.092000514 0.11622081 0.028699009 0.01569892 -0.17445576 0.10747789 -0.3018893 0.36488628 -0.09367371 -0.14557159 -0.13068908 0.038024668 0.15583979 -0.041669317 0.50283754 0.13316122 -0.09961291 -0.040533673 -0.07225241 0.010763914 0.14764105 -0.32957074 -0.13154581
226 -0.18085496 -0.43436256 0.07644312 -0.025731679 -0.010931447 -0.2387065 0.108452745 0.12826788 0.12736413 -0.107833326 0.12656102 0.00885623 0.009707521 -0.17872141 0.1230038 -0.3710479 0.33258757 -0.07554092 -0.1349158 -0.10823112 0.04085873 0.1453049 -0.027330033 0.45280477 0.13921262 -0.08448525 -0.047131706 -0.05778246 3.826584e-05 0.1219193 -0.31450415 -0.11028086
155 -0.19080414 -0.44051895 0.11104391 -0.0367694 -0.01527411 -0.22691984 0.10177551 0.09598861 0.13060856 -0.102940015 0.121930204 0.0018036889 0.030400638 -0.17577589 0.14326972 -0.35706222 0.33481663 -0.08372328 -0.13437487 -0.117274724 0.041266646 0.16758415 -0.03208047 0.48341978 0.14340858 -0.09360406 -0.0447622 -0.067923 0.021759601 0.1381175 -0.29003972 -0.09427456
609 -0.19021016 -0.44126558 0.11732912 -0.03983359 -0.034556482 -0.2579956 0.14046976 0.10528535 0.1485303 -0.1116415 0.14495584 0.01603499 0.015585714 -0.19241433 0.13777769 -0.3423474 0.3195748 -0.08866078 -0.1570781 -0.12089609 0.057445705 0.1500658 -0.026170043 0.438992 0.16684903 -0.08595951 -0.032114603 -0.077684075 0.012869344 0.15061425 -0.28231406 -0.121316686
471 -0.17541516 -0.4055836 0.08789855 -0.019050062 0.02466074 -0.20860362 0.100606404 0.13929701 0.105087794 -0.11436784 0.11149563 0.0057819393 -0.022757014 -0.14808998 0.1345092 -0.3689331 0.3654804 -0.0793584 -0.10163207 -0.10312087 0.060476873 0.16098198 -0.02715896 0.5182082 0.10000795 -0.11707313 -0.035777114 -0.04161003 0.035344332 0.112245105 -0.31911576 -0.096737094
590 -0.1889672 -0.4265236 0.12629943 -0.033530675 -0.024953295 -0.20442708 0.13458337 0.07627876 0.12910943 -0.096045695 0.13549015 0.0001792893 0.041300192 -0.18282579 0.103660725 -0.27540267 0.34981117 -0.11047601 -0.16828616 -0.12173145 0.07007335 0.16222472 -0.032646365 0.49901637 0.1674868 -0.07270387 -0.051022813 -0.1029552 -0.020436978 0.18187511 -0.33654407 -0.115012854
272 -0.16903485 -0.39088026 0.099033006 -0.027705474 -0.003786608 -0.20781672 0.12382762 0.09630033 0.119242676 -0.097813524 0.1219128 -0.009211927 0.0034812617 -0.15484875 0.11171652 -0.31228393 0.37533543 -0.099244766 -0.15300456 -0.14062206 0.05658802 0.15126267 -0.04992196 0.5154913 0.14483073 -0.08956464 -0.028127776 -0.064223476 0.01825511 0.15329483 -0.33049437 -0.1335909
443 -0.16770121 -0.39862072 0.10474756 -0.023598256 -0.010074115 -0.18981937 0.120376624 0.09917926 0.13473156 -0.11166803 0.091497906 0.008759616 0.013315746 -0.14056495 0.08994031 -0.27912492 0.3902125 -0.11348333 -0.1470272 -0.13594335 0.05387245 0.17272118 -0.047385804 0.5400641 0.17383486 -0.10985089 -0.051864397 -0.0879343 0.0070938487 0.16712213 -0.35400197 -0.12246483
36 -0.15292405 -0.44942334 0.11387111 -0.045746285 -0.013363317 -0.23764043 0.124851026 0.12502304 0.12548953 -0.08750025 0.11661175 0.021459175 0.016440524 -0.16323659 0.12486554 -0.35327664 0.32491454 -0.110387966 -0.13932574 -0.12793471 0.0489084 0.16311404 -0.018061733 0.48035124 0.15003969 -0.11605559 -0.034147564 -0.07019091 -0.0014720259 0.1246552 -0.30187842 -0.118712194
432 -0.18376523 -0.44817522 0.1065463 -0.040712528 -0.032085527 -0.22551213 0.12119565 0.119811036 0.14026976 -0.11493426 0.14340957 -0.006324299 0.007781045 -0.17763485 0.1327274 -0.38027996 0.32132235 -0.08542872 -0.15834069 -0.122992426 0.0465952 0.14189073 -0.032100588 0.44640926 0.1320234 -0.08670335 -0.03193792 -0.055504162 -0.0027399934 0.13431954 -0.30800936 -0.12592088
555 -0.17176302 -0.41454634 0.11358023 -0.012853523 -0.015753169 -0.20075117 0.12824939 0.11826352 0.112670116 -0.10571764 0.14356354 0.027097376 0.0006268317 -0.16924687 0.12960179 -0.33533666 0.36658132 -0.107552685 -0.1595013 -0.10603976 0.06309824 0.17767994 -0.036532022 0.47890624 0.14472702 -0.108779415 -0.04514705 -0.049902007 0.021631503 0.13646099 -0.31498346 -0.122134775
492 -0.15511996 -0.4051689 0.12800735 -0.025298929 -0.018255744 -0.2228296 0.13236168 0.102211796 0.12627082 -0.11334434 0.1250277 0.024660714 0.025036735 -0.16757335 0.1293165 -0.31406894 0.36203268 -0.11142239 -0.1436806 -0.109482504 0.051467117 0.16118027 -0.03616565 0.49838877 0.15772262 -0.10355702 -0.044522837 -0.055836715 0.019129787 0.13194405 -0.3136311 -0.11637586
29 -0.15635446 -0.3745277 0.10803622 -0.028451769 0.002620006 -0.20908587 0.12032788 0.06545667 0.12011902 -0.08862995 0.119949736 0.03165963 0.015700245 -0.151283 0.09788956 -0.2704717 0.37424263 -0.12812552 -0.16116253 -0.13357249 0.06479643 0.1597432 -0.059699994 0.5189715 0.15434933 -0.108851224 -0.046254814 -0.098862045 0.018269248 0.1803353 -0.338774 -0.13322063
373 -0.17353675 -0.42361814 0.12066212 -0.055367835 -0.0067327195 -0.22155742 0.14045738 0.09515321 0.12487689 -0.08857938 0.14769697 -0.003799397 0.022640383 -0.19098444 0.11303424 -0.31755114 0.36415818 -0.10941736 -0.16294067 -0.108957514 0.047277503 0.16513708 -0.04866876 0.4491262 0.15628982 -0.06958686 -0.05582987 -0.07624595 0.0013823234 0.15678445 -0.30237064 -0.099234655
622 -0.17337151 -0.42298546 0.111122265 -0.05772048 -0.017117864 -0.21258186 0.12231643 0.08539879 0.10530782 -0.10900635 0.123073034 0.0031064244 0.012731743 -0.1588666 0.118940905 -0.32537368 0.3615686 -0.09452587 -0.16518131 -0.124495134 0.06345173 0.1531235 -0.04852383 0.49117988 0.15201873 -0.09403162 -0.050519247 -0.0721092 0.014241434 0.17118882 -0.32395217 -0.116347596
15 -0.19738087 -0.43284705 0.13184464 -0.041139662 -0.016247017 -0.19844013 0.13334133 0.08006721 0.14344005 -0.11373224 0.13617785 0.02373786 0.034897238 -0.15781175 0.12217893 -0.31662667 0.3416402 -0.09829651 -0.15788274 -0.13468309 0.07714023 0.17268212 -0.028503219 0.48725528 0.15489332 -0.09002457 -0.050195668 -0.074975714 -0.0037994708 0.15642115 -0.3354178 -0.1103134
205 -0.16355123 -0.38422784 0.10098745 -0.012070288 -0.004291252 -0.20781584 0.10030023 0.10119307 0.113430925 -0.09161906 0.12099549 0.01306483 -0.0035805702 -0.13742441 0.087856054 -0.31010777 0.38643938 -0.09989401 -0.16183557 -0.113888696 0.06570545 0.17558213 -0.03703159 0.528404 0.13080661 -0.12083029 -0.047804844 -0.08092852 0.021370554 0.11865273 -0.3560323 -0.1320573
496 -0.16101235 -0.4251878 0.123226956 -0.04666769 -0.015177898 -0.20465127 0.12365418 0.06577582 0.13892756 -0.09770767 0.13365202 0.00068447704 0.01485538 -0.15852718 0.10288461 -0.27979752 0.3880236 -0.10438485 -0.17468132 -0.1430568 0.056098923 0.16317281 -0.06421023 0.49445382 0.17007062 -0.08883763 -0.0467937 -0.08688199 -0.003590044 0.1710304 -0.31175852 -0.11685285
382 -0.1695739 -0.4107019 0.107555225 -0.057168733 -0.018044977 -0.22560646 0.14702605 0.06355223 0.15191686 -0.10807976 0.117957614 0.020134283 0.041836523 -0.16632174 0.095076345 -0.29704115 0.36315134 -0.10498714 -0.18990098 -0.11737263 0.07299536 0.17302218 -0.050391294 0.47555867 0.16936523 -0.06438046 -0.041239567 -0.09687692 -0.0199419 0.1825229 -0.3341444 -0.118782744
212 -0.17877513 -0.41285622 0.1117069 -0.04657321 -0.028266272 -0.22333175 0.14805882 0.07378942 0.13963902 -0.08505503 0.1306859 0.032191996 0.04428254 -0.16785993 0.09030261 -0.28853452 0.37792057 -0.09082075 -0.14978701 -0.13786817 0.055196587 0.14445157 -0.026470741 0.46647638 0.16281602 -0.08701977 -0.04709588 -0.08290084 -0.0026817403 0.18355615 -0.3401349 -0.10901377
110 -0.15305273 -0.41274947 0.1174449 -0.016729815 -0.0002745688 -0.21101938 0.13599104 0.113629565 0.1130946 -0.10835664 0.11137546 -0.011027884 -0.009960892 -0.15487507 0.107738525 -0.33052838 0.35692456 -0.09115601 -0.15663178 -0.10835727 0.06886812 0.16591771 -0.046888348 0.49237067 0.12575187 -0.11441487 -0.034221902 -0.04206555 0.008345315 0.13745351 -0.30480164 -0.110320054
309 -0.18956967 -0.4312664 0.12702644 -0.029696759 -0.0044185766 -0.21750619 0.10838759 0.0770898 0.1351239 -0.11151033 0.11634913 -0.0047785956 0.013664535 -0.15938014 0.12291477 -0.34230727 0.34513688 -0.061928708 -0.13675135 -0.13568789 0.053989694 0.16023389 -0.049234767 0.48975003 0.15206139 -0.0701468 -0.035143808 -0.08652105 0.015504097 0.15204272 -0.3180053 -0.116521955
479 -0.1938193 -0.40825602 0.10928871 -0.0037491177 0.009471544 -0.21286467 0.101737835 0.12925859 0.11800155 -0.12092178 0.12596586 0.021192145 0.0035728682 -0.16235964 0.13232338 -0.36745873 0.35366994 -0.08231633 -0.12884805 -0.10014602 0.063495696 0.15710811 -0.029026879 0.5059563 0.13868275 -0.10700882 -0.031602446 -0.050987363 0.0479237 0.11097821 -0.29683873 -0.096259855
22 -0.143463 -0.3776154 0.111208856 -0.024749417 -0.010549923 -0.2089607 0.11115886 0.0823546 0.11294903 -0.09981165 0.10513147 0.019875523 0.024805766 -0.15261626 0.11493939 -0.29275656 0.3790507 -0.10027885 -0.1570328 -0.122301996 0.06821446 0.16327229 -0.020165132 0.535657 0.14917417 -0.093425766 -0.045361795 -0.09356616 0.022832274 0.17826913 -0.3556048 -0.13553935
187 -0.17145404 -0.42869678 0.099657856 -0.04419921 -0.016033085 -0.19955005 0.1236324 0.0950443 0.12217162 -0.08727419 0.12337069 0.014870577 0.02270958 -0.1540998 0.12689723 -0.33013344 0.3591088 -0.09888949 -0.13130842 -0.09922345 0.07429551 0.15495227 -0.03414628 0.5039575 0.1429531 -0.120524295 -0.048365407 -0.048823528 0.012400682 0.14165913 -0.31405184 -0.11831666
160 -0.1859113 -0.41152555 0.11657339 -0.016265484 0.00078141264 -0.23067991 0.126833 0.1191088 0.12005488 -0.106693104 0.13290511 -0.009044397 -0.007122543 -0.15252778 0.123578325 -0.34121704 0.36205807 -0.1056851 -0.14679413 -0.09626937 0.048852123 0.17228405 -0.03461573 0.4650039 0.1180152 -0.09399222 -0.028538525 -0.052645084 0.008271558 0.13929084 -0.3034549 -0.11028345
359 -0.16669907 -0.3823794 0.105016716 -0.0103914905 0.017612955 -0.21109499 0.07537493 0.1373332 0.10385971 -0.09219603 0.111336894 0.007281524 -0.032832243 -0.16595212 0.11970209 -0.32987902 0.36917448 -0.09608108 -0.1323368 -0.13662763 0.033992458 0.17368698 -0.033428773 0.5221906 0.1336422 -0.11675008 -0.016748952 -0.04056709 0.015325347 0.10594757 -0.32242092 -0.12901181
210 -0.19729912 -0.39066887 0.07714119 -0.013851499 0.012489165 -0.19336073 0.09357934 0.11376555 0.11013739 -0.093378104 0.108034946 -0.003639687 -0.009667129 -0.13543995 0.10613772 -0.3298707 0.36032802 -0.100100204 -0.14491558 -0.11369563 0.05275307 0.18413623 -0.017867962 0.540398 0.12452008 -0.11992872 -0.016724546 -0.07189207 0.020983865 0.14815855 -0.33339822 -0.12790605
57 -0.1654514 -0.37369204 0.07358673 -0.03358779 0.0072092083 -0.18899544 0.093081355 0.10525251 0.11576696 -0.08864963 0.10367152 0.028550493 0.040082123 -0.14421394 0.09209018 -0.30872238 0.37940848 -0.09216444 -0.15252456 -0.117685385 0.062303115 0.17673898 -0.019171525 0.5529891 0.13934954 -0.11124389 -0.042298086 -0.049374796 0.033530124 0.134438 -0.35367817 -0.123729795
537 -0.16344546 -0.34721816 0.10037638 -0.02137131 0.0019460518 -0.17447488 0.097079635 0.086252965 0.12066687 -0.11178596 0.09473754 0.018682163 0.025944345 -0.13145979 0.092781015 -0.2606227 0.39506578 -0.09111559 -0.16536526 -0.11671197 0.06526209 0.16884892 -0.015555368 0.5657561 0.14865981 -0.1258308 -0.051908027 -0.07559539 0.0062456834 0.13934845 -0.35922903 -0.1467021
293 -0.18495473 -0.38921538 0.10604918 -0.012779581 -0.0008150936 -0.20962717 0.1313073 0.10665071 0.1180404 -0.10676675 0.10795255 -0.0046421723 -1.5740778e-05 -0.14004092 0.11970029 -0.33932066 0.34428507 -0.088401325 -0.13921931 -0.12625319 0.054214824 0.16843139 -0.017375086 0.50782037 0.128952 -0.10407133 -0.02216541 -0.06224629 0.021313341 0.12010242 -0.3290822 -0.12279776
440 -0.17653511 -0.42600834 0.11459133 -0.016765613 0.0004645076 -0.2173706 0.10326016 0.098453075 0.13921547 -0.10863261 0.106848344 0.0024709103 -0.0038504384 -0.13252045 0.10695316 -0.32821035 0.3640359 -0.08639522 -0.13423294 -0.123957776 0.056859083 0.18301237 -0.038996514 0.51805615 0.12034556 -0.12159551 -0.022875335 -0.071583 0.00047493627 0.14241262 -0.30631313 -0.13646093
446 -0.17167501 -0.40239975 0.12402262 -0.0413195 -0.019543732 -0.19313203 0.13514847 0.066332206 0.12362625 -0.10056414 0.12507565 0.0015954837 0.0339437 -0.16130932 0.110416524 -0.30166325 0.36818823 -0.114858136 -0.1767702 -0.13716373 0.083747335 0.14705686 -0.0325603 0.5069296 0.17042424 -0.10026469 -0.06546934 -0.075881116 -0.0056317896 0.1755904 -0.33479854 -0.11273064
31 -0.16168225 -0.41333267 0.12382266 -0.028275834 -0.023807958 -0.22832192 0.13330604 0.080056384 0.11621765 -0.09912679 0.15008926 0.032428555 0.04928494 -0.18512055 0.09769697 -0.3135079 0.3430921 -0.094448954 -0.16256846 -0.113500014 0.06741929 0.14584167 -0.054178454 0.4844921 0.17565486 -0.07799529 -0.0444759 -0.06750325 0.002185682 0.16997144 -0.3454889 -0.116383605
132 -0.18116401 -0.3908723 0.1220007 -0.037831906 -0.012106467 -0.19271825 0.09643637 0.08367856 0.1075712 -0.10142395 0.10494718 0.008182249 0.015023224 -0.15010637 0.12069489 -0.3214638 0.35813558 -0.1056544 -0.14957604 -0.12110668 0.05092532 0.17355102 -0.051991194 0.5293374 0.15234314 -0.094182596 -0.027021103 -0.076583244 0.022576114 0.13944757 -0.3185191 -0.13247396
493 -0.18240494 -0.39356545 0.13536946 -0.036873456 0.008538189 -0.21106657 0.13113077 0.08237699 0.16108443 -0.09353854 0.13396768 0.013459809 0.027672837 -0.16132767 0.09640503 -0.3025888 0.38807106 -0.09877609 -0.16214426 -0.14391217 0.03493927 0.1813838 -0.0522925 0.48589662 0.15814158 -0.08491631 -0.01983074 -0.07745869 0.022195848 0.17848365 -0.33630866 -0.10041447
184 -0.16793692 -0.4030188 0.12540038 -0.03589522 -0.027404219 -0.22150996 0.12200574 0.07807447 0.14328045 -0.082626075 0.11862852 0.032875787 0.044259094 -0.16964719 0.08572019 -0.28515926 0.35592964 -0.11046996 -0.17801628 -0.1193991 0.06719376 0.1749283 -0.026170606 0.50636625 0.15971223 -0.07355512 -0.052084472 -0.091472924 0.009590048 0.193211 -0.35390902 -0.12871161
201 -0.16365615 -0.37700483 0.08940093 -0.015024391 -0.0033461545 -0.17864971 0.08506176 0.10921524 0.11681767 -0.09641192 0.114318945 -0.0052031553 -0.020093275 -0.13339865 0.113905855 -0.30552074 0.36901462 -0.08835432 -0.15670761 -0.11293641 0.07662161 0.18417227 -0.042856626 0.540939 0.14287491 -0.12369403 -0.051615693 -0.084570706 0.033017546 0.14285073 -0.34954622 -0.1413989
572 -0.17453632 -0.42554426 0.11212325 -0.04871808 -0.015692635 -0.22395009 0.1278488 0.09079499 0.13109367 -0.09369694 0.12791161 -0.014953337 -0.016633993 -0.13887948 0.12536305 -0.32797533 0.35988206 -0.103605114 -0.12805922 -0.099494755 0.049919635 0.15165642 -0.04525698 0.4954348 0.12515551 -0.09322479 -0.028849218 -0.07655781 -0.0005989642 0.14587012 -0.3273996 -0.124327786
60 -0.15217243 -0.37822708 0.113779835 -0.024724519 -0.022895316 -0.1819066 0.12367481 0.08304341 0.13242246 -0.08998814 0.09959746 0.018327996 0.025606554 -0.14537938 0.10010661 -0.25010985 0.3738217 -0.12391165 -0.200471 -0.14966214 0.06506224 0.1709574 -0.036047205 0.51929057 0.17948584 -0.077507935 -0.043177254 -0.08694973 0.008450087 0.19932833 -0.36168125 -0.124346875
633 -0.18348722 -0.4351963 0.11899109 -0.028463025 -0.00010793979 -0.19687869 0.11564857 0.11532857 0.13711496 -0.098953664 0.11397556 -0.009084008 -0.0039179903 -0.13987187 0.108107746 -0.3502897 0.35184416 -0.08130532 -0.12438959 -0.09412517 0.0607827 0.18068579 -0.02660719 0.5021504 0.121434875 -0.09376078 -0.039488137 -0.07322263 0.027495448 0.13854979 -0.31777403 -0.10915696
461 -0.15725863 -0.37753862 0.09606514 -0.047563232 -0.015170572 -0.2107012 0.10412369 0.10824997 0.11792246 -0.10683269 0.12513047 0.00939899 -0.0016632964 -0.17153637 0.1095901 -0.310955 0.39176062 -0.1015222 -0.14693765 -0.12316505 0.04667086 0.16974553 -0.027133616 0.5045427 0.15409164 -0.10155716 -0.035718612 -0.050554127 0.016940607 0.14694102 -0.32757798 -0.1190136
534 -0.1951959 -0.44470212 0.12491257 -0.015937516 -0.01145559 -0.21382345 0.11339819 0.09849917 0.1377666 -0.116934195 0.1035368 -0.0034719727 0.0023431585 -0.16009565 0.12214511 -0.36956975 0.32936642 -0.07381051 -0.12076755 -0.104283996 0.041156698 0.15301174 -0.03521073 0.48336488 0.12014211 -0.110554464 -0.028697452 -0.05301814 0.004954856 0.1343641 -0.30506313 -0.09444455
277 -0.19648401 -0.4356476 0.120397024 -0.06479655 -0.038263492 -0.24746153 0.13242343 0.07581088 0.13754943 -0.09231588 0.14059278 0.008656999 0.03698669 -0.18012966 0.10599653 -0.32661363 0.35287374 -0.090330034 -0.14171587 -0.12877436 0.06581944 0.14942569 -0.018847344 0.45919108 0.15550204 -0.07969235 -0.051780388 -0.06457853 0.018800093 0.15102938 -0.32592693 -0.098791204
